digraph Tree {
node [shape=box, style="filled, rounded", color="black", fontname="helvetica"] ;
edge [fontname="helvetica"] ;
0 [label="prev_outcome <= 0.833\ngini = 0.199\nsamples = 20013\nvalue = [28088, 3555]\nclass = No", fillcolor="#e89152"] ;
1 [label="prev_outcome <= 0.5\ngini = 0.345\nsamples = 3533\nvalue = [4361, 1244]\nclass = No", fillcolor="#eca571"] ;
0 -> 1 [labeldistance=2.5, labelangle=45, headlabel="True"] ;
2 [label="num_calls <= 0.5\ngini = 0.22\nsamples = 2858\nvalue = [3960, 570]\nclass = No", fillcolor="#e99356"] ;
1 -> 2 ;
3 [label="day <= 0.65\ngini = 0.228\nsamples = 2527\nvalue = [3482, 525]\nclass = No", fillcolor="#e99457"] ;
2 -> 3 ;
4 [label="job <= 0.227\ngini = 0.203\nsamples = 2061\nvalue = [2912, 377]\nclass = No", fillcolor="#e89153"] ;
3 -> 4 ;
5 [label="dur <= 0.192\ngini = 0.131\nsamples = 842\nvalue = [1258.0, 95.0]\nclass = No", fillcolor="#e78b48"] ;
4 -> 5 ;
6 [label="dur <= 0.108\ngini = 0.009\nsamples = 260\nvalue = [430, 2]\nclass = No", fillcolor="#e5823a"] ;
5 -> 6 ;
7 [label="education_qual <= 0.5\ngini = 0.022\nsamples = 109\nvalue = [179, 2]\nclass = No", fillcolor="#e5823b"] ;
6 -> 7 ;
8 [label="gini = 0.0\nsamples = 94\nvalue = [154, 0]\nclass = No", fillcolor="#e58139"] ;
7 -> 8 ;
9 [label="day <= 0.05\ngini = 0.137\nsamples = 15\nvalue = [25, 2]\nclass = No", fillcolor="#e78b49"] ;
7 -> 9 ;
10 [label="gini = 0.0\nsamples = 1\nvalue = [0, 2]\nclass = Yes", fillcolor="#399de5"] ;
9 -> 10 ;
11 [label="gini = 0.0\nsamples = 14\nvalue = [25, 0]\nclass = No", fillcolor="#e58139"] ;
9 -> 11 ;
12 [label="gini = 0.0\nsamples = 151\nvalue = [251, 0]\nclass = No", fillcolor="#e58139"] ;
6 -> 12 ;
13 [label="dur <= 0.194\ngini = 0.182\nsamples = 582\nvalue = [828, 93]\nclass = No", fillcolor="#e88f4f"] ;
5 -> 13 ;
14 [label="job <= 0.136\ngini = 0.49\nsamples = 40\nvalue = [33, 25]\nclass = No", fillcolor="#f9e0cf"] ;
13 -> 14 ;
15 [label="education_qual <= 0.667\ngini = 0.473\nsamples = 36\nvalue = [32, 20]\nclass = No", fillcolor="#f5d0b5"] ;
14 -> 15 ;
16 [label="day <= 0.45\ngini = 0.491\nsamples = 34\nvalue = [26.0, 20.0]\nclass = No", fillcolor="#f9e2d1"] ;
15 -> 16 ;
17 [label="education_qual <= 0.167\ngini = 0.497\nsamples = 22\nvalue = [13, 15]\nclass = Yes", fillcolor="#e5f2fc"] ;
16 -> 17 ;
18 [label="gini = 0.0\nsamples = 4\nvalue = [0, 5]\nclass = Yes", fillcolor="#399de5"] ;
17 -> 18 ;
19 [label="age <= 0.731\ngini = 0.491\nsamples = 18\nvalue = [13.0, 10.0]\nclass = No", fillcolor="#f9e2d1"] ;
17 -> 19 ;
20 [label="age <= 0.5\ngini = 0.455\nsamples = 16\nvalue = [13, 7]\nclass = No", fillcolor="#f3c5a4"] ;
19 -> 20 ;
21 [label="day <= 0.05\ngini = 0.463\nsamples = 10\nvalue = [4, 7]\nclass = Yes", fillcolor="#aad5f4"] ;
20 -> 21 ;
22 [label="num_calls <= 0.1\ngini = 0.444\nsamples = 2\nvalue = [2, 1]\nclass = No", fillcolor="#f2c09c"] ;
21 -> 22 ;
23 [label="gini = 0.0\nsamples = 1\nvalue = [2, 0]\nclass = No", fillcolor="#e58139"] ;
22 -> 23 ;
24 [label="gini = 0.0\nsamples = 1\nvalue = [0, 1]\nclass = Yes", fillcolor="#399de5"] ;
22 -> 24 ;
25 [label="age <= 0.471\ngini = 0.375\nsamples = 8\nvalue = [2, 6]\nclass = Yes", fillcolor="#7bbeee"] ;
21 -> 25 ;
26 [label="day <= 0.283\ngini = 0.245\nsamples = 7\nvalue = [1, 6]\nclass = Yes", fillcolor="#5aade9"] ;
25 -> 26 ;
27 [label="gini = 0.0\nsamples = 4\nvalue = [0, 4]\nclass = Yes", fillcolor="#399de5"] ;
26 -> 27 ;
28 [label="mon <= 0.5\ngini = 0.444\nsamples = 3\nvalue = [1, 2]\nclass = Yes", fillcolor="#9ccef2"] ;
26 -> 28 ;
29 [label="gini = 0.0\nsamples = 1\nvalue = [1, 0]\nclass = No", fillcolor="#e58139"] ;
28 -> 29 ;
30 [label="gini = 0.0\nsamples = 2\nvalue = [0, 2]\nclass = Yes", fillcolor="#399de5"] ;
28 -> 30 ;
31 [label="gini = 0.0\nsamples = 1\nvalue = [1, 0]\nclass = No", fillcolor="#e58139"] ;
25 -> 31 ;
32 [label="gini = 0.0\nsamples = 6\nvalue = [9, 0]\nclass = No", fillcolor="#e58139"] ;
20 -> 32 ;
33 [label="gini = 0.0\nsamples = 2\nvalue = [0, 3]\nclass = Yes", fillcolor="#399de5"] ;
19 -> 33 ;
34 [label="day <= 0.617\ngini = 0.401\nsamples = 12\nvalue = [13, 5]\nclass = No", fillcolor="#efb185"] ;
16 -> 34 ;
35 [label="age <= 0.433\ngini = 0.36\nsamples = 11\nvalue = [13, 4]\nclass = No", fillcolor="#eda876"] ;
34 -> 35 ;
36 [label="job <= 0.045\ngini = 0.48\nsamples = 5\nvalue = [2, 3]\nclass = Yes", fillcolor="#bddef6"] ;
35 -> 36 ;
37 [label="gini = 0.0\nsamples = 2\nvalue = [0, 2]\nclass = Yes", fillcolor="#399de5"] ;
36 -> 37 ;
38 [label="prev_outcome <= 0.167\ngini = 0.444\nsamples = 3\nvalue = [2, 1]\nclass = No", fillcolor="#f2c09c"] ;
36 -> 38 ;
39 [label="age <= 0.221\ngini = 0.5\nsamples = 2\nvalue = [1, 1]\nclass = No", fillcolor="#ffffff"] ;
38 -> 39 ;
40 [label="gini = 0.0\nsamples = 1\nvalue = [1, 0]\nclass = No", fillcolor="#e58139"] ;
39 -> 40 ;
41 [label="gini = 0.0\nsamples = 1\nvalue = [0, 1]\nclass = Yes", fillcolor="#399de5"] ;
39 -> 41 ;
42 [label="gini = 0.0\nsamples = 1\nvalue = [1, 0]\nclass = No", fillcolor="#e58139"] ;
38 -> 42 ;
43 [label="day <= 0.483\ngini = 0.153\nsamples = 6\nvalue = [11, 1]\nclass = No", fillcolor="#e78c4b"] ;
35 -> 43 ;
44 [label="age <= 0.51\ngini = 0.32\nsamples = 3\nvalue = [4, 1]\nclass = No", fillcolor="#eca06a"] ;
43 -> 44 ;
45 [label="gini = 0.0\nsamples = 1\nvalue = [2, 0]\nclass = No", fillcolor="#e58139"] ;
44 -> 45 ;
46 [label="education_qual <= 0.167\ngini = 0.444\nsamples = 2\nvalue = [2, 1]\nclass = No", fillcolor="#f2c09c"] ;
44 -> 46 ;
47 [label="gini = 0.0\nsamples = 1\nvalue = [2, 0]\nclass = No", fillcolor="#e58139"] ;
46 -> 47 ;
48 [label="gini = 0.0\nsamples = 1\nvalue = [0, 1]\nclass = Yes", fillcolor="#399de5"] ;
46 -> 48 ;
49 [label="gini = 0.0\nsamples = 3\nvalue = [7, 0]\nclass = No", fillcolor="#e58139"] ;
43 -> 49 ;
50 [label="gini = 0.0\nsamples = 1\nvalue = [0, 1]\nclass = Yes", fillcolor="#399de5"] ;
34 -> 50 ;
51 [label="gini = 0.0\nsamples = 2\nvalue = [6, 0]\nclass = No", fillcolor="#e58139"] ;
15 -> 51 ;
52 [label="mon <= 0.773\ngini = 0.278\nsamples = 4\nvalue = [1, 5]\nclass = Yes", fillcolor="#61b1ea"] ;
14 -> 52 ;
53 [label="age <= 0.471\ngini = 0.444\nsamples = 3\nvalue = [1, 2]\nclass = Yes", fillcolor="#9ccef2"] ;
52 -> 53 ;
54 [label="gini = 0.0\nsamples = 2\nvalue = [0, 2]\nclass = Yes", fillcolor="#399de5"] ;
53 -> 54 ;
55 [label="gini = 0.0\nsamples = 1\nvalue = [1, 0]\nclass = No", fillcolor="#e58139"] ;
53 -> 55 ;
56 [label="gini = 0.0\nsamples = 1\nvalue = [0, 3]\nclass = Yes", fillcolor="#399de5"] ;
52 -> 56 ;
57 [label="mon <= 0.045\ngini = 0.145\nsamples = 542\nvalue = [795, 68]\nclass = No", fillcolor="#e78c4a"] ;
13 -> 57 ;
58 [label="age <= 0.51\ngini = 0.032\nsamples = 116\nvalue = [181, 3]\nclass = No", fillcolor="#e5833c"] ;
57 -> 58 ;
59 [label="gini = 0.0\nsamples = 90\nvalue = [143, 0]\nclass = No", fillcolor="#e58139"] ;
58 -> 59 ;
60 [label="num_calls <= 0.3\ngini = 0.136\nsamples = 26\nvalue = [38, 3]\nclass = No", fillcolor="#e78b49"] ;
58 -> 60 ;
61 [label="marital <= 0.25\ngini = 0.059\nsamples = 21\nvalue = [32, 1]\nclass = No", fillcolor="#e6853f"] ;
60 -> 61 ;
62 [label="day <= 0.283\ngini = 0.198\nsamples = 5\nvalue = [8, 1]\nclass = No", fillcolor="#e89152"] ;
61 -> 62 ;
63 [label="gini = 0.0\nsamples = 1\nvalue = [0, 1]\nclass = Yes", fillcolor="#399de5"] ;
62 -> 63 ;
64 [label="gini = 0.0\nsamples = 4\nvalue = [8, 0]\nclass = No", fillcolor="#e58139"] ;
62 -> 64 ;
65 [label="gini = 0.0\nsamples = 16\nvalue = [24, 0]\nclass = No", fillcolor="#e58139"] ;
61 -> 65 ;
66 [label="dur <= 0.586\ngini = 0.375\nsamples = 5\nvalue = [6, 2]\nclass = No", fillcolor="#eeab7b"] ;
60 -> 66 ;
67 [label="dur <= 0.488\ngini = 0.5\nsamples = 3\nvalue = [2, 2]\nclass = No", fillcolor="#ffffff"] ;
66 -> 67 ;
68 [label="gini = 0.0\nsamples = 2\nvalue = [2, 0]\nclass = No", fillcolor="#e58139"] ;
67 -> 68 ;
69 [label="gini = 0.0\nsamples = 1\nvalue = [0, 2]\nclass = Yes", fillcolor="#399de5"] ;
67 -> 69 ;
70 [label="gini = 0.0\nsamples = 2\nvalue = [4, 0]\nclass = No", fillcolor="#e58139"] ;
66 -> 70 ;
71 [label="dur <= 0.632\ngini = 0.173\nsamples = 426\nvalue = [614, 65]\nclass = No", fillcolor="#e88e4e"] ;
57 -> 71 ;
72 [label="mon <= 0.682\ngini = 0.134\nsamples = 365\nvalue = [552.0, 43.0]\nclass = No", fillcolor="#e78b48"] ;
71 -> 72 ;
73 [label="age <= 0.788\ngini = 0.349\nsamples = 87\nvalue = [100, 29]\nclass = No", fillcolor="#eda672"] ;
72 -> 73 ;
74 [label="mon <= 0.409\ngini = 0.304\nsamples = 84\nvalue = [100, 23]\nclass = No", fillcolor="#eb9e67"] ;
73 -> 74 ;
75 [label="day <= 0.467\ngini = 0.233\nsamples = 70\nvalue = [90, 14]\nclass = No", fillcolor="#e99558"] ;
74 -> 75 ;
76 [label="dur <= 0.38\ngini = 0.209\nsamples = 68\nvalue = [89, 12]\nclass = No", fillcolor="#e99254"] ;
75 -> 76 ;
77 [label="age <= 0.413\ngini = 0.058\nsamples = 42\nvalue = [65, 2]\nclass = No", fillcolor="#e6853f"] ;
76 -> 77 ;
78 [label="dur <= 0.196\ngini = 0.142\nsamples = 18\nvalue = [24, 2]\nclass = No", fillcolor="#e78c49"] ;
77 -> 78 ;
79 [label="gini = 0.0\nsamples = 1\nvalue = [0, 1]\nclass = Yes", fillcolor="#399de5"] ;
78 -> 79 ;
80 [label="age <= 0.394\ngini = 0.077\nsamples = 17\nvalue = [24, 1]\nclass = No", fillcolor="#e68641"] ;
78 -> 80 ;
81 [label="gini = 0.0\nsamples = 16\nvalue = [24, 0]\nclass = No", fillcolor="#e58139"] ;
80 -> 81 ;
82 [label="gini = 0.0\nsamples = 1\nvalue = [0, 1]\nclass = Yes", fillcolor="#399de5"] ;
80 -> 82 ;
83 [label="gini = 0.0\nsamples = 24\nvalue = [41, 0]\nclass = No", fillcolor="#e58139"] ;
77 -> 83 ;
84 [label="mon <= 0.227\ngini = 0.415\nsamples = 26\nvalue = [24, 10]\nclass = No", fillcolor="#f0b58b"] ;
76 -> 84 ;
85 [label="job <= 0.045\ngini = 0.298\nsamples = 9\nvalue = [2, 9]\nclass = Yes", fillcolor="#65b3eb"] ;
84 -> 85 ;
86 [label="dur <= 0.392\ngini = 0.198\nsamples = 7\nvalue = [1, 8]\nclass = Yes", fillcolor="#52a9e8"] ;
85 -> 86 ;
87 [label="age <= 0.346\ngini = 0.444\nsamples = 2\nvalue = [1, 2]\nclass = Yes", fillcolor="#9ccef2"] ;
86 -> 87 ;
88 [label="gini = 0.0\nsamples = 1\nvalue = [0, 2]\nclass = Yes", fillcolor="#399de5"] ;
87 -> 88 ;
89 [label="gini = 0.0\nsamples = 1\nvalue = [1, 0]\nclass = No", fillcolor="#e58139"] ;
87 -> 89 ;
90 [label="gini = 0.0\nsamples = 5\nvalue = [0, 6]\nclass = Yes", fillcolor="#399de5"] ;
86 -> 90 ;
91 [label="dur <= 0.395\ngini = 0.5\nsamples = 2\nvalue = [1, 1]\nclass = No", fillcolor="#ffffff"] ;
85 -> 91 ;
92 [label="gini = 0.0\nsamples = 1\nvalue = [1, 0]\nclass = No", fillcolor="#e58139"] ;
91 -> 92 ;
93 [label="gini = 0.0\nsamples = 1\nvalue = [0, 1]\nclass = Yes", fillcolor="#399de5"] ;
91 -> 93 ;
94 [label="day <= 0.2\ngini = 0.083\nsamples = 17\nvalue = [22, 1]\nclass = No", fillcolor="#e68742"] ;
84 -> 94 ;
95 [label="gini = 0.0\nsamples = 16\nvalue = [22, 0]\nclass = No", fillcolor="#e58139"] ;
94 -> 95 ;
96 [label="gini = 0.0\nsamples = 1\nvalue = [0, 1]\nclass = Yes", fillcolor="#399de5"] ;
94 -> 96 ;
97 [label="age <= 0.442\ngini = 0.444\nsamples = 2\nvalue = [1, 2]\nclass = Yes", fillcolor="#9ccef2"] ;
75 -> 97 ;
98 [label="gini = 0.0\nsamples = 1\nvalue = [1, 0]\nclass = No", fillcolor="#e58139"] ;
97 -> 98 ;
99 [label="gini = 0.0\nsamples = 1\nvalue = [0, 2]\nclass = Yes", fillcolor="#399de5"] ;
97 -> 99 ;
100 [label="dur <= 0.319\ngini = 0.499\nsamples = 14\nvalue = [10, 9]\nclass = No", fillcolor="#fcf2eb"] ;
74 -> 100 ;
101 [label="prev_outcome <= 0.167\ngini = 0.375\nsamples = 10\nvalue = [9, 3]\nclass = No", fillcolor="#eeab7b"] ;
100 -> 101 ;
102 [label="job <= 0.045\ngini = 0.42\nsamples = 8\nvalue = [7, 3]\nclass = No", fillcolor="#f0b78e"] ;
101 -> 102 ;
103 [label="day <= 0.35\ngini = 0.408\nsamples = 5\nvalue = [5, 2]\nclass = No", fillcolor="#efb388"] ;
102 -> 103 ;
104 [label="age <= 0.346\ngini = 0.278\nsamples = 4\nvalue = [5, 1]\nclass = No", fillcolor="#ea9a61"] ;
103 -> 104 ;
105 [label="gini = 0.0\nsamples = 3\nvalue = [5, 0]\nclass = No", fillcolor="#e58139"] ;
104 -> 105 ;
106 [label="gini = 0.0\nsamples = 1\nvalue = [0, 1]\nclass = Yes", fillcolor="#399de5"] ;
104 -> 106 ;
107 [label="gini = 0.0\nsamples = 1\nvalue = [0, 1]\nclass = Yes", fillcolor="#399de5"] ;
103 -> 107 ;
108 [label="mon <= 0.5\ngini = 0.444\nsamples = 3\nvalue = [2, 1]\nclass = No", fillcolor="#f2c09c"] ;
102 -> 108 ;
109 [label="gini = 0.0\nsamples = 2\nvalue = [2, 0]\nclass = No", fillcolor="#e58139"] ;
108 -> 109 ;
110 [label="gini = 0.0\nsamples = 1\nvalue = [0, 1]\nclass = Yes", fillcolor="#399de5"] ;
108 -> 110 ;
111 [label="gini = 0.0\nsamples = 2\nvalue = [2, 0]\nclass = No", fillcolor="#e58139"] ;
101 -> 111 ;
112 [label="day <= 0.133\ngini = 0.245\nsamples = 4\nvalue = [1, 6]\nclass = Yes", fillcolor="#5aade9"] ;
100 -> 112 ;
113 [label="education_qual <= 0.5\ngini = 0.5\nsamples = 2\nvalue = [1, 1]\nclass = No", fillcolor="#ffffff"] ;
112 -> 113 ;
114 [label="gini = 0.0\nsamples = 1\nvalue = [0, 1]\nclass = Yes", fillcolor="#399de5"] ;
113 -> 114 ;
115 [label="gini = 0.0\nsamples = 1\nvalue = [1, 0]\nclass = No", fillcolor="#e58139"] ;
113 -> 115 ;
116 [label="gini = 0.0\nsamples = 2\nvalue = [0, 5]\nclass = Yes", fillcolor="#399de5"] ;
112 -> 116 ;
117 [label="gini = 0.0\nsamples = 3\nvalue = [0, 6]\nclass = Yes", fillcolor="#399de5"] ;
73 -> 117 ;
118 [label="mon <= 0.864\ngini = 0.058\nsamples = 278\nvalue = [452, 14]\nclass = No", fillcolor="#e6853f"] ;
72 -> 118 ;
119 [label="call_type <= 0.25\ngini = 0.036\nsamples = 262\nvalue = [433, 8]\nclass = No", fillcolor="#e5833d"] ;
118 -> 119 ;
120 [label="day <= 0.35\ngini = 0.032\nsamples = 254\nvalue = [425, 7]\nclass = No", fillcolor="#e5833c"] ;
119 -> 120 ;
121 [label="gini = 0.0\nsamples = 96\nvalue = [163, 0]\nclass = No", fillcolor="#e58139"] ;
120 -> 121 ;
122 [label="age <= 0.76\ngini = 0.051\nsamples = 158\nvalue = [262, 7]\nclass = No", fillcolor="#e6843e"] ;
120 -> 122 ;
123 [label="age <= 0.356\ngini = 0.038\nsamples = 151\nvalue = [253, 5]\nclass = No", fillcolor="#e6833d"] ;
122 -> 123 ;
124 [label="job <= 0.136\ngini = 0.061\nsamples = 76\nvalue = [123, 4]\nclass = No", fillcolor="#e6853f"] ;
123 -> 124 ;
125 [label="marital <= 0.75\ngini = 0.05\nsamples = 71\nvalue = [115, 3]\nclass = No", fillcolor="#e6843e"] ;
124 -> 125 ;
126 [label="age <= 0.298\ngini = 0.079\nsamples = 44\nvalue = [70, 3]\nclass = No", fillcolor="#e68641"] ;
125 -> 126 ;
127 [label="day <= 0.383\ngini = 0.115\nsamples = 27\nvalue = [46, 3]\nclass = No", fillcolor="#e78946"] ;
126 -> 127 ;
128 [label="job <= 0.045\ngini = 0.444\nsamples = 2\nvalue = [1, 2]\nclass = Yes", fillcolor="#9ccef2"] ;
127 -> 128 ;
129 [label="gini = 0.0\nsamples = 1\nvalue = [1, 0]\nclass = No", fillcolor="#e58139"] ;
128 -> 129 ;
130 [label="gini = 0.0\nsamples = 1\nvalue = [0, 2]\nclass = Yes", fillcolor="#399de5"] ;
128 -> 130 ;
131 [label="age <= 0.279\ngini = 0.043\nsamples = 25\nvalue = [45, 1]\nclass = No", fillcolor="#e6843d"] ;
127 -> 131 ;
132 [label="gini = 0.0\nsamples = 19\nvalue = [38, 0]\nclass = No", fillcolor="#e58139"] ;
131 -> 132 ;
133 [label="prev_outcome <= 0.167\ngini = 0.219\nsamples = 6\nvalue = [7, 1]\nclass = No", fillcolor="#e99355"] ;
131 -> 133 ;
134 [label="mon <= 0.773\ngini = 0.245\nsamples = 5\nvalue = [6, 1]\nclass = No", fillcolor="#e9965a"] ;
133 -> 134 ;
135 [label="gini = 0.0\nsamples = 3\nvalue = [5, 0]\nclass = No", fillcolor="#e58139"] ;
134 -> 135 ;
136 [label="dur <= 0.244\ngini = 0.5\nsamples = 2\nvalue = [1, 1]\nclass = No", fillcolor="#ffffff"] ;
134 -> 136 ;
137 [label="gini = 0.0\nsamples = 1\nvalue = [0, 1]\nclass = Yes", fillcolor="#399de5"] ;
136 -> 137 ;
138 [label="gini = 0.0\nsamples = 1\nvalue = [1, 0]\nclass = No", fillcolor="#e58139"] ;
136 -> 138 ;
139 [label="gini = 0.0\nsamples = 1\nvalue = [1, 0]\nclass = No", fillcolor="#e58139"] ;
133 -> 139 ;
140 [label="gini = 0.0\nsamples = 17\nvalue = [24, 0]\nclass = No", fillcolor="#e58139"] ;
126 -> 140 ;
141 [label="gini = 0.0\nsamples = 27\nvalue = [45, 0]\nclass = No", fillcolor="#e58139"] ;
125 -> 141 ;
142 [label="mon <= 0.773\ngini = 0.198\nsamples = 5\nvalue = [8, 1]\nclass = No", fillcolor="#e89152"] ;
124 -> 142 ;
143 [label="gini = 0.0\nsamples = 3\nvalue = [7, 0]\nclass = No", fillcolor="#e58139"] ;
142 -> 143 ;
144 [label="dur <= 0.317\ngini = 0.5\nsamples = 2\nvalue = [1, 1]\nclass = No", fillcolor="#ffffff"] ;
142 -> 144 ;
145 [label="gini = 0.0\nsamples = 1\nvalue = [1, 0]\nclass = No", fillcolor="#e58139"] ;
144 -> 145 ;
146 [label="gini = 0.0\nsamples = 1\nvalue = [0, 1]\nclass = Yes", fillcolor="#399de5"] ;
144 -> 146 ;
147 [label="num_calls <= 0.1\ngini = 0.015\nsamples = 75\nvalue = [130, 1]\nclass = No", fillcolor="#e5823b"] ;
123 -> 147 ;
148 [label="dur <= 0.47\ngini = 0.037\nsamples = 31\nvalue = [52, 1]\nclass = No", fillcolor="#e6833d"] ;
147 -> 148 ;
149 [label="gini = 0.0\nsamples = 29\nvalue = [51, 0]\nclass = No", fillcolor="#e58139"] ;
148 -> 149 ;
150 [label="dur <= 0.517\ngini = 0.5\nsamples = 2\nvalue = [1, 1]\nclass = No", fillcolor="#ffffff"] ;
148 -> 150 ;
151 [label="gini = 0.0\nsamples = 1\nvalue = [0, 1]\nclass = Yes", fillcolor="#399de5"] ;
150 -> 151 ;
152 [label="gini = 0.0\nsamples = 1\nvalue = [1, 0]\nclass = No", fillcolor="#e58139"] ;
150 -> 152 ;
153 [label="gini = 0.0\nsamples = 44\nvalue = [78, 0]\nclass = No", fillcolor="#e58139"] ;
147 -> 153 ;
154 [label="dur <= 0.42\ngini = 0.298\nsamples = 7\nvalue = [9, 2]\nclass = No", fillcolor="#eb9d65"] ;
122 -> 154 ;
155 [label="gini = 0.0\nsamples = 4\nvalue = [5, 0]\nclass = No", fillcolor="#e58139"] ;
154 -> 155 ;
156 [label="job <= 0.045\ngini = 0.444\nsamples = 3\nvalue = [4, 2]\nclass = No", fillcolor="#f2c09c"] ;
154 -> 156 ;
157 [label="gini = 0.0\nsamples = 1\nvalue = [0, 2]\nclass = Yes", fillcolor="#399de5"] ;
156 -> 157 ;
158 [label="gini = 0.0\nsamples = 2\nvalue = [4, 0]\nclass = No", fillcolor="#e58139"] ;
156 -> 158 ;
159 [label="marital <= 0.75\ngini = 0.198\nsamples = 8\nvalue = [8, 1]\nclass = No", fillcolor="#e89152"] ;
119 -> 159 ;
160 [label="dur <= 0.434\ngini = 0.278\nsamples = 5\nvalue = [5, 1]\nclass = No", fillcolor="#ea9a61"] ;
159 -> 160 ;
161 [label="gini = 0.0\nsamples = 3\nvalue = [4, 0]\nclass = No", fillcolor="#e58139"] ;
160 -> 161 ;
162 [label="num_calls <= 0.3\ngini = 0.5\nsamples = 2\nvalue = [1, 1]\nclass = No", fillcolor="#ffffff"] ;
160 -> 162 ;
163 [label="gini = 0.0\nsamples = 1\nvalue = [0, 1]\nclass = Yes", fillcolor="#399de5"] ;
162 -> 163 ;
164 [label="gini = 0.0\nsamples = 1\nvalue = [1, 0]\nclass = No", fillcolor="#e58139"] ;
162 -> 164 ;
165 [label="gini = 0.0\nsamples = 3\nvalue = [3, 0]\nclass = No", fillcolor="#e58139"] ;
159 -> 165 ;
166 [label="age <= 0.404\ngini = 0.365\nsamples = 16\nvalue = [19, 6]\nclass = No", fillcolor="#eda978"] ;
118 -> 166 ;
167 [label="day <= 0.083\ngini = 0.496\nsamples = 7\nvalue = [5, 6]\nclass = Yes", fillcolor="#deeffb"] ;
166 -> 167 ;
168 [label="gini = 0.0\nsamples = 1\nvalue = [2, 0]\nclass = No", fillcolor="#e58139"] ;
167 -> 168 ;
169 [label="dur <= 0.301\ngini = 0.444\nsamples = 6\nvalue = [3, 6]\nclass = Yes", fillcolor="#9ccef2"] ;
167 -> 169 ;
170 [label="gini = 0.0\nsamples = 2\nvalue = [3, 0]\nclass = No", fillcolor="#e58139"] ;
169 -> 170 ;
171 [label="gini = 0.0\nsamples = 4\nvalue = [0, 6]\nclass = Yes", fillcolor="#399de5"] ;
169 -> 171 ;
172 [label="gini = 0.0\nsamples = 9\nvalue = [14, 0]\nclass = No", fillcolor="#e58139"] ;
166 -> 172 ;
173 [label="dur <= 0.638\ngini = 0.387\nsamples = 61\nvalue = [62, 22]\nclass = No", fillcolor="#eeae7f"] ;
71 -> 173 ;
174 [label="gini = 0.0\nsamples = 2\nvalue = [0, 4]\nclass = Yes", fillcolor="#399de5"] ;
173 -> 174 ;
175 [label="age <= 0.692\ngini = 0.349\nsamples = 59\nvalue = [62, 18]\nclass = No", fillcolor="#eda672"] ;
173 -> 175 ;
176 [label="dur <= 0.7\ngini = 0.329\nsamples = 56\nvalue = [61, 16]\nclass = No", fillcolor="#eca26d"] ;
175 -> 176 ;
177 [label="day <= 0.45\ngini = 0.095\nsamples = 14\nvalue = [19, 1]\nclass = No", fillcolor="#e68843"] ;
176 -> 177 ;
178 [label="gini = 0.0\nsamples = 9\nvalue = [12, 0]\nclass = No", fillcolor="#e58139"] ;
177 -> 178 ;
179 [label="age <= 0.433\ngini = 0.219\nsamples = 5\nvalue = [7, 1]\nclass = No", fillcolor="#e99355"] ;
177 -> 179 ;
180 [label="dur <= 0.656\ngini = 0.375\nsamples = 3\nvalue = [3, 1]\nclass = No", fillcolor="#eeab7b"] ;
179 -> 180 ;
181 [label="gini = 0.0\nsamples = 1\nvalue = [2, 0]\nclass = No", fillcolor="#e58139"] ;
180 -> 181 ;
182 [label="job <= 0.045\ngini = 0.5\nsamples = 2\nvalue = [1, 1]\nclass = No", fillcolor="#ffffff"] ;
180 -> 182 ;
183 [label="gini = 0.0\nsamples = 1\nvalue = [0, 1]\nclass = Yes", fillcolor="#399de5"] ;
182 -> 183 ;
184 [label="gini = 0.0\nsamples = 1\nvalue = [1, 0]\nclass = No", fillcolor="#e58139"] ;
182 -> 184 ;
185 [label="gini = 0.0\nsamples = 2\nvalue = [4, 0]\nclass = No", fillcolor="#e58139"] ;
179 -> 185 ;
186 [label="num_calls <= 0.1\ngini = 0.388\nsamples = 42\nvalue = [42, 15]\nclass = No", fillcolor="#eeae80"] ;
176 -> 186 ;
187 [label="dur <= 0.946\ngini = 0.457\nsamples = 24\nvalue = [22, 12]\nclass = No", fillcolor="#f3c6a5"] ;
186 -> 187 ;
188 [label="dur <= 0.702\ngini = 0.4\nsamples = 21\nvalue = [21, 8]\nclass = No", fillcolor="#efb184"] ;
187 -> 188 ;
189 [label="gini = 0.0\nsamples = 1\nvalue = [0, 1]\nclass = Yes", fillcolor="#399de5"] ;
188 -> 189 ;
190 [label="dur <= 0.735\ngini = 0.375\nsamples = 20\nvalue = [21, 7]\nclass = No", fillcolor="#eeab7b"] ;
188 -> 190 ;
191 [label="gini = 0.0\nsamples = 2\nvalue = [4, 0]\nclass = No", fillcolor="#e58139"] ;
190 -> 191 ;
192 [label="marital <= 0.75\ngini = 0.413\nsamples = 18\nvalue = [17, 7]\nclass = No", fillcolor="#f0b58b"] ;
190 -> 192 ;
193 [label="day <= 0.3\ngini = 0.291\nsamples = 12\nvalue = [14, 3]\nclass = No", fillcolor="#eb9c63"] ;
192 -> 193 ;
194 [label="day <= 0.083\ngini = 0.42\nsamples = 7\nvalue = [7, 3]\nclass = No", fillcolor="#f0b78e"] ;
193 -> 194 ;
195 [label="gini = 0.0\nsamples = 2\nvalue = [3, 0]\nclass = No", fillcolor="#e58139"] ;
194 -> 195 ;
196 [label="day <= 0.117\ngini = 0.49\nsamples = 5\nvalue = [4, 3]\nclass = No", fillcolor="#f8e0ce"] ;
194 -> 196 ;
197 [label="education_qual <= 0.667\ngini = 0.444\nsamples = 2\nvalue = [1, 2]\nclass = Yes", fillcolor="#9ccef2"] ;
196 -> 197 ;
198 [label="gini = 0.0\nsamples = 1\nvalue = [0, 2]\nclass = Yes", fillcolor="#399de5"] ;
197 -> 198 ;
199 [label="gini = 0.0\nsamples = 1\nvalue = [1, 0]\nclass = No", fillcolor="#e58139"] ;
197 -> 199 ;
200 [label="day <= 0.167\ngini = 0.375\nsamples = 3\nvalue = [3, 1]\nclass = No", fillcolor="#eeab7b"] ;
196 -> 200 ;
201 [label="gini = 0.0\nsamples = 1\nvalue = [2, 0]\nclass = No", fillcolor="#e58139"] ;
200 -> 201 ;
202 [label="prev_outcome <= 0.167\ngini = 0.5\nsamples = 2\nvalue = [1, 1]\nclass = No", fillcolor="#ffffff"] ;
200 -> 202 ;
203 [label="gini = 0.0\nsamples = 1\nvalue = [1, 0]\nclass = No", fillcolor="#e58139"] ;
202 -> 203 ;
204 [label="gini = 0.0\nsamples = 1\nvalue = [0, 1]\nclass = Yes", fillcolor="#399de5"] ;
202 -> 204 ;
205 [label="gini = 0.0\nsamples = 5\nvalue = [7, 0]\nclass = No", fillcolor="#e58139"] ;
193 -> 205 ;
206 [label="education_qual <= 0.167\ngini = 0.49\nsamples = 6\nvalue = [3, 4]\nclass = Yes", fillcolor="#cee6f8"] ;
192 -> 206 ;
207 [label="gini = 0.0\nsamples = 2\nvalue = [0, 2]\nclass = Yes", fillcolor="#399de5"] ;
206 -> 207 ;
208 [label="age <= 0.375\ngini = 0.48\nsamples = 4\nvalue = [3, 2]\nclass = No", fillcolor="#f6d5bd"] ;
206 -> 208 ;
209 [label="job <= 0.045\ngini = 0.444\nsamples = 3\nvalue = [1, 2]\nclass = Yes", fillcolor="#9ccef2"] ;
208 -> 209 ;
210 [label="dur <= 0.93\ngini = 0.5\nsamples = 2\nvalue = [1, 1]\nclass = No", fillcolor="#ffffff"] ;
209 -> 210 ;
211 [label="gini = 0.0\nsamples = 1\nvalue = [0, 1]\nclass = Yes", fillcolor="#399de5"] ;
210 -> 211 ;
212 [label="gini = 0.0\nsamples = 1\nvalue = [1, 0]\nclass = No", fillcolor="#e58139"] ;
210 -> 212 ;
213 [label="gini = 0.0\nsamples = 1\nvalue = [0, 1]\nclass = Yes", fillcolor="#399de5"] ;
209 -> 213 ;
214 [label="gini = 0.0\nsamples = 1\nvalue = [2, 0]\nclass = No", fillcolor="#e58139"] ;
208 -> 214 ;
215 [label="day <= 0.417\ngini = 0.32\nsamples = 3\nvalue = [1, 4]\nclass = Yes", fillcolor="#6ab6ec"] ;
187 -> 215 ;
216 [label="gini = 0.0\nsamples = 2\nvalue = [0, 4]\nclass = Yes", fillcolor="#399de5"] ;
215 -> 216 ;
217 [label="gini = 0.0\nsamples = 1\nvalue = [1, 0]\nclass = No", fillcolor="#e58139"] ;
215 -> 217 ;
218 [label="age <= 0.413\ngini = 0.227\nsamples = 18\nvalue = [20, 3]\nclass = No", fillcolor="#e99457"] ;
186 -> 218 ;
219 [label="dur <= 0.81\ngini = 0.355\nsamples = 10\nvalue = [10, 3]\nclass = No", fillcolor="#eda774"] ;
218 -> 219 ;
220 [label="age <= 0.356\ngini = 0.48\nsamples = 4\nvalue = [2, 3]\nclass = Yes", fillcolor="#bddef6"] ;
219 -> 220 ;
221 [label="marital <= 0.75\ngini = 0.444\nsamples = 3\nvalue = [2, 1]\nclass = No", fillcolor="#f2c09c"] ;
220 -> 221 ;
222 [label="day <= 0.267\ngini = 0.5\nsamples = 2\nvalue = [1, 1]\nclass = No", fillcolor="#ffffff"] ;
221 -> 222 ;
223 [label="gini = 0.0\nsamples = 1\nvalue = [0, 1]\nclass = Yes", fillcolor="#399de5"] ;
222 -> 223 ;
224 [label="gini = 0.0\nsamples = 1\nvalue = [1, 0]\nclass = No", fillcolor="#e58139"] ;
222 -> 224 ;
225 [label="gini = 0.0\nsamples = 1\nvalue = [1, 0]\nclass = No", fillcolor="#e58139"] ;
221 -> 225 ;
226 [label="gini = 0.0\nsamples = 1\nvalue = [0, 2]\nclass = Yes", fillcolor="#399de5"] ;
220 -> 226 ;
227 [label="gini = 0.0\nsamples = 6\nvalue = [8, 0]\nclass = No", fillcolor="#e58139"] ;
219 -> 227 ;
228 [label="gini = 0.0\nsamples = 8\nvalue = [10, 0]\nclass = No", fillcolor="#e58139"] ;
218 -> 228 ;
229 [label="age <= 0.779\ngini = 0.444\nsamples = 3\nvalue = [1, 2]\nclass = Yes", fillcolor="#9ccef2"] ;
175 -> 229 ;
230 [label="gini = 0.0\nsamples = 2\nvalue = [0, 2]\nclass = Yes", fillcolor="#399de5"] ;
229 -> 230 ;
231 [label="gini = 0.0\nsamples = 1\nvalue = [1, 0]\nclass = No", fillcolor="#e58139"] ;
229 -> 231 ;
232 [label="dur <= 0.187\ngini = 0.249\nsamples = 1219\nvalue = [1654, 282]\nclass = No", fillcolor="#e9965b"] ;
4 -> 232 ;
233 [label="job <= 0.409\ngini = 0.068\nsamples = 338\nvalue = [545, 20]\nclass = No", fillcolor="#e68640"] ;
232 -> 233 ;
234 [label="mon <= 0.682\ngini = 0.134\nsamples = 118\nvalue = [192, 15]\nclass = No", fillcolor="#e78b48"] ;
233 -> 234 ;
235 [label="age <= 0.26\ngini = 0.275\nsamples = 45\nvalue = [61, 12]\nclass = No", fillcolor="#ea9a60"] ;
234 -> 235 ;
236 [label="age <= 0.24\ngini = 0.444\nsamples = 2\nvalue = [1, 2]\nclass = Yes", fillcolor="#9ccef2"] ;
235 -> 236 ;
237 [label="gini = 0.0\nsamples = 1\nvalue = [1, 0]\nclass = No", fillcolor="#e58139"] ;
236 -> 237 ;
238 [label="gini = 0.0\nsamples = 1\nvalue = [0, 2]\nclass = Yes", fillcolor="#399de5"] ;
236 -> 238 ;
239 [label="dur <= 0.122\ngini = 0.245\nsamples = 43\nvalue = [60, 10]\nclass = No", fillcolor="#e9965a"] ;
235 -> 239 ;
240 [label="gini = 0.0\nsamples = 17\nvalue = [31, 0]\nclass = No", fillcolor="#e58139"] ;
239 -> 240 ;
241 [label="age <= 0.356\ngini = 0.381\nsamples = 26\nvalue = [29, 10]\nclass = No", fillcolor="#eeac7d"] ;
239 -> 241 ;
242 [label="gini = 0.0\nsamples = 8\nvalue = [13, 0]\nclass = No", fillcolor="#e58139"] ;
241 -> 242 ;
243 [label="education_qual <= 0.5\ngini = 0.473\nsamples = 18\nvalue = [16, 10]\nclass = No", fillcolor="#f5d0b5"] ;
241 -> 243 ;
244 [label="num_calls <= 0.1\ngini = 0.165\nsamples = 7\nvalue = [10, 1]\nclass = No", fillcolor="#e88e4d"] ;
243 -> 244 ;
245 [label="mon <= 0.409\ngini = 0.444\nsamples = 3\nvalue = [2, 1]\nclass = No", fillcolor="#f2c09c"] ;
244 -> 245 ;
246 [label="gini = 0.0\nsamples = 2\nvalue = [2, 0]\nclass = No", fillcolor="#e58139"] ;
245 -> 246 ;
247 [label="gini = 0.0\nsamples = 1\nvalue = [0, 1]\nclass = Yes", fillcolor="#399de5"] ;
245 -> 247 ;
248 [label="gini = 0.0\nsamples = 4\nvalue = [8, 0]\nclass = No", fillcolor="#e58139"] ;
244 -> 248 ;
249 [label="day <= 0.283\ngini = 0.48\nsamples = 11\nvalue = [6, 9]\nclass = Yes", fillcolor="#bddef6"] ;
243 -> 249 ;
250 [label="age <= 0.423\ngini = 0.5\nsamples = 9\nvalue = [6, 6]\nclass = No", fillcolor="#ffffff"] ;
249 -> 250 ;
251 [label="gini = 0.0\nsamples = 3\nvalue = [3, 0]\nclass = No", fillcolor="#e58139"] ;
250 -> 251 ;
252 [label="age <= 0.558\ngini = 0.444\nsamples = 6\nvalue = [3, 6]\nclass = Yes", fillcolor="#9ccef2"] ;
250 -> 252 ;
253 [label="gini = 0.0\nsamples = 3\nvalue = [0, 5]\nclass = Yes", fillcolor="#399de5"] ;
252 -> 253 ;
254 [label="marital <= 0.5\ngini = 0.375\nsamples = 3\nvalue = [3, 1]\nclass = No", fillcolor="#eeab7b"] ;
252 -> 254 ;
255 [label="mon <= 0.409\ngini = 0.444\nsamples = 2\nvalue = [2, 1]\nclass = No", fillcolor="#f2c09c"] ;
254 -> 255 ;
256 [label="gini = 0.0\nsamples = 1\nvalue = [2, 0]\nclass = No", fillcolor="#e58139"] ;
255 -> 256 ;
257 [label="gini = 0.0\nsamples = 1\nvalue = [0, 1]\nclass = Yes", fillcolor="#399de5"] ;
255 -> 257 ;
258 [label="gini = 0.0\nsamples = 1\nvalue = [1, 0]\nclass = No", fillcolor="#e58139"] ;
254 -> 258 ;
259 [label="gini = 0.0\nsamples = 2\nvalue = [0, 3]\nclass = Yes", fillcolor="#399de5"] ;
249 -> 259 ;
260 [label="day <= 0.483\ngini = 0.044\nsamples = 73\nvalue = [131, 3]\nclass = No", fillcolor="#e6843e"] ;
234 -> 260 ;
261 [label="gini = 0.0\nsamples = 45\nvalue = [82, 0]\nclass = No", fillcolor="#e58139"] ;
260 -> 261 ;
262 [label="mon <= 0.864\ngini = 0.109\nsamples = 28\nvalue = [49, 3]\nclass = No", fillcolor="#e78945"] ;
260 -> 262 ;
263 [label="gini = 0.0\nsamples = 26\nvalue = [45, 0]\nclass = No", fillcolor="#e58139"] ;
262 -> 263 ;
264 [label="dur <= 0.173\ngini = 0.49\nsamples = 2\nvalue = [4, 3]\nclass = No", fillcolor="#f8e0ce"] ;
262 -> 264 ;
265 [label="gini = 0.0\nsamples = 1\nvalue = [4, 0]\nclass = No", fillcolor="#e58139"] ;
264 -> 265 ;
266 [label="gini = 0.0\nsamples = 1\nvalue = [0, 3]\nclass = Yes", fillcolor="#399de5"] ;
264 -> 266 ;
267 [label="age <= 0.24\ngini = 0.028\nsamples = 220\nvalue = [353, 5]\nclass = No", fillcolor="#e5833c"] ;
233 -> 267 ;
268 [label="mon <= 0.773\ngini = 0.112\nsamples = 37\nvalue = [63, 4]\nclass = No", fillcolor="#e78946"] ;
267 -> 268 ;
269 [label="prev_outcome <= 0.167\ngini = 0.063\nsamples = 33\nvalue = [59, 2]\nclass = No", fillcolor="#e68540"] ;
268 -> 269 ;
270 [label="gini = 0.0\nsamples = 21\nvalue = [39, 0]\nclass = No", fillcolor="#e58139"] ;
269 -> 270 ;
271 [label="mon <= 0.5\ngini = 0.165\nsamples = 12\nvalue = [20, 2]\nclass = No", fillcolor="#e88e4d"] ;
269 -> 271 ;
272 [label="dur <= 0.138\ngini = 0.32\nsamples = 6\nvalue = [8, 2]\nclass = No", fillcolor="#eca06a"] ;
271 -> 272 ;
273 [label="age <= 0.202\ngini = 0.5\nsamples = 2\nvalue = [2, 2]\nclass = No", fillcolor="#ffffff"] ;
272 -> 273 ;
274 [label="gini = 0.0\nsamples = 1\nvalue = [0, 2]\nclass = Yes", fillcolor="#399de5"] ;
273 -> 274 ;
275 [label="gini = 0.0\nsamples = 1\nvalue = [2, 0]\nclass = No", fillcolor="#e58139"] ;
273 -> 275 ;
276 [label="gini = 0.0\nsamples = 4\nvalue = [6, 0]\nclass = No", fillcolor="#e58139"] ;
272 -> 276 ;
277 [label="gini = 0.0\nsamples = 6\nvalue = [12, 0]\nclass = No", fillcolor="#e58139"] ;
271 -> 277 ;
278 [label="job <= 0.864\ngini = 0.444\nsamples = 4\nvalue = [4, 2]\nclass = No", fillcolor="#f2c09c"] ;
268 -> 278 ;
279 [label="gini = 0.0\nsamples = 3\nvalue = [4, 0]\nclass = No", fillcolor="#e58139"] ;
278 -> 279 ;
280 [label="gini = 0.0\nsamples = 1\nvalue = [0, 2]\nclass = Yes", fillcolor="#399de5"] ;
278 -> 280 ;
281 [label="age <= 0.798\ngini = 0.007\nsamples = 183\nvalue = [290, 1]\nclass = No", fillcolor="#e5813a"] ;
267 -> 281 ;
282 [label="gini = 0.0\nsamples = 173\nvalue = [277, 0]\nclass = No", fillcolor="#e58139"] ;
281 -> 282 ;
283 [label="dur <= 0.146\ngini = 0.133\nsamples = 10\nvalue = [13, 1]\nclass = No", fillcolor="#e78b48"] ;
281 -> 283 ;
284 [label="gini = 0.0\nsamples = 5\nvalue = [8, 0]\nclass = No", fillcolor="#e58139"] ;
283 -> 284 ;
285 [label="job <= 0.5\ngini = 0.278\nsamples = 5\nvalue = [5, 1]\nclass = No", fillcolor="#ea9a61"] ;
283 -> 285 ;
286 [label="gini = 0.0\nsamples = 4\nvalue = [5, 0]\nclass = No", fillcolor="#e58139"] ;
285 -> 286 ;
287 [label="gini = 0.0\nsamples = 1\nvalue = [0, 1]\nclass = Yes", fillcolor="#399de5"] ;
285 -> 287 ;
288 [label="mon <= 0.955\ngini = 0.309\nsamples = 881\nvalue = [1109, 262]\nclass = No", fillcolor="#eb9f68"] ;
232 -> 288 ;
289 [label="mon <= 0.682\ngini = 0.296\nsamples = 854\nvalue = [1086, 239]\nclass = No", fillcolor="#eb9d65"] ;
288 -> 289 ;
290 [label="mon <= 0.045\ngini = 0.375\nsamples = 400\nvalue = [464, 155]\nclass = No", fillcolor="#eeab7b"] ;
289 -> 290 ;
291 [label="age <= 0.221\ngini = 0.228\nsamples = 131\nvalue = [166, 25]\nclass = No", fillcolor="#e99457"] ;
290 -> 291 ;
292 [label="call_type <= 0.25\ngini = 0.5\nsamples = 11\nvalue = [9, 9]\nclass = No", fillcolor="#ffffff"] ;
291 -> 292 ;
293 [label="num_calls <= 0.1\ngini = 0.492\nsamples = 10\nvalue = [7, 9]\nclass = Yes", fillcolor="#d3e9f9"] ;
292 -> 293 ;
294 [label="age <= 0.202\ngini = 0.245\nsamples = 5\nvalue = [6, 1]\nclass = No", fillcolor="#e9965a"] ;
293 -> 294 ;
295 [label="gini = 0.0\nsamples = 2\nvalue = [2, 0]\nclass = No", fillcolor="#e58139"] ;
294 -> 295 ;
296 [label="education_qual <= 0.833\ngini = 0.32\nsamples = 3\nvalue = [4, 1]\nclass = No", fillcolor="#eca06a"] ;
294 -> 296 ;
297 [label="gini = 0.0\nsamples = 2\nvalue = [4, 0]\nclass = No", fillcolor="#e58139"] ;
296 -> 297 ;
298 [label="gini = 0.0\nsamples = 1\nvalue = [0, 1]\nclass = Yes", fillcolor="#399de5"] ;
296 -> 298 ;
299 [label="day <= 0.317\ngini = 0.198\nsamples = 5\nvalue = [1, 8]\nclass = Yes", fillcolor="#52a9e8"] ;
293 -> 299 ;
300 [label="gini = 0.0\nsamples = 2\nvalue = [0, 4]\nclass = Yes", fillcolor="#399de5"] ;
299 -> 300 ;
301 [label="prev_outcome <= 0.167\ngini = 0.32\nsamples = 3\nvalue = [1, 4]\nclass = Yes", fillcolor="#6ab6ec"] ;
299 -> 301 ;
302 [label="gini = 0.0\nsamples = 1\nvalue = [0, 3]\nclass = Yes", fillcolor="#399de5"] ;
301 -> 302 ;
303 [label="dur <= 0.628\ngini = 0.5\nsamples = 2\nvalue = [1, 1]\nclass = No", fillcolor="#ffffff"] ;
301 -> 303 ;
304 [label="gini = 0.0\nsamples = 1\nvalue = [1, 0]\nclass = No", fillcolor="#e58139"] ;
303 -> 304 ;
305 [label="gini = 0.0\nsamples = 1\nvalue = [0, 1]\nclass = Yes", fillcolor="#399de5"] ;
303 -> 305 ;
306 [label="gini = 0.0\nsamples = 1\nvalue = [2, 0]\nclass = No", fillcolor="#e58139"] ;
292 -> 306 ;
307 [label="education_qual <= 0.833\ngini = 0.168\nsamples = 120\nvalue = [157, 16]\nclass = No", fillcolor="#e88e4d"] ;
291 -> 307 ;
308 [label="day <= 0.517\ngini = 0.136\nsamples = 116\nvalue = [152, 12]\nclass = No", fillcolor="#e78b49"] ;
307 -> 308 ;
309 [label="dur <= 0.96\ngini = 0.245\nsamples = 57\nvalue = [66, 11]\nclass = No", fillcolor="#e9965a"] ;
308 -> 309 ;
310 [label="job <= 0.318\ngini = 0.211\nsamples = 56\nvalue = [66, 9]\nclass = No", fillcolor="#e99254"] ;
309 -> 310 ;
311 [label="gini = 0.0\nsamples = 3\nvalue = [4, 0]\nclass = No", fillcolor="#e58139"] ;
310 -> 311 ;
312 [label="job <= 0.409\ngini = 0.221\nsamples = 53\nvalue = [62.0, 9.0]\nclass = No", fillcolor="#e99356"] ;
310 -> 312 ;
313 [label="prev_outcome <= 0.167\ngini = 0.278\nsamples = 23\nvalue = [25, 5]\nclass = No", fillcolor="#ea9a61"] ;
312 -> 313 ;
314 [label="dur <= 0.219\ngini = 0.137\nsamples = 20\nvalue = [25, 2]\nclass = No", fillcolor="#e78b49"] ;
313 -> 314 ;
315 [label="age <= 0.471\ngini = 0.444\nsamples = 2\nvalue = [2, 1]\nclass = No", fillcolor="#f2c09c"] ;
314 -> 315 ;
316 [label="gini = 0.0\nsamples = 1\nvalue = [2, 0]\nclass = No", fillcolor="#e58139"] ;
315 -> 316 ;
317 [label="gini = 0.0\nsamples = 1\nvalue = [0, 1]\nclass = Yes", fillcolor="#399de5"] ;
315 -> 317 ;
318 [label="day <= 0.417\ngini = 0.08\nsamples = 18\nvalue = [23, 1]\nclass = No", fillcolor="#e68642"] ;
314 -> 318 ;
319 [label="gini = 0.0\nsamples = 10\nvalue = [13, 0]\nclass = No", fillcolor="#e58139"] ;
318 -> 319 ;
320 [label="dur <= 0.818\ngini = 0.165\nsamples = 8\nvalue = [10, 1]\nclass = No", fillcolor="#e88e4d"] ;
318 -> 320 ;
321 [label="gini = 0.0\nsamples = 7\nvalue = [10, 0]\nclass = No", fillcolor="#e58139"] ;
320 -> 321 ;
322 [label="gini = 0.0\nsamples = 1\nvalue = [0, 1]\nclass = Yes", fillcolor="#399de5"] ;
320 -> 322 ;
323 [label="gini = 0.0\nsamples = 3\nvalue = [0, 3]\nclass = Yes", fillcolor="#399de5"] ;
313 -> 323 ;
324 [label="dur <= 0.341\ngini = 0.176\nsamples = 30\nvalue = [37, 4]\nclass = No", fillcolor="#e88f4e"] ;
312 -> 324 ;
325 [label="call_type <= 0.25\ngini = 0.391\nsamples = 12\nvalue = [11, 4]\nclass = No", fillcolor="#eeaf81"] ;
324 -> 325 ;
326 [label="age <= 0.288\ngini = 0.408\nsamples = 11\nvalue = [10, 4]\nclass = No", fillcolor="#efb388"] ;
325 -> 326 ;
327 [label="gini = 0.0\nsamples = 2\nvalue = [0, 3]\nclass = Yes", fillcolor="#399de5"] ;
326 -> 327 ;
328 [label="day <= 0.333\ngini = 0.165\nsamples = 9\nvalue = [10, 1]\nclass = No", fillcolor="#e88e4d"] ;
326 -> 328 ;
329 [label="gini = 0.0\nsamples = 6\nvalue = [8, 0]\nclass = No", fillcolor="#e58139"] ;
328 -> 329 ;
330 [label="dur <= 0.328\ngini = 0.444\nsamples = 3\nvalue = [2, 1]\nclass = No", fillcolor="#f2c09c"] ;
328 -> 330 ;
331 [label="gini = 0.0\nsamples = 2\nvalue = [2, 0]\nclass = No", fillcolor="#e58139"] ;
330 -> 331 ;
332 [label="gini = 0.0\nsamples = 1\nvalue = [0, 1]\nclass = Yes", fillcolor="#399de5"] ;
330 -> 332 ;
333 [label="gini = 0.0\nsamples = 1\nvalue = [1, 0]\nclass = No", fillcolor="#e58139"] ;
325 -> 333 ;
334 [label="gini = 0.0\nsamples = 18\nvalue = [26, 0]\nclass = No", fillcolor="#e58139"] ;
324 -> 334 ;
335 [label="gini = 0.0\nsamples = 1\nvalue = [0, 2]\nclass = Yes", fillcolor="#399de5"] ;
309 -> 335 ;
336 [label="num_calls <= 0.1\ngini = 0.023\nsamples = 59\nvalue = [86, 1]\nclass = No", fillcolor="#e5823b"] ;
308 -> 336 ;
337 [label="prev_outcome <= 0.167\ngini = 0.057\nsamples = 27\nvalue = [33, 1]\nclass = No", fillcolor="#e6853f"] ;
336 -> 337 ;
338 [label="gini = 0.0\nsamples = 24\nvalue = [31, 0]\nclass = No", fillcolor="#e58139"] ;
337 -> 338 ;
339 [label="age <= 0.538\ngini = 0.444\nsamples = 3\nvalue = [2, 1]\nclass = No", fillcolor="#f2c09c"] ;
337 -> 339 ;
340 [label="gini = 0.0\nsamples = 2\nvalue = [2, 0]\nclass = No", fillcolor="#e58139"] ;
339 -> 340 ;
341 [label="gini = 0.0\nsamples = 1\nvalue = [0, 1]\nclass = Yes", fillcolor="#399de5"] ;
339 -> 341 ;
342 [label="gini = 0.0\nsamples = 32\nvalue = [53, 0]\nclass = No", fillcolor="#e58139"] ;
336 -> 342 ;
343 [label="num_calls <= 0.1\ngini = 0.494\nsamples = 4\nvalue = [5, 4]\nclass = No", fillcolor="#fae6d7"] ;
307 -> 343 ;
344 [label="gini = 0.0\nsamples = 2\nvalue = [5, 0]\nclass = No", fillcolor="#e58139"] ;
343 -> 344 ;
345 [label="gini = 0.0\nsamples = 2\nvalue = [0, 4]\nclass = Yes", fillcolor="#399de5"] ;
343 -> 345 ;
346 [label="dur <= 0.194\ngini = 0.423\nsamples = 269\nvalue = [298, 130]\nclass = No", fillcolor="#f0b88f"] ;
290 -> 346 ;
347 [label="prev_outcome <= 0.167\ngini = 0.5\nsamples = 31\nvalue = [24, 25]\nclass = Yes", fillcolor="#f7fbfe"] ;
346 -> 347 ;
348 [label="day <= 0.05\ngini = 0.464\nsamples = 18\nvalue = [11, 19]\nclass = Yes", fillcolor="#acd6f4"] ;
347 -> 348 ;
349 [label="gini = 0.0\nsamples = 3\nvalue = [0, 5]\nclass = Yes", fillcolor="#399de5"] ;
348 -> 349 ;
350 [label="day <= 0.083\ngini = 0.493\nsamples = 15\nvalue = [11.0, 14.0]\nclass = Yes", fillcolor="#d5eaf9"] ;
348 -> 350 ;
351 [label="marital <= 0.75\ngini = 0.346\nsamples = 5\nvalue = [7, 2]\nclass = No", fillcolor="#eca572"] ;
350 -> 351 ;
352 [label="age <= 0.798\ngini = 0.48\nsamples = 3\nvalue = [3, 2]\nclass = No", fillcolor="#f6d5bd"] ;
351 -> 352 ;
353 [label="gini = 0.0\nsamples = 2\nvalue = [3, 0]\nclass = No", fillcolor="#e58139"] ;
352 -> 353 ;
354 [label="gini = 0.0\nsamples = 1\nvalue = [0, 2]\nclass = Yes", fillcolor="#399de5"] ;
352 -> 354 ;
355 [label="gini = 0.0\nsamples = 2\nvalue = [4, 0]\nclass = No", fillcolor="#e58139"] ;
351 -> 355 ;
356 [label="job <= 0.318\ngini = 0.375\nsamples = 10\nvalue = [4, 12]\nclass = Yes", fillcolor="#7bbeee"] ;
350 -> 356 ;
357 [label="gini = 0.0\nsamples = 1\nvalue = [3, 0]\nclass = No", fillcolor="#e58139"] ;
356 -> 357 ;
358 [label="day <= 0.317\ngini = 0.142\nsamples = 9\nvalue = [1, 12]\nclass = Yes", fillcolor="#49a5e7"] ;
356 -> 358 ;
359 [label="gini = 0.0\nsamples = 4\nvalue = [0, 6]\nclass = Yes", fillcolor="#399de5"] ;
358 -> 359 ;
360 [label="day <= 0.433\ngini = 0.245\nsamples = 5\nvalue = [1, 6]\nclass = Yes", fillcolor="#5aade9"] ;
358 -> 360 ;
361 [label="mon <= 0.182\ngini = 0.444\nsamples = 2\nvalue = [1, 2]\nclass = Yes", fillcolor="#9ccef2"] ;
360 -> 361 ;
362 [label="gini = 0.0\nsamples = 1\nvalue = [0, 2]\nclass = Yes", fillcolor="#399de5"] ;
361 -> 362 ;
363 [label="gini = 0.0\nsamples = 1\nvalue = [1, 0]\nclass = No", fillcolor="#e58139"] ;
361 -> 363 ;
364 [label="gini = 0.0\nsamples = 3\nvalue = [0, 4]\nclass = Yes", fillcolor="#399de5"] ;
360 -> 364 ;
365 [label="day <= 0.133\ngini = 0.432\nsamples = 13\nvalue = [13, 6]\nclass = No", fillcolor="#f1bb94"] ;
347 -> 365 ;
366 [label="gini = 0.0\nsamples = 6\nvalue = [9, 0]\nclass = No", fillcolor="#e58139"] ;
365 -> 366 ;
367 [label="education_qual <= 0.5\ngini = 0.48\nsamples = 7\nvalue = [4, 6]\nclass = Yes", fillcolor="#bddef6"] ;
365 -> 367 ;
368 [label="gini = 0.0\nsamples = 2\nvalue = [3, 0]\nclass = No", fillcolor="#e58139"] ;
367 -> 368 ;
369 [label="num_calls <= 0.2\ngini = 0.245\nsamples = 5\nvalue = [1, 6]\nclass = Yes", fillcolor="#5aade9"] ;
367 -> 369 ;
370 [label="age <= 0.288\ngini = 0.444\nsamples = 3\nvalue = [1, 2]\nclass = Yes", fillcolor="#9ccef2"] ;
369 -> 370 ;
371 [label="gini = 0.0\nsamples = 1\nvalue = [0, 1]\nclass = Yes", fillcolor="#399de5"] ;
370 -> 371 ;
372 [label="age <= 0.433\ngini = 0.5\nsamples = 2\nvalue = [1, 1]\nclass = No", fillcolor="#ffffff"] ;
370 -> 372 ;
373 [label="gini = 0.0\nsamples = 1\nvalue = [1, 0]\nclass = No", fillcolor="#e58139"] ;
372 -> 373 ;
374 [label="gini = 0.0\nsamples = 1\nvalue = [0, 1]\nclass = Yes", fillcolor="#399de5"] ;
372 -> 374 ;
375 [label="gini = 0.0\nsamples = 2\nvalue = [0, 4]\nclass = Yes", fillcolor="#399de5"] ;
369 -> 375 ;
376 [label="day <= 0.183\ngini = 0.401\nsamples = 238\nvalue = [274.0, 105.0]\nclass = No", fillcolor="#efb185"] ;
346 -> 376 ;
377 [label="marital <= 0.75\ngini = 0.293\nsamples = 133\nvalue = [175, 38]\nclass = No", fillcolor="#eb9c64"] ;
376 -> 377 ;
378 [label="mon <= 0.182\ngini = 0.242\nsamples = 96\nvalue = [134, 22]\nclass = No", fillcolor="#e9965a"] ;
377 -> 378 ;
379 [label="age <= 0.279\ngini = 0.491\nsamples = 14\nvalue = [13.0, 10.0]\nclass = No", fillcolor="#f9e2d1"] ;
378 -> 379 ;
380 [label="gini = 0.0\nsamples = 3\nvalue = [4, 0]\nclass = No", fillcolor="#e58139"] ;
379 -> 380 ;
381 [label="job <= 0.318\ngini = 0.499\nsamples = 11\nvalue = [9, 10]\nclass = Yes", fillcolor="#ebf5fc"] ;
379 -> 381 ;
382 [label="gini = 0.0\nsamples = 1\nvalue = [0, 2]\nclass = Yes", fillcolor="#399de5"] ;
381 -> 382 ;
383 [label="education_qual <= 0.5\ngini = 0.498\nsamples = 10\nvalue = [9, 8]\nclass = No", fillcolor="#fcf1e9"] ;
381 -> 383 ;
384 [label="gini = 0.0\nsamples = 2\nvalue = [0, 3]\nclass = Yes", fillcolor="#399de5"] ;
383 -> 384 ;
385 [label="age <= 0.644\ngini = 0.459\nsamples = 8\nvalue = [9, 5]\nclass = No", fillcolor="#f3c7a7"] ;
383 -> 385 ;
386 [label="dur <= 0.268\ngini = 0.32\nsamples = 6\nvalue = [8, 2]\nclass = No", fillcolor="#eca06a"] ;
385 -> 386 ;
387 [label="gini = 0.0\nsamples = 1\nvalue = [0, 1]\nclass = Yes", fillcolor="#399de5"] ;
386 -> 387 ;
388 [label="day <= 0.117\ngini = 0.198\nsamples = 5\nvalue = [8, 1]\nclass = No", fillcolor="#e89152"] ;
386 -> 388 ;
389 [label="age <= 0.337\ngini = 0.444\nsamples = 2\nvalue = [2, 1]\nclass = No", fillcolor="#f2c09c"] ;
388 -> 389 ;
390 [label="gini = 0.0\nsamples = 1\nvalue = [2, 0]\nclass = No", fillcolor="#e58139"] ;
389 -> 390 ;
391 [label="gini = 0.0\nsamples = 1\nvalue = [0, 1]\nclass = Yes", fillcolor="#399de5"] ;
389 -> 391 ;
392 [label="gini = 0.0\nsamples = 3\nvalue = [6, 0]\nclass = No", fillcolor="#e58139"] ;
388 -> 392 ;
393 [label="prev_outcome <= 0.167\ngini = 0.375\nsamples = 2\nvalue = [1, 3]\nclass = Yes", fillcolor="#7bbeee"] ;
385 -> 393 ;
394 [label="gini = 0.0\nsamples = 1\nvalue = [1, 0]\nclass = No", fillcolor="#e58139"] ;
393 -> 394 ;
395 [label="gini = 0.0\nsamples = 1\nvalue = [0, 3]\nclass = Yes", fillcolor="#399de5"] ;
393 -> 395 ;
396 [label="education_qual <= 0.833\ngini = 0.164\nsamples = 82\nvalue = [121, 12]\nclass = No", fillcolor="#e88d4d"] ;
378 -> 396 ;
397 [label="dur <= 0.408\ngini = 0.145\nsamples = 78\nvalue = [117, 10]\nclass = No", fillcolor="#e78c4a"] ;
396 -> 397 ;
398 [label="job <= 0.409\ngini = 0.079\nsamples = 56\nvalue = [93, 4]\nclass = No", fillcolor="#e68642"] ;
397 -> 398 ;
399 [label="dur <= 0.226\ngini = 0.291\nsamples = 12\nvalue = [14, 3]\nclass = No", fillcolor="#eb9c63"] ;
398 -> 399 ;
400 [label="gini = 0.0\nsamples = 6\nvalue = [10, 0]\nclass = No", fillcolor="#e58139"] ;
399 -> 400 ;
401 [label="mon <= 0.409\ngini = 0.49\nsamples = 6\nvalue = [4, 3]\nclass = No", fillcolor="#f8e0ce"] ;
399 -> 401 ;
402 [label="gini = 0.0\nsamples = 4\nvalue = [4, 0]\nclass = No", fillcolor="#e58139"] ;
401 -> 402 ;
403 [label="gini = 0.0\nsamples = 2\nvalue = [0, 3]\nclass = Yes", fillcolor="#399de5"] ;
401 -> 403 ;
404 [label="prev_outcome <= 0.167\ngini = 0.025\nsamples = 44\nvalue = [79, 1]\nclass = No", fillcolor="#e5833c"] ;
398 -> 404 ;
405 [label="gini = 0.0\nsamples = 31\nvalue = [60, 0]\nclass = No", fillcolor="#e58139"] ;
404 -> 405 ;
406 [label="day <= 0.05\ngini = 0.095\nsamples = 13\nvalue = [19, 1]\nclass = No", fillcolor="#e68843"] ;
404 -> 406 ;
407 [label="age <= 0.462\ngini = 0.375\nsamples = 3\nvalue = [3, 1]\nclass = No", fillcolor="#eeab7b"] ;
406 -> 407 ;
408 [label="gini = 0.0\nsamples = 1\nvalue = [2, 0]\nclass = No", fillcolor="#e58139"] ;
407 -> 408 ;
409 [label="marital <= 0.25\ngini = 0.5\nsamples = 2\nvalue = [1, 1]\nclass = No", fillcolor="#ffffff"] ;
407 -> 409 ;
410 [label="gini = 0.0\nsamples = 1\nvalue = [1, 0]\nclass = No", fillcolor="#e58139"] ;
409 -> 410 ;
411 [label="gini = 0.0\nsamples = 1\nvalue = [0, 1]\nclass = Yes", fillcolor="#399de5"] ;
409 -> 411 ;
412 [label="gini = 0.0\nsamples = 10\nvalue = [16, 0]\nclass = No", fillcolor="#e58139"] ;
406 -> 412 ;
413 [label="num_calls <= 0.3\ngini = 0.32\nsamples = 22\nvalue = [24, 6]\nclass = No", fillcolor="#eca06a"] ;
397 -> 413 ;
414 [label="mon <= 0.409\ngini = 0.285\nsamples = 21\nvalue = [24, 5]\nclass = No", fillcolor="#ea9b62"] ;
413 -> 414 ;
415 [label="age <= 0.721\ngini = 0.211\nsamples = 18\nvalue = [22, 3]\nclass = No", fillcolor="#e99254"] ;
414 -> 415 ;
416 [label="job <= 0.727\ngini = 0.091\nsamples = 15\nvalue = [20, 1]\nclass = No", fillcolor="#e68743"] ;
415 -> 416 ;
417 [label="gini = 0.0\nsamples = 9\nvalue = [12, 0]\nclass = No", fillcolor="#e58139"] ;
416 -> 417 ;
418 [label="job <= 0.864\ngini = 0.198\nsamples = 6\nvalue = [8, 1]\nclass = No", fillcolor="#e89152"] ;
416 -> 418 ;
419 [label="age <= 0.346\ngini = 0.278\nsamples = 5\nvalue = [5, 1]\nclass = No", fillcolor="#ea9a61"] ;
418 -> 419 ;
420 [label="gini = 0.0\nsamples = 3\nvalue = [4, 0]\nclass = No", fillcolor="#e58139"] ;
419 -> 420 ;
421 [label="age <= 0.413\ngini = 0.5\nsamples = 2\nvalue = [1, 1]\nclass = No", fillcolor="#ffffff"] ;
419 -> 421 ;
422 [label="gini = 0.0\nsamples = 1\nvalue = [0, 1]\nclass = Yes", fillcolor="#399de5"] ;
421 -> 422 ;
423 [label="gini = 0.0\nsamples = 1\nvalue = [1, 0]\nclass = No", fillcolor="#e58139"] ;
421 -> 423 ;
424 [label="gini = 0.0\nsamples = 1\nvalue = [3, 0]\nclass = No", fillcolor="#e58139"] ;
418 -> 424 ;
425 [label="dur <= 0.485\ngini = 0.5\nsamples = 3\nvalue = [2, 2]\nclass = No", fillcolor="#ffffff"] ;
415 -> 425 ;
426 [label="gini = 0.0\nsamples = 1\nvalue = [1, 0]\nclass = No", fillcolor="#e58139"] ;
425 -> 426 ;
427 [label="num_calls <= 0.1\ngini = 0.444\nsamples = 2\nvalue = [1, 2]\nclass = Yes", fillcolor="#9ccef2"] ;
425 -> 427 ;
428 [label="gini = 0.0\nsamples = 1\nvalue = [1, 0]\nclass = No", fillcolor="#e58139"] ;
427 -> 428 ;
429 [label="gini = 0.0\nsamples = 1\nvalue = [0, 2]\nclass = Yes", fillcolor="#399de5"] ;
427 -> 429 ;
430 [label="job <= 0.5\ngini = 0.5\nsamples = 3\nvalue = [2, 2]\nclass = No", fillcolor="#ffffff"] ;
414 -> 430 ;
431 [label="gini = 0.0\nsamples = 2\nvalue = [2, 0]\nclass = No", fillcolor="#e58139"] ;
430 -> 431 ;
432 [label="gini = 0.0\nsamples = 1\nvalue = [0, 2]\nclass = Yes", fillcolor="#399de5"] ;
430 -> 432 ;
433 [label="gini = 0.0\nsamples = 1\nvalue = [0, 1]\nclass = Yes", fillcolor="#399de5"] ;
413 -> 433 ;
434 [label="dur <= 0.433\ngini = 0.444\nsamples = 4\nvalue = [4, 2]\nclass = No", fillcolor="#f2c09c"] ;
396 -> 434 ;
435 [label="gini = 0.0\nsamples = 2\nvalue = [2, 0]\nclass = No", fillcolor="#e58139"] ;
434 -> 435 ;
436 [label="mon <= 0.409\ngini = 0.5\nsamples = 2\nvalue = [2, 2]\nclass = No", fillcolor="#ffffff"] ;
434 -> 436 ;
437 [label="gini = 0.0\nsamples = 1\nvalue = [2, 0]\nclass = No", fillcolor="#e58139"] ;
436 -> 437 ;
438 [label="gini = 0.0\nsamples = 1\nvalue = [0, 2]\nclass = Yes", fillcolor="#399de5"] ;
436 -> 438 ;
439 [label="mon <= 0.591\ngini = 0.404\nsamples = 37\nvalue = [41, 16]\nclass = No", fillcolor="#efb286"] ;
377 -> 439 ;
440 [label="num_calls <= 0.3\ngini = 0.32\nsamples = 34\nvalue = [40, 10]\nclass = No", fillcolor="#eca06a"] ;
439 -> 440 ;
441 [label="day <= 0.083\ngini = 0.258\nsamples = 30\nvalue = [39, 7]\nclass = No", fillcolor="#ea985d"] ;
440 -> 441 ;
442 [label="job <= 0.773\ngini = 0.408\nsamples = 15\nvalue = [15, 6]\nclass = No", fillcolor="#efb388"] ;
441 -> 442 ;
443 [label="mon <= 0.5\ngini = 0.298\nsamples = 10\nvalue = [9, 2]\nclass = No", fillcolor="#eb9d65"] ;
442 -> 443 ;
444 [label="gini = 0.0\nsamples = 5\nvalue = [6, 0]\nclass = No", fillcolor="#e58139"] ;
443 -> 444 ;
445 [label="age <= 0.279\ngini = 0.48\nsamples = 5\nvalue = [3, 2]\nclass = No", fillcolor="#f6d5bd"] ;
443 -> 445 ;
446 [label="age <= 0.163\ngini = 0.444\nsamples = 3\nvalue = [1, 2]\nclass = Yes", fillcolor="#9ccef2"] ;
445 -> 446 ;
447 [label="gini = 0.0\nsamples = 1\nvalue = [1, 0]\nclass = No", fillcolor="#e58139"] ;
446 -> 447 ;
448 [label="gini = 0.0\nsamples = 2\nvalue = [0, 2]\nclass = Yes", fillcolor="#399de5"] ;
446 -> 448 ;
449 [label="gini = 0.0\nsamples = 2\nvalue = [2, 0]\nclass = No", fillcolor="#e58139"] ;
445 -> 449 ;
450 [label="dur <= 0.264\ngini = 0.48\nsamples = 5\nvalue = [6, 4]\nclass = No", fillcolor="#f6d5bd"] ;
442 -> 450 ;
451 [label="day <= 0.05\ngini = 0.245\nsamples = 4\nvalue = [6, 1]\nclass = No", fillcolor="#e9965a"] ;
450 -> 451 ;
452 [label="gini = 0.0\nsamples = 2\nvalue = [5, 0]\nclass = No", fillcolor="#e58139"] ;
451 -> 452 ;
453 [label="education_qual <= 0.5\ngini = 0.5\nsamples = 2\nvalue = [1, 1]\nclass = No", fillcolor="#ffffff"] ;
451 -> 453 ;
454 [label="gini = 0.0\nsamples = 1\nvalue = [0, 1]\nclass = Yes", fillcolor="#399de5"] ;
453 -> 454 ;
455 [label="gini = 0.0\nsamples = 1\nvalue = [1, 0]\nclass = No", fillcolor="#e58139"] ;
453 -> 455 ;
456 [label="gini = 0.0\nsamples = 1\nvalue = [0, 3]\nclass = Yes", fillcolor="#399de5"] ;
450 -> 456 ;
457 [label="job <= 0.5\ngini = 0.077\nsamples = 15\nvalue = [24, 1]\nclass = No", fillcolor="#e68641"] ;
441 -> 457 ;
458 [label="education_qual <= 0.5\ngini = 0.18\nsamples = 7\nvalue = [9, 1]\nclass = No", fillcolor="#e88f4f"] ;
457 -> 458 ;
459 [label="gini = 0.0\nsamples = 2\nvalue = [4, 0]\nclass = No", fillcolor="#e58139"] ;
458 -> 459 ;
460 [label="num_calls <= 0.1\ngini = 0.278\nsamples = 5\nvalue = [5, 1]\nclass = No", fillcolor="#ea9a61"] ;
458 -> 460 ;
461 [label="gini = 0.0\nsamples = 2\nvalue = [2, 0]\nclass = No", fillcolor="#e58139"] ;
460 -> 461 ;
462 [label="prev_outcome <= 0.167\ngini = 0.375\nsamples = 3\nvalue = [3, 1]\nclass = No", fillcolor="#eeab7b"] ;
460 -> 462 ;
463 [label="gini = 0.0\nsamples = 1\nvalue = [2, 0]\nclass = No", fillcolor="#e58139"] ;
462 -> 463 ;
464 [label="mon <= 0.182\ngini = 0.5\nsamples = 2\nvalue = [1, 1]\nclass = No", fillcolor="#ffffff"] ;
462 -> 464 ;
465 [label="gini = 0.0\nsamples = 1\nvalue = [0, 1]\nclass = Yes", fillcolor="#399de5"] ;
464 -> 465 ;
466 [label="gini = 0.0\nsamples = 1\nvalue = [1, 0]\nclass = No", fillcolor="#e58139"] ;
464 -> 466 ;
467 [label="gini = 0.0\nsamples = 8\nvalue = [15, 0]\nclass = No", fillcolor="#e58139"] ;
457 -> 467 ;
468 [label="education_qual <= 0.5\ngini = 0.375\nsamples = 4\nvalue = [1, 3]\nclass = Yes", fillcolor="#7bbeee"] ;
440 -> 468 ;
469 [label="gini = 0.0\nsamples = 1\nvalue = [1, 0]\nclass = No", fillcolor="#e58139"] ;
468 -> 469 ;
470 [label="gini = 0.0\nsamples = 3\nvalue = [0, 3]\nclass = Yes", fillcolor="#399de5"] ;
468 -> 470 ;
471 [label="dur <= 0.461\ngini = 0.245\nsamples = 3\nvalue = [1, 6]\nclass = Yes", fillcolor="#5aade9"] ;
439 -> 471 ;
472 [label="gini = 0.0\nsamples = 2\nvalue = [0, 6]\nclass = Yes", fillcolor="#399de5"] ;
471 -> 472 ;
473 [label="gini = 0.0\nsamples = 1\nvalue = [1, 0]\nclass = No", fillcolor="#e58139"] ;
471 -> 473 ;
474 [label="marital <= 0.25\ngini = 0.481\nsamples = 105\nvalue = [99, 67]\nclass = No", fillcolor="#f7d6bf"] ;
376 -> 474 ;
475 [label="age <= 0.433\ngini = 0.463\nsamples = 6\nvalue = [4, 7]\nclass = Yes", fillcolor="#aad5f4"] ;
474 -> 475 ;
476 [label="gini = 0.0\nsamples = 3\nvalue = [4, 0]\nclass = No", fillcolor="#e58139"] ;
475 -> 476 ;
477 [label="gini = 0.0\nsamples = 3\nvalue = [0, 7]\nclass = Yes", fillcolor="#399de5"] ;
475 -> 477 ;
478 [label="dur <= 0.314\ngini = 0.475\nsamples = 99\nvalue = [95, 60]\nclass = No", fillcolor="#f5d1b6"] ;
474 -> 478 ;
479 [label="dur <= 0.205\ngini = 0.335\nsamples = 38\nvalue = [48, 13]\nclass = No", fillcolor="#eca36f"] ;
478 -> 479 ;
480 [label="dur <= 0.201\ngini = 0.444\nsamples = 3\nvalue = [1, 2]\nclass = Yes", fillcolor="#9ccef2"] ;
479 -> 480 ;
481 [label="gini = 0.0\nsamples = 1\nvalue = [0, 1]\nclass = Yes", fillcolor="#399de5"] ;
480 -> 481 ;
482 [label="marital <= 0.75\ngini = 0.5\nsamples = 2\nvalue = [1, 1]\nclass = No", fillcolor="#ffffff"] ;
480 -> 482 ;
483 [label="gini = 0.0\nsamples = 1\nvalue = [1, 0]\nclass = No", fillcolor="#e58139"] ;
482 -> 483 ;
484 [label="gini = 0.0\nsamples = 1\nvalue = [0, 1]\nclass = Yes", fillcolor="#399de5"] ;
482 -> 484 ;
485 [label="day <= 0.383\ngini = 0.307\nsamples = 35\nvalue = [47, 11]\nclass = No", fillcolor="#eb9e67"] ;
479 -> 485 ;
486 [label="num_calls <= 0.1\ngini = 0.444\nsamples = 17\nvalue = [18, 9]\nclass = No", fillcolor="#f2c09c"] ;
485 -> 486 ;
487 [label="age <= 0.26\ngini = 0.219\nsamples = 9\nvalue = [14, 2]\nclass = No", fillcolor="#e99355"] ;
486 -> 487 ;
488 [label="gini = 0.0\nsamples = 1\nvalue = [0, 1]\nclass = Yes", fillcolor="#399de5"] ;
487 -> 488 ;
489 [label="job <= 0.636\ngini = 0.124\nsamples = 8\nvalue = [14, 1]\nclass = No", fillcolor="#e78a47"] ;
487 -> 489 ;
490 [label="gini = 0.0\nsamples = 4\nvalue = [7, 0]\nclass = No", fillcolor="#e58139"] ;
489 -> 490 ;
491 [label="marital <= 0.75\ngini = 0.219\nsamples = 4\nvalue = [7, 1]\nclass = No", fillcolor="#e99355"] ;
489 -> 491 ;
492 [label="day <= 0.267\ngini = 0.375\nsamples = 2\nvalue = [3, 1]\nclass = No", fillcolor="#eeab7b"] ;
491 -> 492 ;
493 [label="gini = 0.0\nsamples = 1\nvalue = [3, 0]\nclass = No", fillcolor="#e58139"] ;
492 -> 493 ;
494 [label="gini = 0.0\nsamples = 1\nvalue = [0, 1]\nclass = Yes", fillcolor="#399de5"] ;
492 -> 494 ;
495 [label="gini = 0.0\nsamples = 2\nvalue = [4, 0]\nclass = No", fillcolor="#e58139"] ;
491 -> 495 ;
496 [label="age <= 0.558\ngini = 0.463\nsamples = 8\nvalue = [4, 7]\nclass = Yes", fillcolor="#aad5f4"] ;
486 -> 496 ;
497 [label="mon <= 0.227\ngini = 0.346\nsamples = 6\nvalue = [2, 7]\nclass = Yes", fillcolor="#72b9ec"] ;
496 -> 497 ;
498 [label="num_calls <= 0.3\ngini = 0.219\nsamples = 5\nvalue = [1, 7]\nclass = Yes", fillcolor="#55abe9"] ;
497 -> 498 ;
499 [label="gini = 0.0\nsamples = 3\nvalue = [0, 4]\nclass = Yes", fillcolor="#399de5"] ;
498 -> 499 ;
500 [label="age <= 0.25\ngini = 0.375\nsamples = 2\nvalue = [1, 3]\nclass = Yes", fillcolor="#7bbeee"] ;
498 -> 500 ;
501 [label="gini = 0.0\nsamples = 1\nvalue = [1, 0]\nclass = No", fillcolor="#e58139"] ;
500 -> 501 ;
502 [label="gini = 0.0\nsamples = 1\nvalue = [0, 3]\nclass = Yes", fillcolor="#399de5"] ;
500 -> 502 ;
503 [label="gini = 0.0\nsamples = 1\nvalue = [1, 0]\nclass = No", fillcolor="#e58139"] ;
497 -> 503 ;
504 [label="gini = 0.0\nsamples = 2\nvalue = [2, 0]\nclass = No", fillcolor="#e58139"] ;
496 -> 504 ;
505 [label="num_calls <= 0.3\ngini = 0.121\nsamples = 18\nvalue = [29, 2]\nclass = No", fillcolor="#e78a47"] ;
485 -> 505 ;
506 [label="gini = 0.0\nsamples = 16\nvalue = [28, 0]\nclass = No", fillcolor="#e58139"] ;
505 -> 506 ;
507 [label="prev_outcome <= 0.167\ngini = 0.444\nsamples = 2\nvalue = [1, 2]\nclass = Yes", fillcolor="#9ccef2"] ;
505 -> 507 ;
508 [label="gini = 0.0\nsamples = 1\nvalue = [0, 2]\nclass = Yes", fillcolor="#399de5"] ;
507 -> 508 ;
509 [label="gini = 0.0\nsamples = 1\nvalue = [1, 0]\nclass = No", fillcolor="#e58139"] ;
507 -> 509 ;
510 [label="dur <= 0.357\ngini = 0.5\nsamples = 61\nvalue = [47, 47]\nclass = No", fillcolor="#ffffff"] ;
478 -> 510 ;
511 [label="education_qual <= 0.5\ngini = 0.124\nsamples = 9\nvalue = [1, 14]\nclass = Yes", fillcolor="#47a4e7"] ;
510 -> 511 ;
512 [label="gini = 0.0\nsamples = 6\nvalue = [0, 12]\nclass = Yes", fillcolor="#399de5"] ;
511 -> 512 ;
513 [label="age <= 0.298\ngini = 0.444\nsamples = 3\nvalue = [1, 2]\nclass = Yes", fillcolor="#9ccef2"] ;
511 -> 513 ;
514 [label="gini = 0.0\nsamples = 1\nvalue = [1, 0]\nclass = No", fillcolor="#e58139"] ;
513 -> 514 ;
515 [label="gini = 0.0\nsamples = 2\nvalue = [0, 2]\nclass = Yes", fillcolor="#399de5"] ;
513 -> 515 ;
516 [label="age <= 0.673\ngini = 0.486\nsamples = 52\nvalue = [46, 33]\nclass = No", fillcolor="#f8dbc7"] ;
510 -> 516 ;
517 [label="age <= 0.221\ngini = 0.497\nsamples = 37\nvalue = [26, 30]\nclass = Yes", fillcolor="#e5f2fc"] ;
516 -> 517 ;
518 [label="day <= 0.617\ngini = 0.408\nsamples = 9\nvalue = [10, 4]\nclass = No", fillcolor="#efb388"] ;
517 -> 518 ;
519 [label="mon <= 0.364\ngini = 0.278\nsamples = 8\nvalue = [10, 2]\nclass = No", fillcolor="#ea9a61"] ;
518 -> 519 ;
520 [label="gini = 0.0\nsamples = 4\nvalue = [6, 0]\nclass = No", fillcolor="#e58139"] ;
519 -> 520 ;
521 [label="marital <= 0.75\ngini = 0.444\nsamples = 4\nvalue = [4, 2]\nclass = No", fillcolor="#f2c09c"] ;
519 -> 521 ;
522 [label="gini = 0.0\nsamples = 1\nvalue = [3, 0]\nclass = No", fillcolor="#e58139"] ;
521 -> 522 ;
523 [label="day <= 0.3\ngini = 0.444\nsamples = 3\nvalue = [1, 2]\nclass = Yes", fillcolor="#9ccef2"] ;
521 -> 523 ;
524 [label="gini = 0.0\nsamples = 1\nvalue = [0, 1]\nclass = Yes", fillcolor="#399de5"] ;
523 -> 524 ;
525 [label="dur <= 0.582\ngini = 0.5\nsamples = 2\nvalue = [1, 1]\nclass = No", fillcolor="#ffffff"] ;
523 -> 525 ;
526 [label="gini = 0.0\nsamples = 1\nvalue = [1, 0]\nclass = No", fillcolor="#e58139"] ;
525 -> 526 ;
527 [label="gini = 0.0\nsamples = 1\nvalue = [0, 1]\nclass = Yes", fillcolor="#399de5"] ;
525 -> 527 ;
528 [label="gini = 0.0\nsamples = 1\nvalue = [0, 2]\nclass = Yes", fillcolor="#399de5"] ;
518 -> 528 ;
529 [label="call_type <= 0.25\ngini = 0.472\nsamples = 28\nvalue = [16, 26]\nclass = Yes", fillcolor="#b3d9f5"] ;
517 -> 529 ;
530 [label="dur <= 0.609\ngini = 0.486\nsamples = 24\nvalue = [15, 21]\nclass = Yes", fillcolor="#c6e3f8"] ;
529 -> 530 ;
531 [label="job <= 0.727\ngini = 0.496\nsamples = 13\nvalue = [12, 10]\nclass = No", fillcolor="#fbeade"] ;
530 -> 531 ;
532 [label="age <= 0.471\ngini = 0.444\nsamples = 9\nvalue = [10, 5]\nclass = No", fillcolor="#f2c09c"] ;
531 -> 532 ;
533 [label="mon <= 0.5\ngini = 0.494\nsamples = 6\nvalue = [4, 5]\nclass = Yes", fillcolor="#d7ebfa"] ;
532 -> 533 ;
534 [label="day <= 0.583\ngini = 0.49\nsamples = 5\nvalue = [4, 3]\nclass = No", fillcolor="#f8e0ce"] ;
533 -> 534 ;
535 [label="job <= 0.455\ngini = 0.48\nsamples = 4\nvalue = [2, 3]\nclass = Yes", fillcolor="#bddef6"] ;
534 -> 535 ;
536 [label="gini = 0.0\nsamples = 2\nvalue = [0, 3]\nclass = Yes", fillcolor="#399de5"] ;
535 -> 536 ;
537 [label="gini = 0.0\nsamples = 2\nvalue = [2, 0]\nclass = No", fillcolor="#e58139"] ;
535 -> 537 ;
538 [label="gini = 0.0\nsamples = 1\nvalue = [2, 0]\nclass = No", fillcolor="#e58139"] ;
534 -> 538 ;
539 [label="gini = 0.0\nsamples = 1\nvalue = [0, 2]\nclass = Yes", fillcolor="#399de5"] ;
533 -> 539 ;
540 [label="gini = 0.0\nsamples = 3\nvalue = [6, 0]\nclass = No", fillcolor="#e58139"] ;
532 -> 540 ;
541 [label="prev_outcome <= 0.167\ngini = 0.408\nsamples = 4\nvalue = [2, 5]\nclass = Yes", fillcolor="#88c4ef"] ;
531 -> 541 ;
542 [label="dur <= 0.498\ngini = 0.444\nsamples = 2\nvalue = [2, 1]\nclass = No", fillcolor="#f2c09c"] ;
541 -> 542 ;
543 [label="gini = 0.0\nsamples = 1\nvalue = [0, 1]\nclass = Yes", fillcolor="#399de5"] ;
542 -> 543 ;
544 [label="gini = 0.0\nsamples = 1\nvalue = [2, 0]\nclass = No", fillcolor="#e58139"] ;
542 -> 544 ;
545 [label="gini = 0.0\nsamples = 2\nvalue = [0, 4]\nclass = Yes", fillcolor="#399de5"] ;
541 -> 545 ;
546 [label="age <= 0.471\ngini = 0.337\nsamples = 11\nvalue = [3, 11]\nclass = Yes", fillcolor="#6fb8ec"] ;
530 -> 546 ;
547 [label="gini = 0.0\nsamples = 4\nvalue = [0, 6]\nclass = Yes", fillcolor="#399de5"] ;
546 -> 547 ;
548 [label="num_calls <= 0.3\ngini = 0.469\nsamples = 7\nvalue = [3, 5]\nclass = Yes", fillcolor="#b0d8f5"] ;
546 -> 548 ;
549 [label="dur <= 0.646\ngini = 0.408\nsamples = 6\nvalue = [2, 5]\nclass = Yes", fillcolor="#88c4ef"] ;
548 -> 549 ;
550 [label="gini = 0.0\nsamples = 2\nvalue = [0, 3]\nclass = Yes", fillcolor="#399de5"] ;
549 -> 550 ;
551 [label="age <= 0.606\ngini = 0.5\nsamples = 4\nvalue = [2, 2]\nclass = No", fillcolor="#ffffff"] ;
549 -> 551 ;
552 [label="gini = 0.0\nsamples = 2\nvalue = [2, 0]\nclass = No", fillcolor="#e58139"] ;
551 -> 552 ;
553 [label="gini = 0.0\nsamples = 2\nvalue = [0, 2]\nclass = Yes", fillcolor="#399de5"] ;
551 -> 553 ;
554 [label="gini = 0.0\nsamples = 1\nvalue = [1, 0]\nclass = No", fillcolor="#e58139"] ;
548 -> 554 ;
555 [label="dur <= 0.523\ngini = 0.278\nsamples = 4\nvalue = [1, 5]\nclass = Yes", fillcolor="#61b1ea"] ;
529 -> 555 ;
556 [label="gini = 0.0\nsamples = 1\nvalue = [1, 0]\nclass = No", fillcolor="#e58139"] ;
555 -> 556 ;
557 [label="gini = 0.0\nsamples = 3\nvalue = [0, 5]\nclass = Yes", fillcolor="#399de5"] ;
555 -> 557 ;
558 [label="dur <= 0.586\ngini = 0.227\nsamples = 15\nvalue = [20, 3]\nclass = No", fillcolor="#e99457"] ;
516 -> 558 ;
559 [label="gini = 0.0\nsamples = 7\nvalue = [11, 0]\nclass = No", fillcolor="#e58139"] ;
558 -> 559 ;
560 [label="age <= 0.779\ngini = 0.375\nsamples = 8\nvalue = [9, 3]\nclass = No", fillcolor="#eeab7b"] ;
558 -> 560 ;
561 [label="gini = 0.0\nsamples = 3\nvalue = [6, 0]\nclass = No", fillcolor="#e58139"] ;
560 -> 561 ;
562 [label="day <= 0.483\ngini = 0.5\nsamples = 5\nvalue = [3, 3]\nclass = No", fillcolor="#ffffff"] ;
560 -> 562 ;
563 [label="gini = 0.0\nsamples = 2\nvalue = [0, 2]\nclass = Yes", fillcolor="#399de5"] ;
562 -> 563 ;
564 [label="num_calls <= 0.1\ngini = 0.375\nsamples = 3\nvalue = [3, 1]\nclass = No", fillcolor="#eeab7b"] ;
562 -> 564 ;
565 [label="gini = 0.0\nsamples = 2\nvalue = [3, 0]\nclass = No", fillcolor="#e58139"] ;
564 -> 565 ;
566 [label="gini = 0.0\nsamples = 1\nvalue = [0, 1]\nclass = Yes", fillcolor="#399de5"] ;
564 -> 566 ;
567 [label="age <= 0.221\ngini = 0.21\nsamples = 454\nvalue = [622, 84]\nclass = No", fillcolor="#e99254"] ;
289 -> 567 ;
568 [label="day <= 0.083\ngini = 0.366\nsamples = 39\nvalue = [41, 13]\nclass = No", fillcolor="#eda978"] ;
567 -> 568 ;
569 [label="gini = 0.0\nsamples = 1\nvalue = [0, 2]\nclass = Yes", fillcolor="#399de5"] ;
568 -> 569 ;
570 [label="dur <= 0.531\ngini = 0.334\nsamples = 38\nvalue = [41, 11]\nclass = No", fillcolor="#eca36e"] ;
568 -> 570 ;
571 [label="marital <= 0.75\ngini = 0.21\nsamples = 30\nvalue = [37, 5]\nclass = No", fillcolor="#e99254"] ;
570 -> 571 ;
572 [label="dur <= 0.22\ngini = 0.087\nsamples = 13\nvalue = [21, 1]\nclass = No", fillcolor="#e68742"] ;
571 -> 572 ;
573 [label="gini = 0.0\nsamples = 1\nvalue = [0, 1]\nclass = Yes", fillcolor="#399de5"] ;
572 -> 573 ;
574 [label="gini = 0.0\nsamples = 12\nvalue = [21, 0]\nclass = No", fillcolor="#e58139"] ;
572 -> 574 ;
575 [label="job <= 0.5\ngini = 0.32\nsamples = 17\nvalue = [16, 4]\nclass = No", fillcolor="#eca06a"] ;
571 -> 575 ;
576 [label="prev_outcome <= 0.167\ngini = 0.444\nsamples = 3\nvalue = [1, 2]\nclass = Yes", fillcolor="#9ccef2"] ;
575 -> 576 ;
577 [label="gini = 0.0\nsamples = 1\nvalue = [1, 0]\nclass = No", fillcolor="#e58139"] ;
576 -> 577 ;
578 [label="gini = 0.0\nsamples = 2\nvalue = [0, 2]\nclass = Yes", fillcolor="#399de5"] ;
576 -> 578 ;
579 [label="dur <= 0.203\ngini = 0.208\nsamples = 14\nvalue = [15, 2]\nclass = No", fillcolor="#e89253"] ;
575 -> 579 ;
580 [label="num_calls <= 0.1\ngini = 0.5\nsamples = 2\nvalue = [1, 1]\nclass = No", fillcolor="#ffffff"] ;
579 -> 580 ;
581 [label="gini = 0.0\nsamples = 1\nvalue = [0, 1]\nclass = Yes", fillcolor="#399de5"] ;
580 -> 581 ;
582 [label="gini = 0.0\nsamples = 1\nvalue = [1, 0]\nclass = No", fillcolor="#e58139"] ;
580 -> 582 ;
583 [label="education_qual <= 0.5\ngini = 0.124\nsamples = 12\nvalue = [14, 1]\nclass = No", fillcolor="#e78a47"] ;
579 -> 583 ;
584 [label="gini = 0.0\nsamples = 8\nvalue = [10, 0]\nclass = No", fillcolor="#e58139"] ;
583 -> 584 ;
585 [label="age <= 0.183\ngini = 0.32\nsamples = 4\nvalue = [4, 1]\nclass = No", fillcolor="#eca06a"] ;
583 -> 585 ;
586 [label="day <= 0.4\ngini = 0.5\nsamples = 2\nvalue = [1, 1]\nclass = No", fillcolor="#ffffff"] ;
585 -> 586 ;
587 [label="gini = 0.0\nsamples = 1\nvalue = [0, 1]\nclass = Yes", fillcolor="#399de5"] ;
586 -> 587 ;
588 [label="gini = 0.0\nsamples = 1\nvalue = [1, 0]\nclass = No", fillcolor="#e58139"] ;
586 -> 588 ;
589 [label="gini = 0.0\nsamples = 2\nvalue = [3, 0]\nclass = No", fillcolor="#e58139"] ;
585 -> 589 ;
590 [label="num_calls <= 0.1\ngini = 0.48\nsamples = 8\nvalue = [4, 6]\nclass = Yes", fillcolor="#bddef6"] ;
570 -> 590 ;
591 [label="gini = 0.0\nsamples = 3\nvalue = [0, 5]\nclass = Yes", fillcolor="#399de5"] ;
590 -> 591 ;
592 [label="dur <= 0.641\ngini = 0.32\nsamples = 5\nvalue = [4, 1]\nclass = No", fillcolor="#eca06a"] ;
590 -> 592 ;
593 [label="gini = 0.0\nsamples = 1\nvalue = [0, 1]\nclass = Yes", fillcolor="#399de5"] ;
592 -> 593 ;
594 [label="gini = 0.0\nsamples = 4\nvalue = [4, 0]\nclass = No", fillcolor="#e58139"] ;
592 -> 594 ;
595 [label="mon <= 0.864\ngini = 0.194\nsamples = 415\nvalue = [581, 71]\nclass = No", fillcolor="#e89051"] ;
567 -> 595 ;
596 [label="dur <= 0.194\ngini = 0.181\nsamples = 386\nvalue = [546, 61]\nclass = No", fillcolor="#e88f4f"] ;
595 -> 596 ;
597 [label="num_calls <= 0.3\ngini = 0.498\nsamples = 36\nvalue = [33, 29]\nclass = No", fillcolor="#fcf0e7"] ;
596 -> 597 ;
598 [label="age <= 0.683\ngini = 0.461\nsamples = 29\nvalue = [32, 18]\nclass = No", fillcolor="#f4c8a8"] ;
597 -> 598 ;
599 [label="dur <= 0.192\ngini = 0.487\nsamples = 25\nvalue = [25, 18]\nclass = No", fillcolor="#f8dcc8"] ;
598 -> 599 ;
600 [label="gini = 0.0\nsamples = 3\nvalue = [4, 0]\nclass = No", fillcolor="#e58139"] ;
599 -> 600 ;
601 [label="age <= 0.462\ngini = 0.497\nsamples = 22\nvalue = [21, 18]\nclass = No", fillcolor="#fbede3"] ;
599 -> 601 ;
602 [label="age <= 0.269\ngini = 0.435\nsamples = 13\nvalue = [17, 8]\nclass = No", fillcolor="#f1bc96"] ;
601 -> 602 ;
603 [label="marital <= 0.75\ngini = 0.49\nsamples = 3\nvalue = [3, 4]\nclass = Yes", fillcolor="#cee6f8"] ;
602 -> 603 ;
604 [label="gini = 0.0\nsamples = 1\nvalue = [3, 0]\nclass = No", fillcolor="#e58139"] ;
603 -> 604 ;
605 [label="gini = 0.0\nsamples = 2\nvalue = [0, 4]\nclass = Yes", fillcolor="#399de5"] ;
603 -> 605 ;
606 [label="day <= 0.383\ngini = 0.346\nsamples = 10\nvalue = [14, 4]\nclass = No", fillcolor="#eca572"] ;
602 -> 606 ;
607 [label="job <= 0.591\ngini = 0.48\nsamples = 3\nvalue = [2, 3]\nclass = Yes", fillcolor="#bddef6"] ;
606 -> 607 ;
608 [label="gini = 0.0\nsamples = 2\nvalue = [0, 3]\nclass = Yes", fillcolor="#399de5"] ;
607 -> 608 ;
609 [label="gini = 0.0\nsamples = 1\nvalue = [2, 0]\nclass = No", fillcolor="#e58139"] ;
607 -> 609 ;
610 [label="job <= 0.455\ngini = 0.142\nsamples = 7\nvalue = [12, 1]\nclass = No", fillcolor="#e78c49"] ;
606 -> 610 ;
611 [label="marital <= 0.75\ngini = 0.219\nsamples = 4\nvalue = [7, 1]\nclass = No", fillcolor="#e99355"] ;
610 -> 611 ;
612 [label="gini = 0.0\nsamples = 3\nvalue = [7, 0]\nclass = No", fillcolor="#e58139"] ;
611 -> 612 ;
613 [label="gini = 0.0\nsamples = 1\nvalue = [0, 1]\nclass = Yes", fillcolor="#399de5"] ;
611 -> 613 ;
614 [label="gini = 0.0\nsamples = 3\nvalue = [5, 0]\nclass = No", fillcolor="#e58139"] ;
610 -> 614 ;
615 [label="job <= 0.455\ngini = 0.408\nsamples = 9\nvalue = [4, 10]\nclass = Yes", fillcolor="#88c4ef"] ;
601 -> 615 ;
616 [label="gini = 0.0\nsamples = 5\nvalue = [0, 8]\nclass = Yes", fillcolor="#399de5"] ;
615 -> 616 ;
617 [label="marital <= 0.25\ngini = 0.444\nsamples = 4\nvalue = [4, 2]\nclass = No", fillcolor="#f2c09c"] ;
615 -> 617 ;
618 [label="gini = 0.0\nsamples = 1\nvalue = [0, 2]\nclass = Yes", fillcolor="#399de5"] ;
617 -> 618 ;
619 [label="gini = 0.0\nsamples = 3\nvalue = [4, 0]\nclass = No", fillcolor="#e58139"] ;
617 -> 619 ;
620 [label="gini = 0.0\nsamples = 4\nvalue = [7, 0]\nclass = No", fillcolor="#e58139"] ;
598 -> 620 ;
621 [label="job <= 0.409\ngini = 0.153\nsamples = 7\nvalue = [1, 11]\nclass = Yes", fillcolor="#4ba6e7"] ;
597 -> 621 ;
622 [label="mon <= 0.773\ngini = 0.444\nsamples = 2\nvalue = [1, 2]\nclass = Yes", fillcolor="#9ccef2"] ;
621 -> 622 ;
623 [label="gini = 0.0\nsamples = 1\nvalue = [0, 2]\nclass = Yes", fillcolor="#399de5"] ;
622 -> 623 ;
624 [label="gini = 0.0\nsamples = 1\nvalue = [1, 0]\nclass = No", fillcolor="#e58139"] ;
622 -> 624 ;
625 [label="gini = 0.0\nsamples = 5\nvalue = [0, 9]\nclass = Yes", fillcolor="#399de5"] ;
621 -> 625 ;
626 [label="dur <= 0.651\ngini = 0.111\nsamples = 350\nvalue = [513, 32]\nclass = No", fillcolor="#e78945"] ;
596 -> 626 ;
627 [label="day <= 0.083\ngini = 0.087\nsamples = 311\nvalue = [463, 22]\nclass = No", fillcolor="#e68742"] ;
626 -> 627 ;
628 [label="dur <= 0.243\ngini = 0.408\nsamples = 4\nvalue = [2, 5]\nclass = Yes", fillcolor="#88c4ef"] ;
627 -> 628 ;
629 [label="gini = 0.0\nsamples = 1\nvalue = [2, 0]\nclass = No", fillcolor="#e58139"] ;
628 -> 629 ;
630 [label="gini = 0.0\nsamples = 3\nvalue = [0, 5]\nclass = Yes", fillcolor="#399de5"] ;
628 -> 630 ;
631 [label="num_calls <= 0.3\ngini = 0.069\nsamples = 307\nvalue = [461, 17]\nclass = No", fillcolor="#e68640"] ;
627 -> 631 ;
632 [label="job <= 0.5\ngini = 0.06\nsamples = 269\nvalue = [409, 13]\nclass = No", fillcolor="#e6853f"] ;
631 -> 632 ;
633 [label="age <= 0.279\ngini = 0.093\nsamples = 127\nvalue = [194, 10]\nclass = No", fillcolor="#e68743"] ;
632 -> 633 ;
634 [label="age <= 0.26\ngini = 0.285\nsamples = 19\nvalue = [24, 5]\nclass = No", fillcolor="#ea9b62"] ;
633 -> 634 ;
635 [label="gini = 0.0\nsamples = 15\nvalue = [22, 0]\nclass = No", fillcolor="#e58139"] ;
634 -> 635 ;
636 [label="num_calls <= 0.1\ngini = 0.408\nsamples = 4\nvalue = [2, 5]\nclass = Yes", fillcolor="#88c4ef"] ;
634 -> 636 ;
637 [label="gini = 0.0\nsamples = 3\nvalue = [0, 5]\nclass = Yes", fillcolor="#399de5"] ;
636 -> 637 ;
638 [label="gini = 0.0\nsamples = 1\nvalue = [2, 0]\nclass = No", fillcolor="#e58139"] ;
636 -> 638 ;
639 [label="dur <= 0.586\ngini = 0.056\nsamples = 108\nvalue = [170, 5]\nclass = No", fillcolor="#e6853f"] ;
633 -> 639 ;
640 [label="age <= 0.375\ngini = 0.035\nsamples = 103\nvalue = [164, 3]\nclass = No", fillcolor="#e5833d"] ;
639 -> 640 ;
641 [label="day <= 0.117\ngini = 0.081\nsamples = 30\nvalue = [45, 2]\nclass = No", fillcolor="#e68742"] ;
640 -> 641 ;
642 [label="gini = 0.0\nsamples = 1\nvalue = [0, 1]\nclass = Yes", fillcolor="#399de5"] ;
641 -> 642 ;
643 [label="age <= 0.356\ngini = 0.043\nsamples = 29\nvalue = [45, 1]\nclass = No", fillcolor="#e6843d"] ;
641 -> 643 ;
644 [label="gini = 0.0\nsamples = 23\nvalue = [38, 0]\nclass = No", fillcolor="#e58139"] ;
643 -> 644 ;
645 [label="num_calls <= 0.1\ngini = 0.219\nsamples = 6\nvalue = [7, 1]\nclass = No", fillcolor="#e99355"] ;
643 -> 645 ;
646 [label="gini = 0.0\nsamples = 5\nvalue = [7, 0]\nclass = No", fillcolor="#e58139"] ;
645 -> 646 ;
647 [label="gini = 0.0\nsamples = 1\nvalue = [0, 1]\nclass = Yes", fillcolor="#399de5"] ;
645 -> 647 ;
648 [label="education_qual <= 0.5\ngini = 0.017\nsamples = 73\nvalue = [119, 1]\nclass = No", fillcolor="#e5823b"] ;
640 -> 648 ;
649 [label="gini = 0.0\nsamples = 21\nvalue = [41, 0]\nclass = No", fillcolor="#e58139"] ;
648 -> 649 ;
650 [label="dur <= 0.21\ngini = 0.025\nsamples = 52\nvalue = [78, 1]\nclass = No", fillcolor="#e5833c"] ;
648 -> 650 ;
651 [label="dur <= 0.208\ngini = 0.142\nsamples = 7\nvalue = [12, 1]\nclass = No", fillcolor="#e78c49"] ;
650 -> 651 ;
652 [label="gini = 0.0\nsamples = 6\nvalue = [12, 0]\nclass = No", fillcolor="#e58139"] ;
651 -> 652 ;
653 [label="gini = 0.0\nsamples = 1\nvalue = [0, 1]\nclass = Yes", fillcolor="#399de5"] ;
651 -> 653 ;
654 [label="gini = 0.0\nsamples = 45\nvalue = [66, 0]\nclass = No", fillcolor="#e58139"] ;
650 -> 654 ;
655 [label="age <= 0.433\ngini = 0.375\nsamples = 5\nvalue = [6, 2]\nclass = No", fillcolor="#eeab7b"] ;
639 -> 655 ;
656 [label="gini = 0.0\nsamples = 3\nvalue = [5, 0]\nclass = No", fillcolor="#e58139"] ;
655 -> 656 ;
657 [label="dur <= 0.608\ngini = 0.444\nsamples = 2\nvalue = [1, 2]\nclass = Yes", fillcolor="#9ccef2"] ;
655 -> 657 ;
658 [label="gini = 0.0\nsamples = 1\nvalue = [0, 2]\nclass = Yes", fillcolor="#399de5"] ;
657 -> 658 ;
659 [label="gini = 0.0\nsamples = 1\nvalue = [1, 0]\nclass = No", fillcolor="#e58139"] ;
657 -> 659 ;
660 [label="day <= 0.183\ngini = 0.027\nsamples = 142\nvalue = [215, 3]\nclass = No", fillcolor="#e5833c"] ;
632 -> 660 ;
661 [label="education_qual <= 0.5\ngini = 0.121\nsamples = 21\nvalue = [29, 2]\nclass = No", fillcolor="#e78a47"] ;
660 -> 661 ;
662 [label="gini = 0.0\nsamples = 15\nvalue = [23, 0]\nclass = No", fillcolor="#e58139"] ;
661 -> 662 ;
663 [label="job <= 0.727\ngini = 0.375\nsamples = 6\nvalue = [6, 2]\nclass = No", fillcolor="#eeab7b"] ;
661 -> 663 ;
664 [label="gini = 0.0\nsamples = 3\nvalue = [4, 0]\nclass = No", fillcolor="#e58139"] ;
663 -> 664 ;
665 [label="num_calls <= 0.1\ngini = 0.5\nsamples = 3\nvalue = [2, 2]\nclass = No", fillcolor="#ffffff"] ;
663 -> 665 ;
666 [label="age <= 0.413\ngini = 0.444\nsamples = 2\nvalue = [1, 2]\nclass = Yes", fillcolor="#9ccef2"] ;
665 -> 666 ;
667 [label="gini = 0.0\nsamples = 1\nvalue = [0, 2]\nclass = Yes", fillcolor="#399de5"] ;
666 -> 667 ;
668 [label="gini = 0.0\nsamples = 1\nvalue = [1, 0]\nclass = No", fillcolor="#e58139"] ;
666 -> 668 ;
669 [label="gini = 0.0\nsamples = 1\nvalue = [1, 0]\nclass = No", fillcolor="#e58139"] ;
665 -> 669 ;
670 [label="prev_outcome <= 0.167\ngini = 0.011\nsamples = 121\nvalue = [186.0, 1.0]\nclass = No", fillcolor="#e5823a"] ;
660 -> 670 ;
671 [label="gini = 0.0\nsamples = 93\nvalue = [143, 0]\nclass = No", fillcolor="#e58139"] ;
670 -> 671 ;
672 [label="day <= 0.617\ngini = 0.044\nsamples = 28\nvalue = [43, 1]\nclass = No", fillcolor="#e6843e"] ;
670 -> 672 ;
673 [label="gini = 0.0\nsamples = 24\nvalue = [39, 0]\nclass = No", fillcolor="#e58139"] ;
672 -> 673 ;
674 [label="dur <= 0.502\ngini = 0.32\nsamples = 4\nvalue = [4, 1]\nclass = No", fillcolor="#eca06a"] ;
672 -> 674 ;
675 [label="gini = 0.0\nsamples = 3\nvalue = [4, 0]\nclass = No", fillcolor="#e58139"] ;
674 -> 675 ;
676 [label="gini = 0.0\nsamples = 1\nvalue = [0, 1]\nclass = Yes", fillcolor="#399de5"] ;
674 -> 676 ;
677 [label="education_qual <= 0.5\ngini = 0.133\nsamples = 38\nvalue = [52, 4]\nclass = No", fillcolor="#e78b48"] ;
631 -> 677 ;
678 [label="job <= 0.864\ngini = 0.26\nsamples = 21\nvalue = [22, 4]\nclass = No", fillcolor="#ea985d"] ;
677 -> 678 ;
679 [label="mon <= 0.773\ngini = 0.153\nsamples = 20\nvalue = [22, 2]\nclass = No", fillcolor="#e78c4b"] ;
678 -> 679 ;
680 [label="gini = 0.0\nsamples = 15\nvalue = [17, 0]\nclass = No", fillcolor="#e58139"] ;
679 -> 680 ;
681 [label="dur <= 0.232\ngini = 0.408\nsamples = 5\nvalue = [5, 2]\nclass = No", fillcolor="#efb388"] ;
679 -> 681 ;
682 [label="gini = 0.0\nsamples = 1\nvalue = [0, 2]\nclass = Yes", fillcolor="#399de5"] ;
681 -> 682 ;
683 [label="gini = 0.0\nsamples = 4\nvalue = [5, 0]\nclass = No", fillcolor="#e58139"] ;
681 -> 683 ;
684 [label="gini = 0.0\nsamples = 1\nvalue = [0, 2]\nclass = Yes", fillcolor="#399de5"] ;
678 -> 684 ;
685 [label="gini = 0.0\nsamples = 17\nvalue = [30, 0]\nclass = No", fillcolor="#e58139"] ;
677 -> 685 ;
686 [label="call_type <= 0.25\ngini = 0.278\nsamples = 39\nvalue = [50, 10]\nclass = No", fillcolor="#ea9a61"] ;
626 -> 686 ;
687 [label="education_qual <= 0.5\ngini = 0.302\nsamples = 35\nvalue = [44, 10]\nclass = No", fillcolor="#eb9e66"] ;
686 -> 687 ;
688 [label="dur <= 0.774\ngini = 0.198\nsamples = 16\nvalue = [24, 3]\nclass = No", fillcolor="#e89152"] ;
687 -> 688 ;
689 [label="job <= 0.5\ngini = 0.397\nsamples = 8\nvalue = [8, 3]\nclass = No", fillcolor="#efb083"] ;
688 -> 689 ;
690 [label="gini = 0.0\nsamples = 3\nvalue = [5, 0]\nclass = No", fillcolor="#e58139"] ;
689 -> 690 ;
691 [label="marital <= 0.25\ngini = 0.5\nsamples = 5\nvalue = [3, 3]\nclass = No", fillcolor="#ffffff"] ;
689 -> 691 ;
692 [label="gini = 0.0\nsamples = 1\nvalue = [1, 0]\nclass = No", fillcolor="#e58139"] ;
691 -> 692 ;
693 [label="prev_outcome <= 0.167\ngini = 0.48\nsamples = 4\nvalue = [2, 3]\nclass = Yes", fillcolor="#bddef6"] ;
691 -> 693 ;
694 [label="gini = 0.0\nsamples = 3\nvalue = [0, 3]\nclass = Yes", fillcolor="#399de5"] ;
693 -> 694 ;
695 [label="gini = 0.0\nsamples = 1\nvalue = [2, 0]\nclass = No", fillcolor="#e58139"] ;
693 -> 695 ;
696 [label="gini = 0.0\nsamples = 8\nvalue = [16, 0]\nclass = No", fillcolor="#e58139"] ;
688 -> 696 ;
697 [label="num_calls <= 0.3\ngini = 0.384\nsamples = 19\nvalue = [20, 7]\nclass = No", fillcolor="#eead7e"] ;
687 -> 697 ;
698 [label="dur <= 0.671\ngini = 0.33\nsamples = 16\nvalue = [19, 5]\nclass = No", fillcolor="#eca26d"] ;
697 -> 698 ;
699 [label="gini = 0.0\nsamples = 1\nvalue = [0, 1]\nclass = Yes", fillcolor="#399de5"] ;
698 -> 699 ;
700 [label="dur <= 0.873\ngini = 0.287\nsamples = 15\nvalue = [19, 4]\nclass = No", fillcolor="#ea9c63"] ;
698 -> 700 ;
701 [label="job <= 0.5\ngini = 0.124\nsamples = 10\nvalue = [14, 1]\nclass = No", fillcolor="#e78a47"] ;
700 -> 701 ;
702 [label="day <= 0.383\ngini = 0.219\nsamples = 6\nvalue = [7, 1]\nclass = No", fillcolor="#e99355"] ;
701 -> 702 ;
703 [label="gini = 0.0\nsamples = 5\nvalue = [7, 0]\nclass = No", fillcolor="#e58139"] ;
702 -> 703 ;
704 [label="gini = 0.0\nsamples = 1\nvalue = [0, 1]\nclass = Yes", fillcolor="#399de5"] ;
702 -> 704 ;
705 [label="gini = 0.0\nsamples = 4\nvalue = [7, 0]\nclass = No", fillcolor="#e58139"] ;
701 -> 705 ;
706 [label="marital <= 0.75\ngini = 0.469\nsamples = 5\nvalue = [5, 3]\nclass = No", fillcolor="#f5cdb0"] ;
700 -> 706 ;
707 [label="gini = 0.0\nsamples = 3\nvalue = [5, 0]\nclass = No", fillcolor="#e58139"] ;
706 -> 707 ;
708 [label="gini = 0.0\nsamples = 2\nvalue = [0, 3]\nclass = Yes", fillcolor="#399de5"] ;
706 -> 708 ;
709 [label="dur <= 0.784\ngini = 0.444\nsamples = 3\nvalue = [1, 2]\nclass = Yes", fillcolor="#9ccef2"] ;
697 -> 709 ;
710 [label="gini = 0.0\nsamples = 2\nvalue = [0, 2]\nclass = Yes", fillcolor="#399de5"] ;
709 -> 710 ;
711 [label="gini = 0.0\nsamples = 1\nvalue = [1, 0]\nclass = No", fillcolor="#e58139"] ;
709 -> 711 ;
712 [label="gini = 0.0\nsamples = 4\nvalue = [6, 0]\nclass = No", fillcolor="#e58139"] ;
686 -> 712 ;
713 [label="day <= 0.45\ngini = 0.346\nsamples = 29\nvalue = [35, 10]\nclass = No", fillcolor="#eca572"] ;
595 -> 713 ;
714 [label="num_calls <= 0.3\ngini = 0.153\nsamples = 15\nvalue = [22, 2]\nclass = No", fillcolor="#e78c4b"] ;
713 -> 714 ;
715 [label="gini = 0.0\nsamples = 11\nvalue = [18, 0]\nclass = No", fillcolor="#e58139"] ;
714 -> 715 ;
716 [label="age <= 0.308\ngini = 0.444\nsamples = 4\nvalue = [4, 2]\nclass = No", fillcolor="#f2c09c"] ;
714 -> 716 ;
717 [label="gini = 0.0\nsamples = 1\nvalue = [0, 1]\nclass = Yes", fillcolor="#399de5"] ;
716 -> 717 ;
718 [label="age <= 0.596\ngini = 0.32\nsamples = 3\nvalue = [4, 1]\nclass = No", fillcolor="#eca06a"] ;
716 -> 718 ;
719 [label="gini = 0.0\nsamples = 2\nvalue = [4, 0]\nclass = No", fillcolor="#e58139"] ;
718 -> 719 ;
720 [label="gini = 0.0\nsamples = 1\nvalue = [0, 1]\nclass = Yes", fillcolor="#399de5"] ;
718 -> 720 ;
721 [label="age <= 0.904\ngini = 0.472\nsamples = 14\nvalue = [13, 8]\nclass = No", fillcolor="#f5cfb3"] ;
713 -> 721 ;
722 [label="num_calls <= 0.1\ngini = 0.494\nsamples = 13\nvalue = [10, 8]\nclass = No", fillcolor="#fae6d7"] ;
721 -> 722 ;
723 [label="education_qual <= 0.833\ngini = 0.49\nsamples = 10\nvalue = [6, 8]\nclass = Yes", fillcolor="#cee6f8"] ;
722 -> 723 ;
724 [label="dur <= 0.477\ngini = 0.5\nsamples = 9\nvalue = [6, 6]\nclass = No", fillcolor="#ffffff"] ;
723 -> 724 ;
725 [label="age <= 0.865\ngini = 0.375\nsamples = 6\nvalue = [6, 2]\nclass = No", fillcolor="#eeab7b"] ;
724 -> 725 ;
726 [label="dur <= 0.273\ngini = 0.245\nsamples = 5\nvalue = [6, 1]\nclass = No", fillcolor="#e9965a"] ;
725 -> 726 ;
727 [label="gini = 0.0\nsamples = 3\nvalue = [5, 0]\nclass = No", fillcolor="#e58139"] ;
726 -> 727 ;
728 [label="age <= 0.375\ngini = 0.5\nsamples = 2\nvalue = [1, 1]\nclass = No", fillcolor="#ffffff"] ;
726 -> 728 ;
729 [label="gini = 0.0\nsamples = 1\nvalue = [0, 1]\nclass = Yes", fillcolor="#399de5"] ;
728 -> 729 ;
730 [label="gini = 0.0\nsamples = 1\nvalue = [1, 0]\nclass = No", fillcolor="#e58139"] ;
728 -> 730 ;
731 [label="gini = 0.0\nsamples = 1\nvalue = [0, 1]\nclass = Yes", fillcolor="#399de5"] ;
725 -> 731 ;
732 [label="gini = 0.0\nsamples = 3\nvalue = [0, 4]\nclass = Yes", fillcolor="#399de5"] ;
724 -> 732 ;
733 [label="gini = 0.0\nsamples = 1\nvalue = [0, 2]\nclass = Yes", fillcolor="#399de5"] ;
723 -> 733 ;
734 [label="gini = 0.0\nsamples = 3\nvalue = [4, 0]\nclass = No", fillcolor="#e58139"] ;
722 -> 734 ;
735 [label="gini = 0.0\nsamples = 1\nvalue = [3, 0]\nclass = No", fillcolor="#e58139"] ;
721 -> 735 ;
736 [label="dur <= 0.355\ngini = 0.5\nsamples = 27\nvalue = [23, 23]\nclass = No", fillcolor="#ffffff"] ;
288 -> 736 ;
737 [label="education_qual <= 0.5\ngini = 0.444\nsamples = 16\nvalue = [18, 9]\nclass = No", fillcolor="#f2c09c"] ;
736 -> 737 ;
738 [label="call_type <= 0.25\ngini = 0.494\nsamples = 7\nvalue = [5, 4]\nclass = No", fillcolor="#fae6d7"] ;
737 -> 738 ;
739 [label="job <= 0.545\ngini = 0.49\nsamples = 5\nvalue = [3, 4]\nclass = Yes", fillcolor="#cee6f8"] ;
738 -> 739 ;
740 [label="gini = 0.0\nsamples = 1\nvalue = [1, 0]\nclass = No", fillcolor="#e58139"] ;
739 -> 740 ;
741 [label="num_calls <= 0.3\ngini = 0.444\nsamples = 4\nvalue = [2, 4]\nclass = Yes", fillcolor="#9ccef2"] ;
739 -> 741 ;
742 [label="prev_outcome <= 0.167\ngini = 0.444\nsamples = 3\nvalue = [2, 1]\nclass = No", fillcolor="#f2c09c"] ;
741 -> 742 ;
743 [label="gini = 0.0\nsamples = 1\nvalue = [0, 1]\nclass = Yes", fillcolor="#399de5"] ;
742 -> 743 ;
744 [label="gini = 0.0\nsamples = 2\nvalue = [2, 0]\nclass = No", fillcolor="#e58139"] ;
742 -> 744 ;
745 [label="gini = 0.0\nsamples = 1\nvalue = [0, 3]\nclass = Yes", fillcolor="#399de5"] ;
741 -> 745 ;
746 [label="gini = 0.0\nsamples = 2\nvalue = [2, 0]\nclass = No", fillcolor="#e58139"] ;
738 -> 746 ;
747 [label="call_type <= 0.25\ngini = 0.401\nsamples = 9\nvalue = [13, 5]\nclass = No", fillcolor="#efb185"] ;
737 -> 747 ;
748 [label="prev_outcome <= 0.167\ngini = 0.26\nsamples = 7\nvalue = [11, 2]\nclass = No", fillcolor="#ea985d"] ;
747 -> 748 ;
749 [label="age <= 0.462\ngini = 0.198\nsamples = 5\nvalue = [8, 1]\nclass = No", fillcolor="#e89152"] ;
748 -> 749 ;
750 [label="gini = 0.0\nsamples = 2\nvalue = [4, 0]\nclass = No", fillcolor="#e58139"] ;
749 -> 750 ;
751 [label="day <= 0.2\ngini = 0.32\nsamples = 3\nvalue = [4, 1]\nclass = No", fillcolor="#eca06a"] ;
749 -> 751 ;
752 [label="gini = 0.0\nsamples = 1\nvalue = [0, 1]\nclass = Yes", fillcolor="#399de5"] ;
751 -> 752 ;
753 [label="gini = 0.0\nsamples = 2\nvalue = [4, 0]\nclass = No", fillcolor="#e58139"] ;
751 -> 753 ;
754 [label="age <= 0.221\ngini = 0.375\nsamples = 2\nvalue = [3, 1]\nclass = No", fillcolor="#eeab7b"] ;
748 -> 754 ;
755 [label="gini = 0.0\nsamples = 1\nvalue = [3, 0]\nclass = No", fillcolor="#e58139"] ;
754 -> 755 ;
756 [label="gini = 0.0\nsamples = 1\nvalue = [0, 1]\nclass = Yes", fillcolor="#399de5"] ;
754 -> 756 ;
757 [label="num_calls <= 0.1\ngini = 0.48\nsamples = 2\nvalue = [2, 3]\nclass = Yes", fillcolor="#bddef6"] ;
747 -> 757 ;
758 [label="gini = 0.0\nsamples = 1\nvalue = [0, 3]\nclass = Yes", fillcolor="#399de5"] ;
757 -> 758 ;
759 [label="gini = 0.0\nsamples = 1\nvalue = [2, 0]\nclass = No", fillcolor="#e58139"] ;
757 -> 759 ;
760 [label="age <= 0.471\ngini = 0.388\nsamples = 11\nvalue = [5, 14]\nclass = Yes", fillcolor="#80c0ee"] ;
736 -> 760 ;
761 [label="dur <= 0.407\ngini = 0.124\nsamples = 8\nvalue = [1, 14]\nclass = Yes", fillcolor="#47a4e7"] ;
760 -> 761 ;
762 [label="num_calls <= 0.1\ngini = 0.444\nsamples = 2\nvalue = [1, 2]\nclass = Yes", fillcolor="#9ccef2"] ;
761 -> 762 ;
763 [label="gini = 0.0\nsamples = 1\nvalue = [0, 2]\nclass = Yes", fillcolor="#399de5"] ;
762 -> 763 ;
764 [label="gini = 0.0\nsamples = 1\nvalue = [1, 0]\nclass = No", fillcolor="#e58139"] ;
762 -> 764 ;
765 [label="gini = 0.0\nsamples = 6\nvalue = [0, 12]\nclass = Yes", fillcolor="#399de5"] ;
761 -> 765 ;
766 [label="gini = 0.0\nsamples = 3\nvalue = [4, 0]\nclass = No", fillcolor="#e58139"] ;
760 -> 766 ;
767 [label="dur <= 0.413\ngini = 0.327\nsamples = 466\nvalue = [570, 148]\nclass = No", fillcolor="#eca26c"] ;
3 -> 767 ;
768 [label="dur <= 0.192\ngini = 0.198\nsamples = 334\nvalue = [463, 58]\nclass = No", fillcolor="#e89152"] ;
767 -> 768 ;
769 [label="call_type <= 0.75\ngini = 0.034\nsamples = 151\nvalue = [225, 4]\nclass = No", fillcolor="#e5833d"] ;
768 -> 769 ;
770 [label="day <= 0.883\ngini = 0.018\nsamples = 145\nvalue = [218, 2]\nclass = No", fillcolor="#e5823b"] ;
769 -> 770 ;
771 [label="day <= 0.85\ngini = 0.039\nsamples = 70\nvalue = [98, 2]\nclass = No", fillcolor="#e6843d"] ;
770 -> 771 ;
772 [label="job <= 0.773\ngini = 0.021\nsamples = 67\nvalue = [95, 1]\nclass = No", fillcolor="#e5823b"] ;
771 -> 772 ;
773 [label="gini = 0.0\nsamples = 56\nvalue = [83, 0]\nclass = No", fillcolor="#e58139"] ;
772 -> 773 ;
774 [label="mon <= 0.773\ngini = 0.142\nsamples = 11\nvalue = [12, 1]\nclass = No", fillcolor="#e78c49"] ;
772 -> 774 ;
775 [label="marital <= 0.25\ngini = 0.375\nsamples = 4\nvalue = [3, 1]\nclass = No", fillcolor="#eeab7b"] ;
774 -> 775 ;
776 [label="gini = 0.0\nsamples = 1\nvalue = [1, 0]\nclass = No", fillcolor="#e58139"] ;
775 -> 776 ;
777 [label="dur <= 0.173\ngini = 0.444\nsamples = 3\nvalue = [2, 1]\nclass = No", fillcolor="#f2c09c"] ;
775 -> 777 ;
778 [label="gini = 0.0\nsamples = 2\nvalue = [2, 0]\nclass = No", fillcolor="#e58139"] ;
777 -> 778 ;
779 [label="gini = 0.0\nsamples = 1\nvalue = [0, 1]\nclass = Yes", fillcolor="#399de5"] ;
777 -> 779 ;
780 [label="gini = 0.0\nsamples = 7\nvalue = [9, 0]\nclass = No", fillcolor="#e58139"] ;
774 -> 780 ;
781 [label="num_calls <= 0.1\ngini = 0.375\nsamples = 3\nvalue = [3, 1]\nclass = No", fillcolor="#eeab7b"] ;
771 -> 781 ;
782 [label="gini = 0.0\nsamples = 1\nvalue = [1, 0]\nclass = No", fillcolor="#e58139"] ;
781 -> 782 ;
783 [label="job <= 0.455\ngini = 0.444\nsamples = 2\nvalue = [2, 1]\nclass = No", fillcolor="#f2c09c"] ;
781 -> 783 ;
784 [label="gini = 0.0\nsamples = 1\nvalue = [2, 0]\nclass = No", fillcolor="#e58139"] ;
783 -> 784 ;
785 [label="gini = 0.0\nsamples = 1\nvalue = [0, 1]\nclass = Yes", fillcolor="#399de5"] ;
783 -> 785 ;
786 [label="gini = 0.0\nsamples = 75\nvalue = [120, 0]\nclass = No", fillcolor="#e58139"] ;
770 -> 786 ;
787 [label="job <= 0.636\ngini = 0.346\nsamples = 6\nvalue = [7, 2]\nclass = No", fillcolor="#eca572"] ;
769 -> 787 ;
788 [label="gini = 0.0\nsamples = 5\nvalue = [7, 0]\nclass = No", fillcolor="#e58139"] ;
787 -> 788 ;
789 [label="gini = 0.0\nsamples = 1\nvalue = [0, 2]\nclass = Yes", fillcolor="#399de5"] ;
787 -> 789 ;
790 [label="age <= 0.962\ngini = 0.301\nsamples = 183\nvalue = [238, 54]\nclass = No", fillcolor="#eb9e66"] ;
768 -> 790 ;
791 [label="dur <= 0.194\ngini = 0.298\nsamples = 182\nvalue = [238, 53]\nclass = No", fillcolor="#eb9d65"] ;
790 -> 791 ;
792 [label="education_qual <= 0.167\ngini = 0.497\nsamples = 16\nvalue = [13, 11]\nclass = No", fillcolor="#fbece1"] ;
791 -> 792 ;
793 [label="marital <= 0.75\ngini = 0.375\nsamples = 5\nvalue = [2, 6]\nclass = Yes", fillcolor="#7bbeee"] ;
792 -> 793 ;
794 [label="gini = 0.0\nsamples = 4\nvalue = [0, 6]\nclass = Yes", fillcolor="#399de5"] ;
793 -> 794 ;
795 [label="gini = 0.0\nsamples = 1\nvalue = [2, 0]\nclass = No", fillcolor="#e58139"] ;
793 -> 795 ;
796 [label="num_calls <= 0.1\ngini = 0.43\nsamples = 11\nvalue = [11, 5]\nclass = No", fillcolor="#f1ba93"] ;
792 -> 796 ;
797 [label="day <= 0.817\ngini = 0.5\nsamples = 7\nvalue = [5, 5]\nclass = No", fillcolor="#ffffff"] ;
796 -> 797 ;
798 [label="age <= 0.183\ngini = 0.278\nsamples = 4\nvalue = [5, 1]\nclass = No", fillcolor="#ea9a61"] ;
797 -> 798 ;
799 [label="gini = 0.0\nsamples = 1\nvalue = [0, 1]\nclass = Yes", fillcolor="#399de5"] ;
798 -> 799 ;
800 [label="gini = 0.0\nsamples = 3\nvalue = [5, 0]\nclass = No", fillcolor="#e58139"] ;
798 -> 800 ;
801 [label="gini = 0.0\nsamples = 3\nvalue = [0, 4]\nclass = Yes", fillcolor="#399de5"] ;
797 -> 801 ;
802 [label="gini = 0.0\nsamples = 4\nvalue = [6, 0]\nclass = No", fillcolor="#e58139"] ;
796 -> 802 ;
803 [label="day <= 0.883\ngini = 0.265\nsamples = 166\nvalue = [225, 42]\nclass = No", fillcolor="#ea995e"] ;
791 -> 803 ;
804 [label="mon <= 0.773\ngini = 0.347\nsamples = 70\nvalue = [87, 25]\nclass = No", fillcolor="#eca572"] ;
803 -> 804 ;
805 [label="job <= 0.045\ngini = 0.458\nsamples = 37\nvalue = [38, 21]\nclass = No", fillcolor="#f3c7a6"] ;
804 -> 805 ;
806 [label="mon <= 0.227\ngini = 0.444\nsamples = 7\nvalue = [5, 10]\nclass = Yes", fillcolor="#9ccef2"] ;
805 -> 806 ;
807 [label="gini = 0.0\nsamples = 2\nvalue = [3, 0]\nclass = No", fillcolor="#e58139"] ;
806 -> 807 ;
808 [label="mon <= 0.682\ngini = 0.278\nsamples = 5\nvalue = [2, 10]\nclass = Yes", fillcolor="#61b1ea"] ;
806 -> 808 ;
809 [label="gini = 0.0\nsamples = 4\nvalue = [0, 10]\nclass = Yes", fillcolor="#399de5"] ;
808 -> 809 ;
810 [label="gini = 0.0\nsamples = 1\nvalue = [2, 0]\nclass = No", fillcolor="#e58139"] ;
808 -> 810 ;
811 [label="day <= 0.817\ngini = 0.375\nsamples = 30\nvalue = [33, 11]\nclass = No", fillcolor="#eeab7b"] ;
805 -> 811 ;
812 [label="num_calls <= 0.1\ngini = 0.204\nsamples = 16\nvalue = [23, 3]\nclass = No", fillcolor="#e89153"] ;
811 -> 812 ;
813 [label="age <= 0.183\ngini = 0.095\nsamples = 12\nvalue = [19, 1]\nclass = No", fillcolor="#e68843"] ;
812 -> 813 ;
814 [label="job <= 0.591\ngini = 0.444\nsamples = 2\nvalue = [2, 1]\nclass = No", fillcolor="#f2c09c"] ;
813 -> 814 ;
815 [label="gini = 0.0\nsamples = 1\nvalue = [2, 0]\nclass = No", fillcolor="#e58139"] ;
814 -> 815 ;
816 [label="gini = 0.0\nsamples = 1\nvalue = [0, 1]\nclass = Yes", fillcolor="#399de5"] ;
814 -> 816 ;
817 [label="gini = 0.0\nsamples = 10\nvalue = [17, 0]\nclass = No", fillcolor="#e58139"] ;
813 -> 817 ;
818 [label="age <= 0.365\ngini = 0.444\nsamples = 4\nvalue = [4, 2]\nclass = No", fillcolor="#f2c09c"] ;
812 -> 818 ;
819 [label="gini = 0.0\nsamples = 1\nvalue = [3, 0]\nclass = No", fillcolor="#e58139"] ;
818 -> 819 ;
820 [label="age <= 0.587\ngini = 0.444\nsamples = 3\nvalue = [1, 2]\nclass = Yes", fillcolor="#9ccef2"] ;
818 -> 820 ;
821 [label="gini = 0.0\nsamples = 2\nvalue = [0, 2]\nclass = Yes", fillcolor="#399de5"] ;
820 -> 821 ;
822 [label="gini = 0.0\nsamples = 1\nvalue = [1, 0]\nclass = No", fillcolor="#e58139"] ;
820 -> 822 ;
823 [label="day <= 0.85\ngini = 0.494\nsamples = 14\nvalue = [10, 8]\nclass = No", fillcolor="#fae6d7"] ;
811 -> 823 ;
824 [label="age <= 0.26\ngini = 0.486\nsamples = 11\nvalue = [5, 7]\nclass = Yes", fillcolor="#c6e3f8"] ;
823 -> 824 ;
825 [label="gini = 0.0\nsamples = 2\nvalue = [0, 2]\nclass = Yes", fillcolor="#399de5"] ;
824 -> 825 ;
826 [label="dur <= 0.348\ngini = 0.5\nsamples = 9\nvalue = [5, 5]\nclass = No", fillcolor="#ffffff"] ;
824 -> 826 ;
827 [label="age <= 0.5\ngini = 0.408\nsamples = 6\nvalue = [2, 5]\nclass = Yes", fillcolor="#88c4ef"] ;
826 -> 827 ;
828 [label="age <= 0.413\ngini = 0.444\nsamples = 3\nvalue = [2, 1]\nclass = No", fillcolor="#f2c09c"] ;
827 -> 828 ;
829 [label="gini = 0.0\nsamples = 1\nvalue = [1, 0]\nclass = No", fillcolor="#e58139"] ;
828 -> 829 ;
830 [label="prev_outcome <= 0.167\ngini = 0.5\nsamples = 2\nvalue = [1, 1]\nclass = No", fillcolor="#ffffff"] ;
828 -> 830 ;
831 [label="gini = 0.0\nsamples = 1\nvalue = [1, 0]\nclass = No", fillcolor="#e58139"] ;
830 -> 831 ;
832 [label="gini = 0.0\nsamples = 1\nvalue = [0, 1]\nclass = Yes", fillcolor="#399de5"] ;
830 -> 832 ;
833 [label="gini = 0.0\nsamples = 3\nvalue = [0, 4]\nclass = Yes", fillcolor="#399de5"] ;
827 -> 833 ;
834 [label="gini = 0.0\nsamples = 3\nvalue = [3, 0]\nclass = No", fillcolor="#e58139"] ;
826 -> 834 ;
835 [label="dur <= 0.242\ngini = 0.278\nsamples = 3\nvalue = [5, 1]\nclass = No", fillcolor="#ea9a61"] ;
823 -> 835 ;
836 [label="gini = 0.0\nsamples = 2\nvalue = [5, 0]\nclass = No", fillcolor="#e58139"] ;
835 -> 836 ;
837 [label="gini = 0.0\nsamples = 1\nvalue = [0, 1]\nclass = Yes", fillcolor="#399de5"] ;
835 -> 837 ;
838 [label="day <= 0.717\ngini = 0.14\nsamples = 33\nvalue = [49, 4]\nclass = No", fillcolor="#e78b49"] ;
804 -> 838 ;
839 [label="gini = 0.0\nsamples = 20\nvalue = [32, 0]\nclass = No", fillcolor="#e58139"] ;
838 -> 839 ;
840 [label="num_calls <= 0.1\ngini = 0.308\nsamples = 13\nvalue = [17, 4]\nclass = No", fillcolor="#eb9f68"] ;
838 -> 840 ;
841 [label="dur <= 0.226\ngini = 0.49\nsamples = 4\nvalue = [4, 3]\nclass = No", fillcolor="#f8e0ce"] ;
840 -> 841 ;
842 [label="gini = 0.0\nsamples = 2\nvalue = [0, 3]\nclass = Yes", fillcolor="#399de5"] ;
841 -> 842 ;
843 [label="gini = 0.0\nsamples = 2\nvalue = [4, 0]\nclass = No", fillcolor="#e58139"] ;
841 -> 843 ;
844 [label="education_qual <= 0.5\ngini = 0.133\nsamples = 9\nvalue = [13, 1]\nclass = No", fillcolor="#e78b48"] ;
840 -> 844 ;
845 [label="job <= 0.227\ngini = 0.444\nsamples = 3\nvalue = [2, 1]\nclass = No", fillcolor="#f2c09c"] ;
844 -> 845 ;
846 [label="gini = 0.0\nsamples = 1\nvalue = [0, 1]\nclass = Yes", fillcolor="#399de5"] ;
845 -> 846 ;
847 [label="gini = 0.0\nsamples = 2\nvalue = [2, 0]\nclass = No", fillcolor="#e58139"] ;
845 -> 847 ;
848 [label="gini = 0.0\nsamples = 6\nvalue = [11, 0]\nclass = No", fillcolor="#e58139"] ;
844 -> 848 ;
849 [label="day <= 0.983\ngini = 0.195\nsamples = 96\nvalue = [138, 17]\nclass = No", fillcolor="#e89151"] ;
803 -> 849 ;
850 [label="dur <= 0.209\ngini = 0.178\nsamples = 93\nvalue = [137, 15]\nclass = No", fillcolor="#e88f4f"] ;
849 -> 850 ;
851 [label="gini = 0.0\nsamples = 12\nvalue = [25, 0]\nclass = No", fillcolor="#e58139"] ;
850 -> 851 ;
852 [label="num_calls <= 0.1\ngini = 0.208\nsamples = 81\nvalue = [112, 15]\nclass = No", fillcolor="#e89254"] ;
850 -> 852 ;
853 [label="day <= 0.917\ngini = 0.323\nsamples = 48\nvalue = [59, 15]\nclass = No", fillcolor="#eca16b"] ;
852 -> 853 ;
854 [label="mon <= 0.227\ngini = 0.494\nsamples = 6\nvalue = [5, 4]\nclass = No", fillcolor="#fae6d7"] ;
853 -> 854 ;
855 [label="gini = 0.0\nsamples = 1\nvalue = [0, 3]\nclass = Yes", fillcolor="#399de5"] ;
854 -> 855 ;
856 [label="job <= 0.045\ngini = 0.278\nsamples = 5\nvalue = [5, 1]\nclass = No", fillcolor="#ea9a61"] ;
854 -> 856 ;
857 [label="gini = 0.0\nsamples = 1\nvalue = [0, 1]\nclass = Yes", fillcolor="#399de5"] ;
856 -> 857 ;
858 [label="gini = 0.0\nsamples = 4\nvalue = [5, 0]\nclass = No", fillcolor="#e58139"] ;
856 -> 858 ;
859 [label="age <= 0.606\ngini = 0.281\nsamples = 42\nvalue = [54, 11]\nclass = No", fillcolor="#ea9b61"] ;
853 -> 859 ;
860 [label="prev_outcome <= 0.167\ngini = 0.147\nsamples = 34\nvalue = [46, 4]\nclass = No", fillcolor="#e78c4a"] ;
859 -> 860 ;
861 [label="dur <= 0.339\ngini = 0.056\nsamples = 24\nvalue = [34, 1]\nclass = No", fillcolor="#e6853f"] ;
860 -> 861 ;
862 [label="gini = 0.0\nsamples = 16\nvalue = [23, 0]\nclass = No", fillcolor="#e58139"] ;
861 -> 862 ;
863 [label="job <= 0.045\ngini = 0.153\nsamples = 8\nvalue = [11, 1]\nclass = No", fillcolor="#e78c4b"] ;
861 -> 863 ;
864 [label="dur <= 0.358\ngini = 0.444\nsamples = 2\nvalue = [2, 1]\nclass = No", fillcolor="#f2c09c"] ;
863 -> 864 ;
865 [label="gini = 0.0\nsamples = 1\nvalue = [0, 1]\nclass = Yes", fillcolor="#399de5"] ;
864 -> 865 ;
866 [label="gini = 0.0\nsamples = 1\nvalue = [2, 0]\nclass = No", fillcolor="#e58139"] ;
864 -> 866 ;
867 [label="gini = 0.0\nsamples = 6\nvalue = [9, 0]\nclass = No", fillcolor="#e58139"] ;
863 -> 867 ;
868 [label="mon <= 0.182\ngini = 0.32\nsamples = 10\nvalue = [12, 3]\nclass = No", fillcolor="#eca06a"] ;
860 -> 868 ;
869 [label="gini = 0.0\nsamples = 2\nvalue = [0, 2]\nclass = Yes", fillcolor="#399de5"] ;
868 -> 869 ;
870 [label="dur <= 0.362\ngini = 0.142\nsamples = 8\nvalue = [12, 1]\nclass = No", fillcolor="#e78c49"] ;
868 -> 870 ;
871 [label="gini = 0.0\nsamples = 5\nvalue = [8, 0]\nclass = No", fillcolor="#e58139"] ;
870 -> 871 ;
872 [label="mon <= 0.5\ngini = 0.32\nsamples = 3\nvalue = [4, 1]\nclass = No", fillcolor="#eca06a"] ;
870 -> 872 ;
873 [label="gini = 0.0\nsamples = 2\nvalue = [4, 0]\nclass = No", fillcolor="#e58139"] ;
872 -> 873 ;
874 [label="gini = 0.0\nsamples = 1\nvalue = [0, 1]\nclass = Yes", fillcolor="#399de5"] ;
872 -> 874 ;
875 [label="age <= 0.75\ngini = 0.498\nsamples = 8\nvalue = [8, 7]\nclass = No", fillcolor="#fcefe6"] ;
859 -> 875 ;
876 [label="day <= 0.95\ngini = 0.346\nsamples = 6\nvalue = [2, 7]\nclass = Yes", fillcolor="#72b9ec"] ;
875 -> 876 ;
877 [label="gini = 0.0\nsamples = 3\nvalue = [0, 6]\nclass = Yes", fillcolor="#399de5"] ;
876 -> 877 ;
878 [label="dur <= 0.34\ngini = 0.444\nsamples = 3\nvalue = [2, 1]\nclass = No", fillcolor="#f2c09c"] ;
876 -> 878 ;
879 [label="gini = 0.0\nsamples = 2\nvalue = [2, 0]\nclass = No", fillcolor="#e58139"] ;
878 -> 879 ;
880 [label="gini = 0.0\nsamples = 1\nvalue = [0, 1]\nclass = Yes", fillcolor="#399de5"] ;
878 -> 880 ;
881 [label="gini = 0.0\nsamples = 2\nvalue = [6, 0]\nclass = No", fillcolor="#e58139"] ;
875 -> 881 ;
882 [label="gini = 0.0\nsamples = 33\nvalue = [53, 0]\nclass = No", fillcolor="#e58139"] ;
852 -> 882 ;
883 [label="age <= 0.24\ngini = 0.444\nsamples = 3\nvalue = [1, 2]\nclass = Yes", fillcolor="#9ccef2"] ;
849 -> 883 ;
884 [label="gini = 0.0\nsamples = 2\nvalue = [0, 2]\nclass = Yes", fillcolor="#399de5"] ;
883 -> 884 ;
885 [label="gini = 0.0\nsamples = 1\nvalue = [1, 0]\nclass = No", fillcolor="#e58139"] ;
883 -> 885 ;
886 [label="gini = 0.0\nsamples = 1\nvalue = [0, 1]\nclass = Yes", fillcolor="#399de5"] ;
790 -> 886 ;
887 [label="dur <= 0.724\ngini = 0.496\nsamples = 132\nvalue = [107.0, 90.0]\nclass = No", fillcolor="#fbebe0"] ;
767 -> 887 ;
888 [label="mon <= 0.409\ngini = 0.469\nsamples = 104\nvalue = [98.0, 59.0]\nclass = No", fillcolor="#f5cdb0"] ;
887 -> 888 ;
889 [label="mon <= 0.318\ngini = 0.341\nsamples = 58\nvalue = [68, 19]\nclass = No", fillcolor="#eca470"] ;
888 -> 889 ;
890 [label="age <= 0.356\ngini = 0.413\nsamples = 18\nvalue = [7, 17]\nclass = Yes", fillcolor="#8bc5f0"] ;
889 -> 890 ;
891 [label="age <= 0.337\ngini = 0.469\nsamples = 7\nvalue = [5, 3]\nclass = No", fillcolor="#f5cdb0"] ;
890 -> 891 ;
892 [label="job <= 0.5\ngini = 0.48\nsamples = 5\nvalue = [2, 3]\nclass = Yes", fillcolor="#bddef6"] ;
891 -> 892 ;
893 [label="gini = 0.0\nsamples = 3\nvalue = [0, 3]\nclass = Yes", fillcolor="#399de5"] ;
892 -> 893 ;
894 [label="gini = 0.0\nsamples = 2\nvalue = [2, 0]\nclass = No", fillcolor="#e58139"] ;
892 -> 894 ;
