digraph Tree {
node [shape=box, style="filled, rounded", color="black", fontname="helvetica"] ;
edge [fontname="helvetica"] ;
0 [label="call_type <= 0.75\ngini = 0.204\nsamples = 20074\nvalue = [27989, 3654]\nclass = No", fillcolor="#e89153"] ;
1 [label="mon <= 0.864\ngini = 0.248\nsamples = 14333\nvalue = [19210, 3266]\nclass = No", fillcolor="#e9965b"] ;
0 -> 1 [labeldistance=2.5, labelangle=45, headlabel="True"] ;
2 [label="age <= 0.817\ngini = 0.231\nsamples = 13802\nvalue = [18780, 2880]\nclass = No", fillcolor="#e99457"] ;
1 -> 2 ;
3 [label="prev_outcome <= 0.833\ngini = 0.223\nsamples = 13548\nvalue = [18535.0, 2723.0]\nclass = No", fillcolor="#e99456"] ;
2 -> 3 ;
4 [label="prev_outcome <= 0.5\ngini = 0.315\nsamples = 3274\nvalue = [4098.0, 1000.0]\nclass = No", fillcolor="#eba069"] ;
3 -> 4 ;
5 [label="mon <= 0.682\ngini = 0.203\nsamples = 2737\nvalue = [3786, 491]\nclass = No", fillcolor="#e89153"] ;
4 -> 5 ;
6 [label="mon <= 0.409\ngini = 0.256\nsamples = 1308\nvalue = [1756, 311]\nclass = No", fillcolor="#ea975c"] ;
5 -> 6 ;
7 [label="job <= 0.227\ngini = 0.201\nsamples = 1113\nvalue = [1582, 202]\nclass = No", fillcolor="#e89152"] ;
6 -> 7 ;
8 [label="day <= 0.983\ngini = 0.151\nsamples = 423\nvalue = [636, 57]\nclass = No", fillcolor="#e78c4b"] ;
7 -> 8 ;
9 [label="dur <= 0.183\ngini = 0.147\nsamples = 421\nvalue = [634, 55]\nclass = No", fillcolor="#e78c4a"] ;
8 -> 9 ;
10 [label="age <= 0.337\ngini = 0.038\nsamples = 122\nvalue = [201, 4]\nclass = No", fillcolor="#e6843d"] ;
9 -> 10 ;
11 [label="num_calls <= 0.5\ngini = 0.081\nsamples = 56\nvalue = [90, 4]\nclass = No", fillcolor="#e68742"] ;
10 -> 11 ;
12 [label="marital <= 0.75\ngini = 0.049\nsamples = 48\nvalue = [77, 2]\nclass = No", fillcolor="#e6843e"] ;
11 -> 12 ;
13 [label="job <= 0.045\ngini = 0.087\nsamples = 27\nvalue = [42, 2]\nclass = No", fillcolor="#e68742"] ;
12 -> 13 ;
14 [label="dur <= 0.145\ngini = 0.198\nsamples = 10\nvalue = [16, 2]\nclass = No", fillcolor="#e89152"] ;
13 -> 14 ;
15 [label="gini = 0.0\nsamples = 7\nvalue = [15, 0]\nclass = No", fillcolor="#e58139"] ;
14 -> 15 ;
16 [label="day <= 0.817\ngini = 0.444\nsamples = 3\nvalue = [1, 2]\nclass = Yes", fillcolor="#9ccef2"] ;
14 -> 16 ;
17 [label="gini = 0.0\nsamples = 2\nvalue = [0, 2]\nclass = Yes", fillcolor="#399de5"] ;
16 -> 17 ;
18 [label="gini = 0.0\nsamples = 1\nvalue = [1, 0]\nclass = No", fillcolor="#e58139"] ;
16 -> 18 ;
19 [label="gini = 0.0\nsamples = 17\nvalue = [26, 0]\nclass = No", fillcolor="#e58139"] ;
13 -> 19 ;
20 [label="gini = 0.0\nsamples = 21\nvalue = [35, 0]\nclass = No", fillcolor="#e58139"] ;
12 -> 20 ;
21 [label="age <= 0.317\ngini = 0.231\nsamples = 8\nvalue = [13, 2]\nclass = No", fillcolor="#e99457"] ;
11 -> 21 ;
22 [label="gini = 0.0\nsamples = 7\nvalue = [13, 0]\nclass = No", fillcolor="#e58139"] ;
21 -> 22 ;
23 [label="gini = 0.0\nsamples = 1\nvalue = [0, 2]\nclass = Yes", fillcolor="#399de5"] ;
21 -> 23 ;
24 [label="gini = 0.0\nsamples = 66\nvalue = [111, 0]\nclass = No", fillcolor="#e58139"] ;
10 -> 24 ;
25 [label="dur <= 0.199\ngini = 0.189\nsamples = 299\nvalue = [433, 51]\nclass = No", fillcolor="#e89050"] ;
9 -> 25 ;
26 [label="dur <= 0.197\ngini = 0.383\nsamples = 43\nvalue = [46, 16]\nclass = No", fillcolor="#eead7e"] ;
25 -> 26 ;
27 [label="age <= 0.163\ngini = 0.337\nsamples = 41\nvalue = [44, 12]\nclass = No", fillcolor="#eca36f"] ;
26 -> 27 ;
28 [label="gini = 0.0\nsamples = 2\nvalue = [0, 2]\nclass = Yes", fillcolor="#399de5"] ;
27 -> 28 ;
29 [label="dur <= 0.192\ngini = 0.302\nsamples = 39\nvalue = [44, 10]\nclass = No", fillcolor="#eb9e66"] ;
27 -> 29 ;
30 [label="dur <= 0.184\ngini = 0.133\nsamples = 12\nvalue = [13, 1]\nclass = No", fillcolor="#e78b48"] ;
29 -> 30 ;
31 [label="day <= 0.233\ngini = 0.444\nsamples = 3\nvalue = [2, 1]\nclass = No", fillcolor="#f2c09c"] ;
30 -> 31 ;
32 [label="gini = 0.0\nsamples = 1\nvalue = [1, 0]\nclass = No", fillcolor="#e58139"] ;
31 -> 32 ;
33 [label="job <= 0.045\ngini = 0.5\nsamples = 2\nvalue = [1, 1]\nclass = No", fillcolor="#ffffff"] ;
31 -> 33 ;
34 [label="gini = 0.0\nsamples = 1\nvalue = [0, 1]\nclass = Yes", fillcolor="#399de5"] ;
33 -> 34 ;
35 [label="gini = 0.0\nsamples = 1\nvalue = [1, 0]\nclass = No", fillcolor="#e58139"] ;
33 -> 35 ;
36 [label="gini = 0.0\nsamples = 9\nvalue = [11, 0]\nclass = No", fillcolor="#e58139"] ;
30 -> 36 ;
37 [label="age <= 0.769\ngini = 0.349\nsamples = 27\nvalue = [31, 9]\nclass = No", fillcolor="#eda672"] ;
29 -> 37 ;
38 [label="day <= 0.217\ngini = 0.326\nsamples = 26\nvalue = [31.0, 8.0]\nclass = No", fillcolor="#eca26c"] ;
37 -> 38 ;
39 [label="gini = 0.0\nsamples = 7\nvalue = [8, 0]\nclass = No", fillcolor="#e58139"] ;
38 -> 39 ;
40 [label="job <= 0.136\ngini = 0.383\nsamples = 19\nvalue = [23, 8]\nclass = No", fillcolor="#eead7e"] ;
38 -> 40 ;
41 [label="day <= 0.917\ngini = 0.366\nsamples = 17\nvalue = [22, 7]\nclass = No", fillcolor="#eda978"] ;
40 -> 41 ;
42 [label="day <= 0.583\ngini = 0.32\nsamples = 15\nvalue = [20, 5]\nclass = No", fillcolor="#eca06a"] ;
41 -> 42 ;
43 [label="age <= 0.394\ngini = 0.444\nsamples = 11\nvalue = [10, 5]\nclass = No", fillcolor="#f2c09c"] ;
42 -> 43 ;
44 [label="mon <= 0.182\ngini = 0.444\nsamples = 5\nvalue = [2, 4]\nclass = Yes", fillcolor="#9ccef2"] ;
43 -> 44 ;
45 [label="age <= 0.26\ngini = 0.32\nsamples = 4\nvalue = [1, 4]\nclass = Yes", fillcolor="#6ab6ec"] ;
44 -> 45 ;
46 [label="gini = 0.0\nsamples = 1\nvalue = [1, 0]\nclass = No", fillcolor="#e58139"] ;
45 -> 46 ;
47 [label="gini = 0.0\nsamples = 3\nvalue = [0, 4]\nclass = Yes", fillcolor="#399de5"] ;
45 -> 47 ;
48 [label="gini = 0.0\nsamples = 1\nvalue = [1, 0]\nclass = No", fillcolor="#e58139"] ;
44 -> 48 ;
49 [label="education_qual <= 0.5\ngini = 0.198\nsamples = 6\nvalue = [8, 1]\nclass = No", fillcolor="#e89152"] ;
43 -> 49 ;
50 [label="gini = 0.0\nsamples = 5\nvalue = [8, 0]\nclass = No", fillcolor="#e58139"] ;
49 -> 50 ;
51 [label="gini = 0.0\nsamples = 1\nvalue = [0, 1]\nclass = Yes", fillcolor="#399de5"] ;
49 -> 51 ;
52 [label="gini = 0.0\nsamples = 4\nvalue = [10, 0]\nclass = No", fillcolor="#e58139"] ;
42 -> 52 ;
53 [label="marital <= 0.75\ngini = 0.5\nsamples = 2\nvalue = [2, 2]\nclass = No", fillcolor="#ffffff"] ;
41 -> 53 ;
54 [label="gini = 0.0\nsamples = 1\nvalue = [0, 2]\nclass = Yes", fillcolor="#399de5"] ;
53 -> 54 ;
55 [label="gini = 0.0\nsamples = 1\nvalue = [2, 0]\nclass = No", fillcolor="#e58139"] ;
53 -> 55 ;
56 [label="age <= 0.337\ngini = 0.5\nsamples = 2\nvalue = [1, 1]\nclass = No", fillcolor="#ffffff"] ;
40 -> 56 ;
57 [label="gini = 0.0\nsamples = 1\nvalue = [1, 0]\nclass = No", fillcolor="#e58139"] ;
56 -> 57 ;
58 [label="gini = 0.0\nsamples = 1\nvalue = [0, 1]\nclass = Yes", fillcolor="#399de5"] ;
56 -> 58 ;
59 [label="gini = 0.0\nsamples = 1\nvalue = [0, 1]\nclass = Yes", fillcolor="#399de5"] ;
37 -> 59 ;
60 [label="job <= 0.045\ngini = 0.444\nsamples = 2\nvalue = [2, 4]\nclass = Yes", fillcolor="#9ccef2"] ;
26 -> 60 ;
61 [label="gini = 0.0\nsamples = 1\nvalue = [0, 4]\nclass = Yes", fillcolor="#399de5"] ;
60 -> 61 ;
62 [label="gini = 0.0\nsamples = 1\nvalue = [2, 0]\nclass = No", fillcolor="#e58139"] ;
60 -> 62 ;
63 [label="education_qual <= 0.5\ngini = 0.152\nsamples = 256\nvalue = [387, 35]\nclass = No", fillcolor="#e78c4b"] ;
25 -> 63 ;
64 [label="num_calls <= 0.9\ngini = 0.113\nsamples = 226\nvalue = [344, 22]\nclass = No", fillcolor="#e78946"] ;
63 -> 64 ;
65 [label="num_calls <= 0.1\ngini = 0.105\nsamples = 223\nvalue = [341, 20]\nclass = No", fillcolor="#e78845"] ;
64 -> 65 ;
66 [label="marital <= 0.25\ngini = 0.171\nsamples = 89\nvalue = [134, 14]\nclass = No", fillcolor="#e88e4e"] ;
65 -> 66 ;
67 [label="day <= 0.717\ngini = 0.291\nsamples = 9\nvalue = [14, 3]\nclass = No", fillcolor="#eb9c63"] ;
66 -> 67 ;
68 [label="age <= 0.452\ngini = 0.124\nsamples = 8\nvalue = [14, 1]\nclass = No", fillcolor="#e78a47"] ;
67 -> 68 ;
69 [label="gini = 0.0\nsamples = 3\nvalue = [9, 0]\nclass = No", fillcolor="#e58139"] ;
68 -> 69 ;
70 [label="prev_outcome <= 0.167\ngini = 0.278\nsamples = 5\nvalue = [5, 1]\nclass = No", fillcolor="#ea9a61"] ;
68 -> 70 ;
71 [label="gini = 0.0\nsamples = 3\nvalue = [3, 0]\nclass = No", fillcolor="#e58139"] ;
70 -> 71 ;
72 [label="mon <= 0.182\ngini = 0.444\nsamples = 2\nvalue = [2, 1]\nclass = No", fillcolor="#f2c09c"] ;
70 -> 72 ;
73 [label="gini = 0.0\nsamples = 1\nvalue = [0, 1]\nclass = Yes", fillcolor="#399de5"] ;
72 -> 73 ;
74 [label="gini = 0.0\nsamples = 1\nvalue = [2, 0]\nclass = No", fillcolor="#e58139"] ;
72 -> 74 ;
75 [label="gini = 0.0\nsamples = 1\nvalue = [0, 2]\nclass = Yes", fillcolor="#399de5"] ;
67 -> 75 ;
76 [label="education_qual <= 0.167\ngini = 0.154\nsamples = 80\nvalue = [120, 11]\nclass = No", fillcolor="#e78d4b"] ;
66 -> 76 ;
77 [label="dur <= 0.62\ngini = 0.269\nsamples = 16\nvalue = [21, 4]\nclass = No", fillcolor="#ea995f"] ;
76 -> 77 ;
78 [label="gini = 0.0\nsamples = 13\nvalue = [20, 0]\nclass = No", fillcolor="#e58139"] ;
77 -> 78 ;
79 [label="dur <= 0.877\ngini = 0.32\nsamples = 3\nvalue = [1, 4]\nclass = Yes", fillcolor="#6ab6ec"] ;
77 -> 79 ;
80 [label="gini = 0.0\nsamples = 2\nvalue = [0, 4]\nclass = Yes", fillcolor="#399de5"] ;
79 -> 80 ;
81 [label="gini = 0.0\nsamples = 1\nvalue = [1, 0]\nclass = No", fillcolor="#e58139"] ;
79 -> 81 ;
82 [label="prev_outcome <= 0.167\ngini = 0.123\nsamples = 64\nvalue = [99, 7]\nclass = No", fillcolor="#e78a47"] ;
76 -> 82 ;
83 [label="marital <= 0.75\ngini = 0.093\nsamples = 47\nvalue = [78, 4]\nclass = No", fillcolor="#e68743"] ;
82 -> 83 ;
84 [label="age <= 0.279\ngini = 0.087\nsamples = 36\nvalue = [63, 3]\nclass = No", fillcolor="#e68742"] ;
83 -> 84 ;
85 [label="mon <= 0.136\ngini = 0.245\nsamples = 7\nvalue = [12, 2]\nclass = No", fillcolor="#e9965a"] ;
84 -> 85 ;
86 [label="dur <= 0.655\ngini = 0.26\nsamples = 6\nvalue = [11, 2]\nclass = No", fillcolor="#ea985d"] ;
85 -> 86 ;
87 [label="gini = 0.0\nsamples = 5\nvalue = [11, 0]\nclass = No", fillcolor="#e58139"] ;
86 -> 87 ;
88 [label="gini = 0.0\nsamples = 1\nvalue = [0, 2]\nclass = Yes", fillcolor="#399de5"] ;
86 -> 88 ;
89 [label="gini = 0.0\nsamples = 1\nvalue = [1, 0]\nclass = No", fillcolor="#e58139"] ;
85 -> 89 ;
90 [label="job <= 0.045\ngini = 0.038\nsamples = 29\nvalue = [51, 1]\nclass = No", fillcolor="#e6833d"] ;
84 -> 90 ;
91 [label="day <= 0.783\ngini = 0.083\nsamples = 12\nvalue = [22, 1]\nclass = No", fillcolor="#e68742"] ;
90 -> 91 ;
92 [label="gini = 0.0\nsamples = 9\nvalue = [18, 0]\nclass = No", fillcolor="#e58139"] ;
91 -> 92 ;
93 [label="day <= 0.917\ngini = 0.32\nsamples = 3\nvalue = [4, 1]\nclass = No", fillcolor="#eca06a"] ;
91 -> 93 ;
94 [label="gini = 0.0\nsamples = 1\nvalue = [0, 1]\nclass = Yes", fillcolor="#399de5"] ;
93 -> 94 ;
95 [label="gini = 0.0\nsamples = 2\nvalue = [4, 0]\nclass = No", fillcolor="#e58139"] ;
93 -> 95 ;
96 [label="gini = 0.0\nsamples = 17\nvalue = [29, 0]\nclass = No", fillcolor="#e58139"] ;
90 -> 96 ;
97 [label="dur <= 0.468\ngini = 0.117\nsamples = 11\nvalue = [15, 1]\nclass = No", fillcolor="#e78946"] ;
83 -> 97 ;
98 [label="gini = 0.0\nsamples = 7\nvalue = [11, 0]\nclass = No", fillcolor="#e58139"] ;
97 -> 98 ;
99 [label="dur <= 0.551\ngini = 0.32\nsamples = 4\nvalue = [4, 1]\nclass = No", fillcolor="#eca06a"] ;
97 -> 99 ;
100 [label="gini = 0.0\nsamples = 1\nvalue = [0, 1]\nclass = Yes", fillcolor="#399de5"] ;
99 -> 100 ;
101 [label="gini = 0.0\nsamples = 3\nvalue = [4, 0]\nclass = No", fillcolor="#e58139"] ;
99 -> 101 ;
102 [label="job <= 0.045\ngini = 0.219\nsamples = 17\nvalue = [21, 3]\nclass = No", fillcolor="#e99355"] ;
82 -> 102 ;
103 [label="age <= 0.462\ngini = 0.397\nsamples = 8\nvalue = [8, 3]\nclass = No", fillcolor="#efb083"] ;
102 -> 103 ;
104 [label="dur <= 0.526\ngini = 0.198\nsamples = 6\nvalue = [8, 1]\nclass = No", fillcolor="#e89152"] ;
103 -> 104 ;
105 [label="gini = 0.0\nsamples = 4\nvalue = [7, 0]\nclass = No", fillcolor="#e58139"] ;
104 -> 105 ;
106 [label="mon <= 0.091\ngini = 0.5\nsamples = 2\nvalue = [1, 1]\nclass = No", fillcolor="#ffffff"] ;
104 -> 106 ;
107 [label="gini = 0.0\nsamples = 1\nvalue = [1, 0]\nclass = No", fillcolor="#e58139"] ;
106 -> 107 ;
108 [label="gini = 0.0\nsamples = 1\nvalue = [0, 1]\nclass = Yes", fillcolor="#399de5"] ;
106 -> 108 ;
109 [label="gini = 0.0\nsamples = 2\nvalue = [0, 2]\nclass = Yes", fillcolor="#399de5"] ;
103 -> 109 ;
110 [label="gini = 0.0\nsamples = 9\nvalue = [13, 0]\nclass = No", fillcolor="#e58139"] ;
102 -> 110 ;
111 [label="day <= 0.417\ngini = 0.055\nsamples = 134\nvalue = [207, 6]\nclass = No", fillcolor="#e6853f"] ;
65 -> 111 ;
112 [label="dur <= 0.545\ngini = 0.133\nsamples = 57\nvalue = [78, 6]\nclass = No", fillcolor="#e78b48"] ;
111 -> 112 ;
113 [label="mon <= 0.227\ngini = 0.18\nsamples = 43\nvalue = [54, 6]\nclass = No", fillcolor="#e88f4f"] ;
112 -> 113 ;
114 [label="mon <= 0.045\ngini = 0.432\nsamples = 15\nvalue = [13, 6]\nclass = No", fillcolor="#f1bb94"] ;
113 -> 114 ;
115 [label="dur <= 0.511\ngini = 0.26\nsamples = 9\nvalue = [11, 2]\nclass = No", fillcolor="#ea985d"] ;
114 -> 115 ;
116 [label="gini = 0.0\nsamples = 8\nvalue = [11, 0]\nclass = No", fillcolor="#e58139"] ;
115 -> 116 ;
117 [label="gini = 0.0\nsamples = 1\nvalue = [0, 2]\nclass = Yes", fillcolor="#399de5"] ;
115 -> 117 ;
118 [label="job <= 0.045\ngini = 0.444\nsamples = 6\nvalue = [2, 4]\nclass = Yes", fillcolor="#9ccef2"] ;
114 -> 118 ;
119 [label="day <= 0.35\ngini = 0.32\nsamples = 5\nvalue = [1, 4]\nclass = Yes", fillcolor="#6ab6ec"] ;
118 -> 119 ;
120 [label="gini = 0.0\nsamples = 4\nvalue = [0, 4]\nclass = Yes", fillcolor="#399de5"] ;
119 -> 120 ;
121 [label="gini = 0.0\nsamples = 1\nvalue = [1, 0]\nclass = No", fillcolor="#e58139"] ;
119 -> 121 ;
122 [label="gini = 0.0\nsamples = 1\nvalue = [1, 0]\nclass = No", fillcolor="#e58139"] ;
118 -> 122 ;
123 [label="gini = 0.0\nsamples = 28\nvalue = [41, 0]\nclass = No", fillcolor="#e58139"] ;
113 -> 123 ;
124 [label="gini = 0.0\nsamples = 14\nvalue = [24, 0]\nclass = No", fillcolor="#e58139"] ;
112 -> 124 ;
125 [label="gini = 0.0\nsamples = 77\nvalue = [129, 0]\nclass = No", fillcolor="#e58139"] ;
111 -> 125 ;
126 [label="prev_outcome <= 0.167\ngini = 0.48\nsamples = 3\nvalue = [3, 2]\nclass = No", fillcolor="#f6d5bd"] ;
64 -> 126 ;
127 [label="gini = 0.0\nsamples = 2\nvalue = [3, 0]\nclass = No", fillcolor="#e58139"] ;
126 -> 127 ;
128 [label="gini = 0.0\nsamples = 1\nvalue = [0, 2]\nclass = Yes", fillcolor="#399de5"] ;
126 -> 128 ;
129 [label="job <= 0.045\ngini = 0.357\nsamples = 30\nvalue = [43, 13]\nclass = No", fillcolor="#eda775"] ;
63 -> 129 ;
130 [label="mon <= 0.318\ngini = 0.32\nsamples = 8\nvalue = [3, 12]\nclass = Yes", fillcolor="#6ab6ec"] ;
129 -> 130 ;
131 [label="num_calls <= 0.1\ngini = 0.142\nsamples = 7\nvalue = [1, 12]\nclass = Yes", fillcolor="#49a5e7"] ;
130 -> 131 ;
132 [label="gini = 0.0\nsamples = 4\nvalue = [0, 9]\nclass = Yes", fillcolor="#399de5"] ;
131 -> 132 ;
133 [label="age <= 0.538\ngini = 0.375\nsamples = 3\nvalue = [1, 3]\nclass = Yes", fillcolor="#7bbeee"] ;
131 -> 133 ;
134 [label="mon <= 0.136\ngini = 0.5\nsamples = 2\nvalue = [1, 1]\nclass = No", fillcolor="#ffffff"] ;
133 -> 134 ;
135 [label="gini = 0.0\nsamples = 1\nvalue = [1, 0]\nclass = No", fillcolor="#e58139"] ;
134 -> 135 ;
136 [label="gini = 0.0\nsamples = 1\nvalue = [0, 1]\nclass = Yes", fillcolor="#399de5"] ;
134 -> 136 ;
137 [label="gini = 0.0\nsamples = 1\nvalue = [0, 2]\nclass = Yes", fillcolor="#399de5"] ;
133 -> 137 ;
138 [label="gini = 0.0\nsamples = 1\nvalue = [2, 0]\nclass = No", fillcolor="#e58139"] ;
130 -> 138 ;
139 [label="prev_outcome <= 0.167\ngini = 0.048\nsamples = 22\nvalue = [40, 1]\nclass = No", fillcolor="#e6843e"] ;
129 -> 139 ;
140 [label="gini = 0.0\nsamples = 15\nvalue = [24, 0]\nclass = No", fillcolor="#e58139"] ;
139 -> 140 ;
141 [label="day <= 0.283\ngini = 0.111\nsamples = 7\nvalue = [16, 1]\nclass = No", fillcolor="#e78945"] ;
139 -> 141 ;
142 [label="gini = 0.0\nsamples = 3\nvalue = [10, 0]\nclass = No", fillcolor="#e58139"] ;
141 -> 142 ;
143 [label="mon <= 0.045\ngini = 0.245\nsamples = 4\nvalue = [6, 1]\nclass = No", fillcolor="#e9965a"] ;
141 -> 143 ;
144 [label="gini = 0.0\nsamples = 2\nvalue = [4, 0]\nclass = No", fillcolor="#e58139"] ;
143 -> 144 ;
145 [label="mon <= 0.227\ngini = 0.444\nsamples = 2\nvalue = [2, 1]\nclass = No", fillcolor="#f2c09c"] ;
143 -> 145 ;
146 [label="gini = 0.0\nsamples = 1\nvalue = [0, 1]\nclass = Yes", fillcolor="#399de5"] ;
145 -> 146 ;
147 [label="gini = 0.0\nsamples = 1\nvalue = [2, 0]\nclass = No", fillcolor="#e58139"] ;
145 -> 147 ;
148 [label="num_calls <= 0.4\ngini = 0.5\nsamples = 2\nvalue = [2, 2]\nclass = No", fillcolor="#ffffff"] ;
8 -> 148 ;
149 [label="gini = 0.0\nsamples = 1\nvalue = [0, 2]\nclass = Yes", fillcolor="#399de5"] ;
148 -> 149 ;
150 [label="gini = 0.0\nsamples = 1\nvalue = [2, 0]\nclass = No", fillcolor="#e58139"] ;
148 -> 150 ;
151 [label="job <= 0.773\ngini = 0.23\nsamples = 690\nvalue = [946, 145]\nclass = No", fillcolor="#e99457"] ;
7 -> 151 ;
152 [label="day <= 0.95\ngini = 0.264\nsamples = 472\nvalue = [624, 116]\nclass = No", fillcolor="#ea985e"] ;
151 -> 152 ;
153 [label="dur <= 0.846\ngini = 0.246\nsamples = 429\nvalue = [577, 97]\nclass = No", fillcolor="#e9965a"] ;
152 -> 153 ;
154 [label="education_qual <= 0.833\ngini = 0.23\nsamples = 422\nvalue = [576, 88]\nclass = No", fillcolor="#e99457"] ;
153 -> 154 ;
155 [label="age <= 0.798\ngini = 0.219\nsamples = 404\nvalue = [558.0, 80.0]\nclass = No", fillcolor="#e99355"] ;
154 -> 155 ;
156 [label="dur <= 0.191\ngini = 0.211\nsamples = 397\nvalue = [551, 75]\nclass = No", fillcolor="#e99254"] ;
155 -> 156 ;
157 [label="day <= 0.217\ngini = 0.01\nsamples = 123\nvalue = [189, 1]\nclass = No", fillcolor="#e5823a"] ;
156 -> 157 ;
158 [label="day <= 0.183\ngini = 0.026\nsamples = 52\nvalue = [76, 1]\nclass = No", fillcolor="#e5833c"] ;
157 -> 158 ;
159 [label="gini = 0.0\nsamples = 48\nvalue = [72, 0]\nclass = No", fillcolor="#e58139"] ;
158 -> 159 ;
160 [label="age <= 0.49\ngini = 0.32\nsamples = 4\nvalue = [4, 1]\nclass = No", fillcolor="#eca06a"] ;
158 -> 160 ;
161 [label="gini = 0.0\nsamples = 2\nvalue = [3, 0]\nclass = No", fillcolor="#e58139"] ;
160 -> 161 ;
162 [label="age <= 0.548\ngini = 0.5\nsamples = 2\nvalue = [1, 1]\nclass = No", fillcolor="#ffffff"] ;
160 -> 162 ;
163 [label="gini = 0.0\nsamples = 1\nvalue = [0, 1]\nclass = Yes", fillcolor="#399de5"] ;
162 -> 163 ;
164 [label="gini = 0.0\nsamples = 1\nvalue = [1, 0]\nclass = No", fillcolor="#e58139"] ;
162 -> 164 ;
165 [label="gini = 0.0\nsamples = 71\nvalue = [113, 0]\nclass = No", fillcolor="#e58139"] ;
157 -> 165 ;
166 [label="dur <= 0.194\ngini = 0.282\nsamples = 274\nvalue = [362, 74]\nclass = No", fillcolor="#ea9b61"] ;
156 -> 166 ;
167 [label="num_calls <= 0.5\ngini = 0.49\nsamples = 31\nvalue = [28, 21]\nclass = No", fillcolor="#f8e0ce"] ;
166 -> 167 ;
168 [label="job <= 0.318\ngini = 0.47\nsamples = 28\nvalue = [28, 17]\nclass = No", fillcolor="#f5ceb1"] ;
167 -> 168 ;
169 [label="gini = 0.0\nsamples = 2\nvalue = [3, 0]\nclass = No", fillcolor="#e58139"] ;
168 -> 169 ;
170 [label="call_type <= 0.25\ngini = 0.482\nsamples = 26\nvalue = [25, 17]\nclass = No", fillcolor="#f7d7c0"] ;
168 -> 170 ;
171 [label="marital <= 0.75\ngini = 0.461\nsamples = 22\nvalue = [23, 13]\nclass = No", fillcolor="#f4c8a9"] ;
170 -> 171 ;
172 [label="day <= 0.567\ngini = 0.493\nsamples = 16\nvalue = [14.0, 11.0]\nclass = No", fillcolor="#f9e4d5"] ;
171 -> 172 ;
173 [label="job <= 0.591\ngini = 0.488\nsamples = 12\nvalue = [8, 11]\nclass = Yes", fillcolor="#c9e4f8"] ;
172 -> 173 ;
174 [label="age <= 0.26\ngini = 0.473\nsamples = 9\nvalue = [5, 8]\nclass = Yes", fillcolor="#b5daf5"] ;
173 -> 174 ;
175 [label="gini = 0.0\nsamples = 2\nvalue = [0, 3]\nclass = Yes", fillcolor="#399de5"] ;
174 -> 175 ;
176 [label="education_qual <= 0.5\ngini = 0.5\nsamples = 7\nvalue = [5, 5]\nclass = No", fillcolor="#ffffff"] ;
174 -> 176 ;
177 [label="prev_outcome <= 0.167\ngini = 0.375\nsamples = 3\nvalue = [1, 3]\nclass = Yes", fillcolor="#7bbeee"] ;
176 -> 177 ;
178 [label="job <= 0.455\ngini = 0.5\nsamples = 2\nvalue = [1, 1]\nclass = No", fillcolor="#ffffff"] ;
177 -> 178 ;
179 [label="gini = 0.0\nsamples = 1\nvalue = [0, 1]\nclass = Yes", fillcolor="#399de5"] ;
178 -> 179 ;
180 [label="gini = 0.0\nsamples = 1\nvalue = [1, 0]\nclass = No", fillcolor="#e58139"] ;
178 -> 180 ;
181 [label="gini = 0.0\nsamples = 1\nvalue = [0, 2]\nclass = Yes", fillcolor="#399de5"] ;
177 -> 181 ;
182 [label="day <= 0.217\ngini = 0.444\nsamples = 4\nvalue = [4, 2]\nclass = No", fillcolor="#f2c09c"] ;
176 -> 182 ;
183 [label="age <= 0.298\ngini = 0.444\nsamples = 3\nvalue = [1, 2]\nclass = Yes", fillcolor="#9ccef2"] ;
182 -> 183 ;
184 [label="gini = 0.0\nsamples = 1\nvalue = [1, 0]\nclass = No", fillcolor="#e58139"] ;
183 -> 184 ;
185 [label="gini = 0.0\nsamples = 2\nvalue = [0, 2]\nclass = Yes", fillcolor="#399de5"] ;
183 -> 185 ;
186 [label="gini = 0.0\nsamples = 1\nvalue = [3, 0]\nclass = No", fillcolor="#e58139"] ;
182 -> 186 ;
187 [label="age <= 0.337\ngini = 0.5\nsamples = 3\nvalue = [3, 3]\nclass = No", fillcolor="#ffffff"] ;
173 -> 187 ;
188 [label="gini = 0.0\nsamples = 1\nvalue = [0, 3]\nclass = Yes", fillcolor="#399de5"] ;
187 -> 188 ;
189 [label="gini = 0.0\nsamples = 2\nvalue = [3, 0]\nclass = No", fillcolor="#e58139"] ;
187 -> 189 ;
190 [label="gini = 0.0\nsamples = 4\nvalue = [6, 0]\nclass = No", fillcolor="#e58139"] ;
172 -> 190 ;
191 [label="prev_outcome <= 0.167\ngini = 0.298\nsamples = 6\nvalue = [9, 2]\nclass = No", fillcolor="#eb9d65"] ;
171 -> 191 ;
192 [label="day <= 0.383\ngini = 0.375\nsamples = 4\nvalue = [6, 2]\nclass = No", fillcolor="#eeab7b"] ;
191 -> 192 ;
193 [label="gini = 0.0\nsamples = 2\nvalue = [0, 2]\nclass = Yes", fillcolor="#399de5"] ;
192 -> 193 ;
194 [label="gini = 0.0\nsamples = 2\nvalue = [6, 0]\nclass = No", fillcolor="#e58139"] ;
192 -> 194 ;
195 [label="gini = 0.0\nsamples = 2\nvalue = [3, 0]\nclass = No", fillcolor="#e58139"] ;
191 -> 195 ;
196 [label="prev_outcome <= 0.167\ngini = 0.444\nsamples = 4\nvalue = [2, 4]\nclass = Yes", fillcolor="#9ccef2"] ;
170 -> 196 ;
197 [label="gini = 0.0\nsamples = 2\nvalue = [2, 0]\nclass = No", fillcolor="#e58139"] ;
196 -> 197 ;
198 [label="gini = 0.0\nsamples = 2\nvalue = [0, 4]\nclass = Yes", fillcolor="#399de5"] ;
196 -> 198 ;
199 [label="gini = 0.0\nsamples = 3\nvalue = [0, 4]\nclass = Yes", fillcolor="#399de5"] ;
167 -> 199 ;
200 [label="day <= 0.917\ngini = 0.236\nsamples = 243\nvalue = [334, 53]\nclass = No", fillcolor="#e99558"] ;
166 -> 200 ;
201 [label="mon <= 0.045\ngini = 0.255\nsamples = 221\nvalue = [300.0, 53.0]\nclass = No", fillcolor="#ea975c"] ;
200 -> 201 ;
202 [label="education_qual <= 0.167\ngini = 0.116\nsamples = 83\nvalue = [121, 8]\nclass = No", fillcolor="#e78946"] ;
201 -> 202 ;
203 [label="call_type <= 0.25\ngini = 0.444\nsamples = 5\nvalue = [4, 2]\nclass = No", fillcolor="#f2c09c"] ;
202 -> 203 ;
204 [label="gini = 0.0\nsamples = 4\nvalue = [4, 0]\nclass = No", fillcolor="#e58139"] ;
203 -> 204 ;
205 [label="gini = 0.0\nsamples = 1\nvalue = [0, 2]\nclass = Yes", fillcolor="#399de5"] ;
203 -> 205 ;
206 [label="num_calls <= 0.1\ngini = 0.093\nsamples = 78\nvalue = [117, 6]\nclass = No", fillcolor="#e68743"] ;
202 -> 206 ;
207 [label="age <= 0.375\ngini = 0.155\nsamples = 42\nvalue = [54, 5]\nclass = No", fillcolor="#e78d4b"] ;
206 -> 207 ;
208 [label="age <= 0.24\ngini = 0.051\nsamples = 26\nvalue = [37, 1]\nclass = No", fillcolor="#e6843e"] ;
207 -> 208 ;
209 [label="dur <= 0.705\ngini = 0.153\nsamples = 7\nvalue = [11, 1]\nclass = No", fillcolor="#e78c4b"] ;
208 -> 209 ;
210 [label="gini = 0.0\nsamples = 6\nvalue = [11, 0]\nclass = No", fillcolor="#e58139"] ;
209 -> 210 ;
211 [label="gini = 0.0\nsamples = 1\nvalue = [0, 1]\nclass = Yes", fillcolor="#399de5"] ;
209 -> 211 ;
212 [label="gini = 0.0\nsamples = 19\nvalue = [26, 0]\nclass = No", fillcolor="#e58139"] ;
208 -> 212 ;
213 [label="prev_outcome <= 0.167\ngini = 0.308\nsamples = 16\nvalue = [17, 4]\nclass = No", fillcolor="#eb9f68"] ;
207 -> 213 ;
214 [label="job <= 0.409\ngini = 0.111\nsamples = 13\nvalue = [16, 1]\nclass = No", fillcolor="#e78945"] ;
213 -> 214 ;
215 [label="day <= 0.45\ngini = 0.32\nsamples = 5\nvalue = [4, 1]\nclass = No", fillcolor="#eca06a"] ;
214 -> 215 ;
216 [label="gini = 0.0\nsamples = 1\nvalue = [0, 1]\nclass = Yes", fillcolor="#399de5"] ;
215 -> 216 ;
217 [label="gini = 0.0\nsamples = 4\nvalue = [4, 0]\nclass = No", fillcolor="#e58139"] ;
215 -> 217 ;
218 [label="gini = 0.0\nsamples = 8\nvalue = [12, 0]\nclass = No", fillcolor="#e58139"] ;
214 -> 218 ;
219 [label="call_type <= 0.25\ngini = 0.375\nsamples = 3\nvalue = [1, 3]\nclass = Yes", fillcolor="#7bbeee"] ;
213 -> 219 ;
220 [label="gini = 0.0\nsamples = 2\nvalue = [0, 3]\nclass = Yes", fillcolor="#399de5"] ;
219 -> 220 ;
221 [label="gini = 0.0\nsamples = 1\nvalue = [1, 0]\nclass = No", fillcolor="#e58139"] ;
219 -> 221 ;
222 [label="dur <= 0.748\ngini = 0.031\nsamples = 36\nvalue = [63, 1]\nclass = No", fillcolor="#e5833c"] ;
206 -> 222 ;
223 [label="gini = 0.0\nsamples = 34\nvalue = [62, 0]\nclass = No", fillcolor="#e58139"] ;
222 -> 223 ;
224 [label="dur <= 0.837\ngini = 0.5\nsamples = 2\nvalue = [1, 1]\nclass = No", fillcolor="#ffffff"] ;
222 -> 224 ;
225 [label="gini = 0.0\nsamples = 1\nvalue = [0, 1]\nclass = Yes", fillcolor="#399de5"] ;
224 -> 225 ;
226 [label="gini = 0.0\nsamples = 1\nvalue = [1, 0]\nclass = No", fillcolor="#e58139"] ;
224 -> 226 ;
227 [label="day <= 0.35\ngini = 0.321\nsamples = 138\nvalue = [179, 45]\nclass = No", fillcolor="#eca16b"] ;
201 -> 227 ;
228 [label="num_calls <= 0.5\ngini = 0.234\nsamples = 83\nvalue = [128, 20]\nclass = No", fillcolor="#e99558"] ;
227 -> 228 ;
229 [label="mon <= 0.227\ngini = 0.257\nsamples = 73\nvalue = [112, 20]\nclass = No", fillcolor="#ea985c"] ;
228 -> 229 ;
230 [label="dur <= 0.505\ngini = 0.45\nsamples = 23\nvalue = [27.0, 14.0]\nclass = No", fillcolor="#f2c2a0"] ;
229 -> 230 ;
231 [label="marital <= 0.75\ngini = 0.5\nsamples = 14\nvalue = [13, 13]\nclass = No", fillcolor="#ffffff"] ;
230 -> 231 ;
232 [label="day <= 0.217\ngini = 0.465\nsamples = 8\nvalue = [12, 7]\nclass = No", fillcolor="#f4caac"] ;
231 -> 232 ;
233 [label="dur <= 0.336\ngini = 0.463\nsamples = 5\nvalue = [4, 7]\nclass = Yes", fillcolor="#aad5f4"] ;
232 -> 233 ;
234 [label="age <= 0.298\ngini = 0.444\nsamples = 3\nvalue = [4, 2]\nclass = No", fillcolor="#f2c09c"] ;
233 -> 234 ;
235 [label="gini = 0.0\nsamples = 1\nvalue = [3, 0]\nclass = No", fillcolor="#e58139"] ;
234 -> 235 ;
236 [label="age <= 0.413\ngini = 0.444\nsamples = 2\nvalue = [1, 2]\nclass = Yes", fillcolor="#9ccef2"] ;
234 -> 236 ;
237 [label="gini = 0.0\nsamples = 1\nvalue = [0, 2]\nclass = Yes", fillcolor="#399de5"] ;
236 -> 237 ;
238 [label="gini = 0.0\nsamples = 1\nvalue = [1, 0]\nclass = No", fillcolor="#e58139"] ;
236 -> 238 ;
239 [label="gini = 0.0\nsamples = 2\nvalue = [0, 5]\nclass = Yes", fillcolor="#399de5"] ;
233 -> 239 ;
240 [label="gini = 0.0\nsamples = 3\nvalue = [8, 0]\nclass = No", fillcolor="#e58139"] ;
232 -> 240 ;
241 [label="day <= 0.25\ngini = 0.245\nsamples = 6\nvalue = [1, 6]\nclass = Yes", fillcolor="#5aade9"] ;
231 -> 241 ;
242 [label="gini = 0.0\nsamples = 3\nvalue = [0, 4]\nclass = Yes", fillcolor="#399de5"] ;
241 -> 242 ;
243 [label="prev_outcome <= 0.167\ngini = 0.444\nsamples = 3\nvalue = [1, 2]\nclass = Yes", fillcolor="#9ccef2"] ;
241 -> 243 ;
244 [label="num_calls <= 0.1\ngini = 0.5\nsamples = 2\nvalue = [1, 1]\nclass = No", fillcolor="#ffffff"] ;
243 -> 244 ;
245 [label="gini = 0.0\nsamples = 1\nvalue = [1, 0]\nclass = No", fillcolor="#e58139"] ;
244 -> 245 ;
246 [label="gini = 0.0\nsamples = 1\nvalue = [0, 1]\nclass = Yes", fillcolor="#399de5"] ;
244 -> 246 ;
247 [label="gini = 0.0\nsamples = 1\nvalue = [0, 1]\nclass = Yes", fillcolor="#399de5"] ;
243 -> 247 ;
248 [label="job <= 0.591\ngini = 0.124\nsamples = 9\nvalue = [14, 1]\nclass = No", fillcolor="#e78a47"] ;
230 -> 248 ;
249 [label="gini = 0.0\nsamples = 7\nvalue = [12, 0]\nclass = No", fillcolor="#e58139"] ;
248 -> 249 ;
250 [label="dur <= 0.59\ngini = 0.444\nsamples = 2\nvalue = [2, 1]\nclass = No", fillcolor="#f2c09c"] ;
248 -> 250 ;
251 [label="gini = 0.0\nsamples = 1\nvalue = [2, 0]\nclass = No", fillcolor="#e58139"] ;
250 -> 251 ;
252 [label="gini = 0.0\nsamples = 1\nvalue = [0, 1]\nclass = Yes", fillcolor="#399de5"] ;
250 -> 252 ;
253 [label="day <= 0.3\ngini = 0.123\nsamples = 50\nvalue = [85, 6]\nclass = No", fillcolor="#e78a47"] ;
229 -> 253 ;
254 [label="dur <= 0.442\ngini = 0.105\nsamples = 49\nvalue = [85, 5]\nclass = No", fillcolor="#e78845"] ;
253 -> 254 ;
255 [label="gini = 0.0\nsamples = 37\nvalue = [71, 0]\nclass = No", fillcolor="#e58139"] ;
254 -> 255 ;
256 [label="job <= 0.545\ngini = 0.388\nsamples = 12\nvalue = [14, 5]\nclass = No", fillcolor="#eeae80"] ;
254 -> 256 ;
257 [label="age <= 0.394\ngini = 0.305\nsamples = 10\nvalue = [13, 3]\nclass = No", fillcolor="#eb9e67"] ;
256 -> 257 ;
258 [label="day <= 0.083\ngini = 0.48\nsamples = 3\nvalue = [2, 3]\nclass = Yes", fillcolor="#bddef6"] ;
257 -> 258 ;
259 [label="dur <= 0.473\ngini = 0.375\nsamples = 2\nvalue = [1, 3]\nclass = Yes", fillcolor="#7bbeee"] ;
258 -> 259 ;
260 [label="gini = 0.0\nsamples = 1\nvalue = [0, 3]\nclass = Yes", fillcolor="#399de5"] ;
259 -> 260 ;
261 [label="gini = 0.0\nsamples = 1\nvalue = [1, 0]\nclass = No", fillcolor="#e58139"] ;
259 -> 261 ;
262 [label="gini = 0.0\nsamples = 1\nvalue = [1, 0]\nclass = No", fillcolor="#e58139"] ;
258 -> 262 ;
263 [label="gini = 0.0\nsamples = 7\nvalue = [11, 0]\nclass = No", fillcolor="#e58139"] ;
257 -> 263 ;
264 [label="prev_outcome <= 0.167\ngini = 0.444\nsamples = 2\nvalue = [1, 2]\nclass = Yes", fillcolor="#9ccef2"] ;
256 -> 264 ;
265 [label="gini = 0.0\nsamples = 1\nvalue = [0, 2]\nclass = Yes", fillcolor="#399de5"] ;
264 -> 265 ;
266 [label="gini = 0.0\nsamples = 1\nvalue = [1, 0]\nclass = No", fillcolor="#e58139"] ;
264 -> 266 ;
267 [label="gini = 0.0\nsamples = 1\nvalue = [0, 1]\nclass = Yes", fillcolor="#399de5"] ;
253 -> 267 ;
268 [label="gini = 0.0\nsamples = 10\nvalue = [16, 0]\nclass = No", fillcolor="#e58139"] ;
228 -> 268 ;
269 [label="age <= 0.654\ngini = 0.441\nsamples = 55\nvalue = [51, 25]\nclass = No", fillcolor="#f2bf9a"] ;
227 -> 269 ;
270 [label="dur <= 0.419\ngini = 0.465\nsamples = 49\nvalue = [43, 25]\nclass = No", fillcolor="#f4caac"] ;
269 -> 270 ;
271 [label="dur <= 0.227\ngini = 0.337\nsamples = 32\nvalue = [33, 9]\nclass = No", fillcolor="#eca36f"] ;
270 -> 271 ;
272 [label="gini = 0.0\nsamples = 7\nvalue = [9, 0]\nclass = No", fillcolor="#e58139"] ;
271 -> 272 ;
273 [label="marital <= 0.75\ngini = 0.397\nsamples = 25\nvalue = [24, 9]\nclass = No", fillcolor="#efb083"] ;
271 -> 273 ;
274 [label="job <= 0.409\ngini = 0.473\nsamples = 11\nvalue = [8, 5]\nclass = No", fillcolor="#f5d0b5"] ;
273 -> 274 ;
275 [label="dur <= 0.318\ngini = 0.5\nsamples = 8\nvalue = [5, 5]\nclass = No", fillcolor="#ffffff"] ;
274 -> 275 ;
276 [label="prev_outcome <= 0.167\ngini = 0.278\nsamples = 5\nvalue = [1, 5]\nclass = Yes", fillcolor="#61b1ea"] ;
275 -> 276 ;
277 [label="day <= 0.467\ngini = 0.444\nsamples = 3\nvalue = [1, 2]\nclass = Yes", fillcolor="#9ccef2"] ;
276 -> 277 ;
278 [label="gini = 0.0\nsamples = 1\nvalue = [0, 1]\nclass = Yes", fillcolor="#399de5"] ;
277 -> 278 ;
279 [label="age <= 0.337\ngini = 0.5\nsamples = 2\nvalue = [1, 1]\nclass = No", fillcolor="#ffffff"] ;
277 -> 279 ;
280 [label="gini = 0.0\nsamples = 1\nvalue = [0, 1]\nclass = Yes", fillcolor="#399de5"] ;
279 -> 280 ;
281 [label="gini = 0.0\nsamples = 1\nvalue = [1, 0]\nclass = No", fillcolor="#e58139"] ;
279 -> 281 ;
282 [label="gini = 0.0\nsamples = 2\nvalue = [0, 3]\nclass = Yes", fillcolor="#399de5"] ;
276 -> 282 ;
283 [label="gini = 0.0\nsamples = 3\nvalue = [4, 0]\nclass = No", fillcolor="#e58139"] ;
275 -> 283 ;
284 [label="gini = 0.0\nsamples = 3\nvalue = [3, 0]\nclass = No", fillcolor="#e58139"] ;
274 -> 284 ;
285 [label="day <= 0.533\ngini = 0.32\nsamples = 14\nvalue = [16, 4]\nclass = No", fillcolor="#eca06a"] ;
273 -> 285 ;
286 [label="gini = 0.0\nsamples = 6\nvalue = [10, 0]\nclass = No", fillcolor="#e58139"] ;
285 -> 286 ;
287 [label="mon <= 0.318\ngini = 0.48\nsamples = 8\nvalue = [6, 4]\nclass = No", fillcolor="#f6d5bd"] ;
285 -> 287 ;
288 [label="day <= 0.6\ngini = 0.444\nsamples = 5\nvalue = [2, 4]\nclass = Yes", fillcolor="#9ccef2"] ;
287 -> 288 ;
289 [label="gini = 0.0\nsamples = 2\nvalue = [0, 2]\nclass = Yes", fillcolor="#399de5"] ;
288 -> 289 ;
290 [label="education_qual <= 0.5\ngini = 0.5\nsamples = 3\nvalue = [2, 2]\nclass = No", fillcolor="#ffffff"] ;
288 -> 290 ;
291 [label="gini = 0.0\nsamples = 1\nvalue = [2, 0]\nclass = No", fillcolor="#e58139"] ;
290 -> 291 ;
292 [label="gini = 0.0\nsamples = 2\nvalue = [0, 2]\nclass = Yes", fillcolor="#399de5"] ;
290 -> 292 ;
293 [label="gini = 0.0\nsamples = 3\nvalue = [4, 0]\nclass = No", fillcolor="#e58139"] ;
287 -> 293 ;
294 [label="mon <= 0.136\ngini = 0.473\nsamples = 17\nvalue = [10, 16]\nclass = Yes", fillcolor="#b5daf5"] ;
270 -> 294 ;
295 [label="gini = 0.0\nsamples = 5\nvalue = [0, 7]\nclass = Yes", fillcolor="#399de5"] ;
294 -> 295 ;
296 [label="dur <= 0.684\ngini = 0.499\nsamples = 12\nvalue = [10, 9]\nclass = No", fillcolor="#fcf2eb"] ;
294 -> 296 ;
297 [label="age <= 0.337\ngini = 0.375\nsamples = 7\nvalue = [3, 9]\nclass = Yes", fillcolor="#7bbeee"] ;
296 -> 297 ;
298 [label="day <= 0.533\ngini = 0.198\nsamples = 5\nvalue = [1, 8]\nclass = Yes", fillcolor="#52a9e8"] ;
297 -> 298 ;
299 [label="gini = 0.0\nsamples = 2\nvalue = [0, 5]\nclass = Yes", fillcolor="#399de5"] ;
298 -> 299 ;
300 [label="num_calls <= 0.2\ngini = 0.375\nsamples = 3\nvalue = [1, 3]\nclass = Yes", fillcolor="#7bbeee"] ;
298 -> 300 ;
301 [label="gini = 0.0\nsamples = 1\nvalue = [1, 0]\nclass = No", fillcolor="#e58139"] ;
300 -> 301 ;
302 [label="gini = 0.0\nsamples = 2\nvalue = [0, 3]\nclass = Yes", fillcolor="#399de5"] ;
300 -> 302 ;
303 [label="prev_outcome <= 0.167\ngini = 0.444\nsamples = 2\nvalue = [2, 1]\nclass = No", fillcolor="#f2c09c"] ;
297 -> 303 ;
304 [label="gini = 0.0\nsamples = 1\nvalue = [2, 0]\nclass = No", fillcolor="#e58139"] ;
303 -> 304 ;
305 [label="gini = 0.0\nsamples = 1\nvalue = [0, 1]\nclass = Yes", fillcolor="#399de5"] ;
303 -> 305 ;
306 [label="gini = 0.0\nsamples = 5\nvalue = [7, 0]\nclass = No", fillcolor="#e58139"] ;
296 -> 306 ;
307 [label="gini = 0.0\nsamples = 6\nvalue = [8, 0]\nclass = No", fillcolor="#e58139"] ;
269 -> 307 ;
308 [label="gini = 0.0\nsamples = 22\nvalue = [34, 0]\nclass = No", fillcolor="#e58139"] ;
200 -> 308 ;
309 [label="mon <= 0.318\ngini = 0.486\nsamples = 7\nvalue = [7, 5]\nclass = No", fillcolor="#f8dbc6"] ;
155 -> 309 ;
310 [label="job <= 0.318\ngini = 0.42\nsamples = 6\nvalue = [7, 3]\nclass = No", fillcolor="#f0b78e"] ;
309 -> 310 ;
311 [label="day <= 0.45\ngini = 0.48\nsamples = 3\nvalue = [2, 3]\nclass = Yes", fillcolor="#bddef6"] ;
310 -> 311 ;
312 [label="gini = 0.0\nsamples = 1\nvalue = [0, 3]\nclass = Yes", fillcolor="#399de5"] ;
311 -> 312 ;
313 [label="gini = 0.0\nsamples = 2\nvalue = [2, 0]\nclass = No", fillcolor="#e58139"] ;
311 -> 313 ;
314 [label="gini = 0.0\nsamples = 3\nvalue = [5, 0]\nclass = No", fillcolor="#e58139"] ;
310 -> 314 ;
315 [label="gini = 0.0\nsamples = 1\nvalue = [0, 2]\nclass = Yes", fillcolor="#399de5"] ;
309 -> 315 ;
316 [label="day <= 0.117\ngini = 0.426\nsamples = 18\nvalue = [18, 8]\nclass = No", fillcolor="#f1b991"] ;
154 -> 316 ;
317 [label="gini = 0.0\nsamples = 4\nvalue = [6, 0]\nclass = No", fillcolor="#e58139"] ;
316 -> 317 ;
318 [label="num_calls <= 0.5\ngini = 0.48\nsamples = 14\nvalue = [12, 8]\nclass = No", fillcolor="#f6d5bd"] ;
316 -> 318 ;
319 [label="job <= 0.5\ngini = 0.49\nsamples = 11\nvalue = [6, 8]\nclass = Yes", fillcolor="#cee6f8"] ;
318 -> 319 ;
320 [label="dur <= 0.253\ngini = 0.397\nsamples = 9\nvalue = [3, 8]\nclass = Yes", fillcolor="#83c2ef"] ;
319 -> 320 ;
321 [label="gini = 0.0\nsamples = 2\nvalue = [2, 0]\nclass = No", fillcolor="#e58139"] ;
320 -> 321 ;
322 [label="marital <= 0.25\ngini = 0.198\nsamples = 7\nvalue = [1, 8]\nclass = Yes", fillcolor="#52a9e8"] ;
320 -> 322 ;
323 [label="day <= 0.733\ngini = 0.444\nsamples = 2\nvalue = [1, 2]\nclass = Yes", fillcolor="#9ccef2"] ;
322 -> 323 ;
324 [label="gini = 0.0\nsamples = 1\nvalue = [0, 2]\nclass = Yes", fillcolor="#399de5"] ;
323 -> 324 ;
325 [label="gini = 0.0\nsamples = 1\nvalue = [1, 0]\nclass = No", fillcolor="#e58139"] ;
323 -> 325 ;
326 [label="gini = 0.0\nsamples = 5\nvalue = [0, 6]\nclass = Yes", fillcolor="#399de5"] ;
322 -> 326 ;
327 [label="gini = 0.0\nsamples = 2\nvalue = [3, 0]\nclass = No", fillcolor="#e58139"] ;
319 -> 327 ;
328 [label="gini = 0.0\nsamples = 3\nvalue = [6, 0]\nclass = No", fillcolor="#e58139"] ;
318 -> 328 ;
329 [label="age <= 0.442\ngini = 0.18\nsamples = 7\nvalue = [1, 9]\nclass = Yes", fillcolor="#4fa8e8"] ;
153 -> 329 ;
330 [label="gini = 0.0\nsamples = 6\nvalue = [0, 9]\nclass = Yes", fillcolor="#399de5"] ;
329 -> 330 ;
331 [label="gini = 0.0\nsamples = 1\nvalue = [1, 0]\nclass = No", fillcolor="#e58139"] ;
329 -> 331 ;
332 [label="dur <= 0.522\ngini = 0.41\nsamples = 43\nvalue = [47, 19]\nclass = No", fillcolor="#f0b489"] ;
152 -> 332 ;
333 [label="job <= 0.682\ngini = 0.316\nsamples = 35\nvalue = [45, 11]\nclass = No", fillcolor="#eba069"] ;
332 -> 333 ;
334 [label="age <= 0.529\ngini = 0.291\nsamples = 32\nvalue = [42, 9]\nclass = No", fillcolor="#eb9c63"] ;
333 -> 334 ;
335 [label="dur <= 0.38\ngini = 0.121\nsamples = 20\nvalue = [29, 2]\nclass = No", fillcolor="#e78a47"] ;
334 -> 335 ;
336 [label="gini = 0.0\nsamples = 16\nvalue = [26, 0]\nclass = No", fillcolor="#e58139"] ;
335 -> 336 ;
337 [label="day <= 0.983\ngini = 0.48\nsamples = 4\nvalue = [3, 2]\nclass = No", fillcolor="#f6d5bd"] ;
335 -> 337 ;
338 [label="num_calls <= 0.2\ngini = 0.444\nsamples = 3\nvalue = [1, 2]\nclass = Yes", fillcolor="#9ccef2"] ;
337 -> 338 ;
339 [label="age <= 0.337\ngini = 0.5\nsamples = 2\nvalue = [1, 1]\nclass = No", fillcolor="#ffffff"] ;
338 -> 339 ;
340 [label="gini = 0.0\nsamples = 1\nvalue = [0, 1]\nclass = Yes", fillcolor="#399de5"] ;
339 -> 340 ;
341 [label="gini = 0.0\nsamples = 1\nvalue = [1, 0]\nclass = No", fillcolor="#e58139"] ;
339 -> 341 ;
342 [label="gini = 0.0\nsamples = 1\nvalue = [0, 1]\nclass = Yes", fillcolor="#399de5"] ;
338 -> 342 ;
343 [label="gini = 0.0\nsamples = 1\nvalue = [2, 0]\nclass = No", fillcolor="#e58139"] ;
337 -> 343 ;
344 [label="day <= 0.983\ngini = 0.455\nsamples = 12\nvalue = [13, 7]\nclass = No", fillcolor="#f3c5a4"] ;
334 -> 344 ;
345 [label="mon <= 0.182\ngini = 0.475\nsamples = 11\nvalue = [11, 7]\nclass = No", fillcolor="#f6d1b7"] ;
344 -> 345 ;
346 [label="age <= 0.731\ngini = 0.463\nsamples = 7\nvalue = [4, 7]\nclass = Yes", fillcolor="#aad5f4"] ;
345 -> 346 ;
347 [label="gini = 0.0\nsamples = 3\nvalue = [0, 6]\nclass = Yes", fillcolor="#399de5"] ;
346 -> 347 ;
348 [label="dur <= 0.29\ngini = 0.32\nsamples = 4\nvalue = [4, 1]\nclass = No", fillcolor="#eca06a"] ;
346 -> 348 ;
349 [label="gini = 0.0\nsamples = 1\nvalue = [0, 1]\nclass = Yes", fillcolor="#399de5"] ;
348 -> 349 ;
350 [label="gini = 0.0\nsamples = 3\nvalue = [4, 0]\nclass = No", fillcolor="#e58139"] ;
348 -> 350 ;
351 [label="gini = 0.0\nsamples = 4\nvalue = [7, 0]\nclass = No", fillcolor="#e58139"] ;
345 -> 351 ;
352 [label="gini = 0.0\nsamples = 1\nvalue = [2, 0]\nclass = No", fillcolor="#e58139"] ;
344 -> 352 ;
353 [label="education_qual <= 0.833\ngini = 0.48\nsamples = 3\nvalue = [3, 2]\nclass = No", fillcolor="#f6d5bd"] ;
333 -> 353 ;
354 [label="gini = 0.0\nsamples = 1\nvalue = [0, 2]\nclass = Yes", fillcolor="#399de5"] ;
353 -> 354 ;
355 [label="gini = 0.0\nsamples = 2\nvalue = [3, 0]\nclass = No", fillcolor="#e58139"] ;
353 -> 355 ;
356 [label="age <= 0.567\ngini = 0.32\nsamples = 8\nvalue = [2, 8]\nclass = Yes", fillcolor="#6ab6ec"] ;
332 -> 356 ;
357 [label="gini = 0.0\nsamples = 6\nvalue = [0, 8]\nclass = Yes", fillcolor="#399de5"] ;
356 -> 357 ;
358 [label="gini = 0.0\nsamples = 2\nvalue = [2, 0]\nclass = No", fillcolor="#e58139"] ;
356 -> 358 ;
359 [label="job <= 0.955\ngini = 0.152\nsamples = 218\nvalue = [322.0, 29.0]\nclass = No", fillcolor="#e78c4b"] ;
151 -> 359 ;
360 [label="day <= 0.35\ngini = 0.147\nsamples = 217\nvalue = [322, 28]\nclass = No", fillcolor="#e78c4a"] ;
359 -> 360 ;
361 [label="day <= 0.283\ngini = 0.234\nsamples = 100\nvalue = [141, 22]\nclass = No", fillcolor="#e99558"] ;
360 -> 361 ;
362 [label="day <= 0.05\ngini = 0.194\nsamples = 94\nvalue = [139, 17]\nclass = No", fillcolor="#e89051"] ;
361 -> 362 ;
363 [label="dur <= 0.189\ngini = 0.051\nsamples = 24\nvalue = [37, 1]\nclass = No", fillcolor="#e6843e"] ;
362 -> 363 ;
364 [label="gini = 0.0\nsamples = 11\nvalue = [18, 0]\nclass = No", fillcolor="#e58139"] ;
363 -> 364 ;
365 [label="age <= 0.442\ngini = 0.095\nsamples = 13\nvalue = [19, 1]\nclass = No", fillcolor="#e68843"] ;
363 -> 365 ;
366 [label="gini = 0.0\nsamples = 8\nvalue = [12, 0]\nclass = No", fillcolor="#e58139"] ;
365 -> 366 ;
367 [label="num_calls <= 0.1\ngini = 0.219\nsamples = 5\nvalue = [7, 1]\nclass = No", fillcolor="#e99355"] ;
365 -> 367 ;
368 [label="dur <= 0.355\ngini = 0.444\nsamples = 2\nvalue = [2, 1]\nclass = No", fillcolor="#f2c09c"] ;
367 -> 368 ;
369 [label="gini = 0.0\nsamples = 1\nvalue = [0, 1]\nclass = Yes", fillcolor="#399de5"] ;
368 -> 369 ;
370 [label="gini = 0.0\nsamples = 1\nvalue = [2, 0]\nclass = No", fillcolor="#e58139"] ;
368 -> 370 ;
371 [label="gini = 0.0\nsamples = 3\nvalue = [5, 0]\nclass = No", fillcolor="#e58139"] ;
367 -> 371 ;
372 [label="day <= 0.117\ngini = 0.234\nsamples = 70\nvalue = [102, 16]\nclass = No", fillcolor="#e99558"] ;
362 -> 372 ;
373 [label="dur <= 0.752\ngini = 0.363\nsamples = 27\nvalue = [32, 10]\nclass = No", fillcolor="#eda877"] ;
372 -> 373 ;
374 [label="num_calls <= 0.1\ngini = 0.266\nsamples = 25\nvalue = [32, 6]\nclass = No", fillcolor="#ea995e"] ;
373 -> 374 ;
375 [label="dur <= 0.183\ngini = 0.397\nsamples = 13\nvalue = [16, 6]\nclass = No", fillcolor="#efb083"] ;
374 -> 375 ;
376 [label="gini = 0.0\nsamples = 2\nvalue = [6, 0]\nclass = No", fillcolor="#e58139"] ;
375 -> 376 ;
377 [label="prev_outcome <= 0.167\ngini = 0.469\nsamples = 11\nvalue = [10, 6]\nclass = No", fillcolor="#f5cdb0"] ;
375 -> 377 ;
378 [label="education_qual <= 0.167\ngini = 0.459\nsamples = 9\nvalue = [9, 5]\nclass = No", fillcolor="#f3c7a7"] ;
377 -> 378 ;
379 [label="gini = 0.0\nsamples = 1\nvalue = [1, 0]\nclass = No", fillcolor="#e58139"] ;
378 -> 379 ;
380 [label="age <= 0.298\ngini = 0.473\nsamples = 8\nvalue = [8, 5]\nclass = No", fillcolor="#f5d0b5"] ;
378 -> 380 ;
381 [label="gini = 0.0\nsamples = 2\nvalue = [4, 0]\nclass = No", fillcolor="#e58139"] ;
380 -> 381 ;
382 [label="age <= 0.404\ngini = 0.494\nsamples = 6\nvalue = [4, 5]\nclass = Yes", fillcolor="#d7ebfa"] ;
380 -> 382 ;
383 [label="gini = 0.0\nsamples = 3\nvalue = [0, 3]\nclass = Yes", fillcolor="#399de5"] ;
382 -> 383 ;
384 [label="dur <= 0.56\ngini = 0.444\nsamples = 3\nvalue = [4, 2]\nclass = No", fillcolor="#f2c09c"] ;
382 -> 384 ;
385 [label="age <= 0.74\ngini = 0.444\nsamples = 2\nvalue = [1, 2]\nclass = Yes", fillcolor="#9ccef2"] ;
384 -> 385 ;
386 [label="gini = 0.0\nsamples = 1\nvalue = [0, 2]\nclass = Yes", fillcolor="#399de5"] ;
385 -> 386 ;
387 [label="gini = 0.0\nsamples = 1\nvalue = [1, 0]\nclass = No", fillcolor="#e58139"] ;
385 -> 387 ;
388 [label="gini = 0.0\nsamples = 1\nvalue = [3, 0]\nclass = No", fillcolor="#e58139"] ;
384 -> 388 ;
389 [label="marital <= 0.75\ngini = 0.5\nsamples = 2\nvalue = [1, 1]\nclass = No", fillcolor="#ffffff"] ;
377 -> 389 ;
390 [label="gini = 0.0\nsamples = 1\nvalue = [1, 0]\nclass = No", fillcolor="#e58139"] ;
389 -> 390 ;
391 [label="gini = 0.0\nsamples = 1\nvalue = [0, 1]\nclass = Yes", fillcolor="#399de5"] ;
389 -> 391 ;
392 [label="gini = 0.0\nsamples = 12\nvalue = [16, 0]\nclass = No", fillcolor="#e58139"] ;
374 -> 392 ;
393 [label="gini = 0.0\nsamples = 2\nvalue = [0, 4]\nclass = Yes", fillcolor="#399de5"] ;
373 -> 393 ;
394 [label="day <= 0.217\ngini = 0.145\nsamples = 43\nvalue = [70, 6]\nclass = No", fillcolor="#e78c4a"] ;
372 -> 394 ;
395 [label="education_qual <= 0.5\ngini = 0.043\nsamples = 28\nvalue = [45, 1]\nclass = No", fillcolor="#e6843d"] ;
394 -> 395 ;
396 [label="gini = 0.0\nsamples = 20\nvalue = [32, 0]\nclass = No", fillcolor="#e58139"] ;
395 -> 396 ;
397 [label="age <= 0.337\ngini = 0.133\nsamples = 8\nvalue = [13, 1]\nclass = No", fillcolor="#e78b48"] ;
395 -> 397 ;
398 [label="gini = 0.0\nsamples = 3\nvalue = [6, 0]\nclass = No", fillcolor="#e58139"] ;
397 -> 398 ;
399 [label="dur <= 0.348\ngini = 0.219\nsamples = 5\nvalue = [7, 1]\nclass = No", fillcolor="#e99355"] ;
397 -> 399 ;
400 [label="dur <= 0.19\ngini = 0.375\nsamples = 3\nvalue = [3, 1]\nclass = No", fillcolor="#eeab7b"] ;
399 -> 400 ;
401 [label="gini = 0.0\nsamples = 1\nvalue = [2, 0]\nclass = No", fillcolor="#e58139"] ;
400 -> 401 ;
402 [label="age <= 0.433\ngini = 0.5\nsamples = 2\nvalue = [1, 1]\nclass = No", fillcolor="#ffffff"] ;
400 -> 402 ;
403 [label="gini = 0.0\nsamples = 1\nvalue = [0, 1]\nclass = Yes", fillcolor="#399de5"] ;
402 -> 403 ;
404 [label="gini = 0.0\nsamples = 1\nvalue = [1, 0]\nclass = No", fillcolor="#e58139"] ;
402 -> 404 ;
405 [label="gini = 0.0\nsamples = 2\nvalue = [4, 0]\nclass = No", fillcolor="#e58139"] ;
399 -> 405 ;
406 [label="dur <= 0.195\ngini = 0.278\nsamples = 15\nvalue = [25, 5]\nclass = No", fillcolor="#ea9a61"] ;
394 -> 406 ;
407 [label="gini = 0.0\nsamples = 6\nvalue = [14, 0]\nclass = No", fillcolor="#e58139"] ;
406 -> 407 ;
408 [label="dur <= 0.25\ngini = 0.43\nsamples = 9\nvalue = [11, 5]\nclass = No", fillcolor="#f1ba93"] ;
406 -> 408 ;
409 [label="education_qual <= 0.5\ngini = 0.469\nsamples = 4\nvalue = [3, 5]\nclass = Yes", fillcolor="#b0d8f5"] ;
408 -> 409 ;
410 [label="marital <= 0.25\ngini = 0.278\nsamples = 3\nvalue = [1, 5]\nclass = Yes", fillcolor="#61b1ea"] ;
409 -> 410 ;
411 [label="gini = 0.0\nsamples = 1\nvalue = [1, 0]\nclass = No", fillcolor="#e58139"] ;
410 -> 411 ;
412 [label="gini = 0.0\nsamples = 2\nvalue = [0, 5]\nclass = Yes", fillcolor="#399de5"] ;
410 -> 412 ;
413 [label="gini = 0.0\nsamples = 1\nvalue = [2, 0]\nclass = No", fillcolor="#e58139"] ;
409 -> 413 ;
414 [label="gini = 0.0\nsamples = 5\nvalue = [8, 0]\nclass = No", fillcolor="#e58139"] ;
408 -> 414 ;
415 [label="marital <= 0.75\ngini = 0.408\nsamples = 6\nvalue = [2, 5]\nclass = Yes", fillcolor="#88c4ef"] ;
361 -> 415 ;
416 [label="gini = 0.0\nsamples = 4\nvalue = [0, 5]\nclass = Yes", fillcolor="#399de5"] ;
415 -> 416 ;
417 [label="gini = 0.0\nsamples = 2\nvalue = [2, 0]\nclass = No", fillcolor="#e58139"] ;
415 -> 417 ;
418 [label="dur <= 0.48\ngini = 0.062\nsamples = 117\nvalue = [181.0, 6.0]\nclass = No", fillcolor="#e68540"] ;
360 -> 418 ;
419 [label="mon <= 0.136\ngini = 0.013\nsamples = 97\nvalue = [156, 1]\nclass = No", fillcolor="#e5823a"] ;
418 -> 419 ;
420 [label="mon <= 0.045\ngini = 0.026\nsamples = 45\nvalue = [76, 1]\nclass = No", fillcolor="#e5833c"] ;
419 -> 420 ;
421 [label="gini = 0.0\nsamples = 31\nvalue = [49, 0]\nclass = No", fillcolor="#e58139"] ;
420 -> 421 ;
422 [label="day <= 0.417\ngini = 0.069\nsamples = 14\nvalue = [27, 1]\nclass = No", fillcolor="#e68640"] ;
420 -> 422 ;
423 [label="num_calls <= 0.3\ngini = 0.219\nsamples = 4\nvalue = [7, 1]\nclass = No", fillcolor="#e99355"] ;
422 -> 423 ;
424 [label="gini = 0.0\nsamples = 3\nvalue = [7, 0]\nclass = No", fillcolor="#e58139"] ;
423 -> 424 ;
425 [label="gini = 0.0\nsamples = 1\nvalue = [0, 1]\nclass = Yes", fillcolor="#399de5"] ;
423 -> 425 ;
426 [label="gini = 0.0\nsamples = 10\nvalue = [20, 0]\nclass = No", fillcolor="#e58139"] ;
422 -> 426 ;
427 [label="gini = 0.0\nsamples = 52\nvalue = [80, 0]\nclass = No", fillcolor="#e58139"] ;
419 -> 427 ;
428 [label="dur <= 0.582\ngini = 0.278\nsamples = 20\nvalue = [25, 5]\nclass = No", fillcolor="#ea9a61"] ;
418 -> 428 ;
429 [label="day <= 0.483\ngini = 0.444\nsamples = 8\nvalue = [8, 4]\nclass = No", fillcolor="#f2c09c"] ;
428 -> 429 ;
430 [label="gini = 0.0\nsamples = 2\nvalue = [3, 0]\nclass = No", fillcolor="#e58139"] ;
429 -> 430 ;
431 [label="age <= 0.231\ngini = 0.494\nsamples = 6\nvalue = [5, 4]\nclass = No", fillcolor="#fae6d7"] ;
429 -> 431 ;
432 [label="day <= 0.75\ngini = 0.375\nsamples = 2\nvalue = [1, 3]\nclass = Yes", fillcolor="#7bbeee"] ;
431 -> 432 ;
433 [label="gini = 0.0\nsamples = 1\nvalue = [0, 3]\nclass = Yes", fillcolor="#399de5"] ;
432 -> 433 ;
434 [label="gini = 0.0\nsamples = 1\nvalue = [1, 0]\nclass = No", fillcolor="#e58139"] ;
432 -> 434 ;
435 [label="age <= 0.298\ngini = 0.32\nsamples = 4\nvalue = [4, 1]\nclass = No", fillcolor="#eca06a"] ;
431 -> 435 ;
436 [label="gini = 0.0\nsamples = 2\nvalue = [3, 0]\nclass = No", fillcolor="#e58139"] ;
435 -> 436 ;
437 [label="age <= 0.375\ngini = 0.5\nsamples = 2\nvalue = [1, 1]\nclass = No", fillcolor="#ffffff"] ;
435 -> 437 ;
438 [label="gini = 0.0\nsamples = 1\nvalue = [0, 1]\nclass = Yes", fillcolor="#399de5"] ;
437 -> 438 ;
439 [label="gini = 0.0\nsamples = 1\nvalue = [1, 0]\nclass = No", fillcolor="#e58139"] ;
437 -> 439 ;
440 [label="prev_outcome <= 0.167\ngini = 0.105\nsamples = 12\nvalue = [17, 1]\nclass = No", fillcolor="#e78845"] ;
428 -> 440 ;
441 [label="gini = 0.0\nsamples = 9\nvalue = [15, 0]\nclass = No", fillcolor="#e58139"] ;
440 -> 441 ;
442 [label="age <= 0.337\ngini = 0.444\nsamples = 3\nvalue = [2, 1]\nclass = No", fillcolor="#f2c09c"] ;
440 -> 442 ;
443 [label="gini = 0.0\nsamples = 2\nvalue = [2, 0]\nclass = No", fillcolor="#e58139"] ;
442 -> 443 ;
444 [label="gini = 0.0\nsamples = 1\nvalue = [0, 1]\nclass = Yes", fillcolor="#399de5"] ;
442 -> 444 ;
445 [label="gini = 0.0\nsamples = 1\nvalue = [0, 1]\nclass = Yes", fillcolor="#399de5"] ;
359 -> 445 ;
446 [label="num_calls <= 0.7\ngini = 0.474\nsamples = 195\nvalue = [174, 109]\nclass = No", fillcolor="#f5d0b5"] ;
6 -> 446 ;
447 [label="dur <= 0.191\ngini = 0.479\nsamples = 187\nvalue = [164, 108]\nclass = No", fillcolor="#f6d4bb"] ;
446 -> 447 ;
448 [label="num_calls <= 0.1\ngini = 0.231\nsamples = 43\nvalue = [52, 8]\nclass = No", fillcolor="#e99457"] ;
447 -> 448 ;
449 [label="age <= 0.606\ngini = 0.114\nsamples = 21\nvalue = [31, 2]\nclass = No", fillcolor="#e78946"] ;
448 -> 449 ;
450 [label="gini = 0.0\nsamples = 20\nvalue = [31, 0]\nclass = No", fillcolor="#e58139"] ;
449 -> 450 ;
451 [label="gini = 0.0\nsamples = 1\nvalue = [0, 2]\nclass = Yes", fillcolor="#399de5"] ;
449 -> 451 ;
452 [label="dur <= 0.131\ngini = 0.346\nsamples = 22\nvalue = [21, 6]\nclass = No", fillcolor="#eca572"] ;
448 -> 452 ;
453 [label="gini = 0.0\nsamples = 9\nvalue = [13, 0]\nclass = No", fillcolor="#e58139"] ;
452 -> 453 ;
454 [label="dur <= 0.149\ngini = 0.49\nsamples = 13\nvalue = [8, 6]\nclass = No", fillcolor="#f8e0ce"] ;
452 -> 454 ;
455 [label="gini = 0.0\nsamples = 2\nvalue = [0, 3]\nclass = Yes", fillcolor="#399de5"] ;
454 -> 455 ;
456 [label="age <= 0.394\ngini = 0.397\nsamples = 11\nvalue = [8, 3]\nclass = No", fillcolor="#efb083"] ;
454 -> 456 ;
457 [label="gini = 0.0\nsamples = 5\nvalue = [5, 0]\nclass = No", fillcolor="#e58139"] ;
456 -> 457 ;
458 [label="job <= 0.591\ngini = 0.5\nsamples = 6\nvalue = [3, 3]\nclass = No", fillcolor="#ffffff"] ;
456 -> 458 ;
459 [label="day <= 0.15\ngini = 0.375\nsamples = 4\nvalue = [1, 3]\nclass = Yes", fillcolor="#7bbeee"] ;
458 -> 459 ;
460 [label="gini = 0.0\nsamples = 2\nvalue = [0, 2]\nclass = Yes", fillcolor="#399de5"] ;
459 -> 460 ;
461 [label="num_calls <= 0.3\ngini = 0.5\nsamples = 2\nvalue = [1, 1]\nclass = No", fillcolor="#ffffff"] ;
459 -> 461 ;
462 [label="gini = 0.0\nsamples = 1\nvalue = [0, 1]\nclass = Yes", fillcolor="#399de5"] ;
461 -> 462 ;
463 [label="gini = 0.0\nsamples = 1\nvalue = [1, 0]\nclass = No", fillcolor="#e58139"] ;
461 -> 463 ;
464 [label="gini = 0.0\nsamples = 2\nvalue = [2, 0]\nclass = No", fillcolor="#e58139"] ;
458 -> 464 ;
465 [label="age <= 0.317\ngini = 0.498\nsamples = 144\nvalue = [112, 100]\nclass = No", fillcolor="#fcf2ea"] ;
447 -> 465 ;
466 [label="dur <= 0.194\ngini = 0.45\nsamples = 65\nvalue = [56, 29]\nclass = No", fillcolor="#f2c2a0"] ;
465 -> 466 ;
467 [label="prev_outcome <= 0.167\ngini = 0.32\nsamples = 4\nvalue = [1, 4]\nclass = Yes", fillcolor="#6ab6ec"] ;
466 -> 467 ;
468 [label="gini = 0.0\nsamples = 2\nvalue = [0, 2]\nclass = Yes", fillcolor="#399de5"] ;
467 -> 468 ;
469 [label="age <= 0.163\ngini = 0.444\nsamples = 2\nvalue = [1, 2]\nclass = Yes", fillcolor="#9ccef2"] ;
467 -> 469 ;
470 [label="gini = 0.0\nsamples = 1\nvalue = [1, 0]\nclass = No", fillcolor="#e58139"] ;
469 -> 470 ;
471 [label="gini = 0.0\nsamples = 1\nvalue = [0, 2]\nclass = Yes", fillcolor="#399de5"] ;
469 -> 471 ;
472 [label="job <= 0.227\ngini = 0.43\nsamples = 61\nvalue = [55, 25]\nclass = No", fillcolor="#f1ba93"] ;
466 -> 472 ;
473 [label="num_calls <= 0.1\ngini = 0.198\nsamples = 14\nvalue = [16, 2]\nclass = No", fillcolor="#e89152"] ;
472 -> 473 ;
474 [label="marital <= 0.75\ngini = 0.32\nsamples = 8\nvalue = [8, 2]\nclass = No", fillcolor="#eca06a"] ;
473 -> 474 ;
475 [label="age <= 0.192\ngini = 0.48\nsamples = 4\nvalue = [3, 2]\nclass = No", fillcolor="#f6d5bd"] ;
474 -> 475 ;
476 [label="gini = 0.0\nsamples = 1\nvalue = [0, 2]\nclass = Yes", fillcolor="#399de5"] ;
475 -> 476 ;
477 [label="gini = 0.0\nsamples = 3\nvalue = [3, 0]\nclass = No", fillcolor="#e58139"] ;
475 -> 477 ;
478 [label="gini = 0.0\nsamples = 4\nvalue = [5, 0]\nclass = No", fillcolor="#e58139"] ;
474 -> 478 ;
479 [label="gini = 0.0\nsamples = 6\nvalue = [8, 0]\nclass = No", fillcolor="#e58139"] ;
473 -> 479 ;
480 [label="mon <= 0.591\ngini = 0.467\nsamples = 47\nvalue = [39, 23]\nclass = No", fillcolor="#f4cbae"] ;
472 -> 480 ;
481 [label="dur <= 0.414\ngini = 0.405\nsamples = 31\nvalue = [28, 11]\nclass = No", fillcolor="#efb287"] ;
480 -> 481 ;
482 [label="dur <= 0.256\ngini = 0.269\nsamples = 18\nvalue = [21, 4]\nclass = No", fillcolor="#ea995f"] ;
481 -> 482 ;
483 [label="job <= 0.727\ngini = 0.444\nsamples = 5\nvalue = [4, 2]\nclass = No", fillcolor="#f2c09c"] ;
482 -> 483 ;
484 [label="dur <= 0.24\ngini = 0.32\nsamples = 4\nvalue = [4, 1]\nclass = No", fillcolor="#eca06a"] ;
483 -> 484 ;
485 [label="gini = 0.0\nsamples = 3\nvalue = [4, 0]\nclass = No", fillcolor="#e58139"] ;
484 -> 485 ;
486 [label="gini = 0.0\nsamples = 1\nvalue = [0, 1]\nclass = Yes", fillcolor="#399de5"] ;
484 -> 486 ;
487 [label="gini = 0.0\nsamples = 1\nvalue = [0, 1]\nclass = Yes", fillcolor="#399de5"] ;
483 -> 487 ;
488 [label="job <= 0.455\ngini = 0.188\nsamples = 13\nvalue = [17, 2]\nclass = No", fillcolor="#e89050"] ;
482 -> 488 ;
489 [label="day <= 0.233\ngini = 0.408\nsamples = 4\nvalue = [5, 2]\nclass = No", fillcolor="#efb388"] ;
488 -> 489 ;
490 [label="dur <= 0.319\ngini = 0.5\nsamples = 2\nvalue = [2, 2]\nclass = No", fillcolor="#ffffff"] ;
489 -> 490 ;
491 [label="gini = 0.0\nsamples = 1\nvalue = [2, 0]\nclass = No", fillcolor="#e58139"] ;
490 -> 491 ;
492 [label="gini = 0.0\nsamples = 1\nvalue = [0, 2]\nclass = Yes", fillcolor="#399de5"] ;
490 -> 492 ;
493 [label="gini = 0.0\nsamples = 2\nvalue = [3, 0]\nclass = No", fillcolor="#e58139"] ;
489 -> 493 ;
494 [label="gini = 0.0\nsamples = 9\nvalue = [12, 0]\nclass = No", fillcolor="#e58139"] ;
488 -> 494 ;
495 [label="age <= 0.298\ngini = 0.5\nsamples = 13\nvalue = [7, 7]\nclass = No", fillcolor="#ffffff"] ;
481 -> 495 ;
496 [label="day <= 0.85\ngini = 0.463\nsamples = 11\nvalue = [4, 7]\nclass = Yes", fillcolor="#aad5f4"] ;
495 -> 496 ;
497 [label="day <= 0.433\ngini = 0.49\nsamples = 7\nvalue = [4, 3]\nclass = No", fillcolor="#f8e0ce"] ;
496 -> 497 ;
498 [label="num_calls <= 0.4\ngini = 0.48\nsamples = 5\nvalue = [2, 3]\nclass = Yes", fillcolor="#bddef6"] ;
497 -> 498 ;
499 [label="age <= 0.125\ngini = 0.375\nsamples = 4\nvalue = [1, 3]\nclass = Yes", fillcolor="#7bbeee"] ;
498 -> 499 ;
500 [label="gini = 0.0\nsamples = 1\nvalue = [1, 0]\nclass = No", fillcolor="#e58139"] ;
499 -> 500 ;
501 [label="gini = 0.0\nsamples = 3\nvalue = [0, 3]\nclass = Yes", fillcolor="#399de5"] ;
499 -> 501 ;
502 [label="gini = 0.0\nsamples = 1\nvalue = [1, 0]\nclass = No", fillcolor="#e58139"] ;
498 -> 502 ;
503 [label="gini = 0.0\nsamples = 2\nvalue = [2, 0]\nclass = No", fillcolor="#e58139"] ;
497 -> 503 ;
504 [label="gini = 0.0\nsamples = 4\nvalue = [0, 4]\nclass = Yes", fillcolor="#399de5"] ;
496 -> 504 ;
505 [label="gini = 0.0\nsamples = 2\nvalue = [3, 0]\nclass = No", fillcolor="#e58139"] ;
495 -> 505 ;
506 [label="marital <= 0.75\ngini = 0.499\nsamples = 16\nvalue = [11, 12]\nclass = Yes", fillcolor="#eff7fd"] ;
480 -> 506 ;
507 [label="num_calls <= 0.1\ngini = 0.278\nsamples = 5\nvalue = [5, 1]\nclass = No", fillcolor="#ea9a61"] ;
506 -> 507 ;
508 [label="dur <= 0.317\ngini = 0.5\nsamples = 2\nvalue = [1, 1]\nclass = No", fillcolor="#ffffff"] ;
507 -> 508 ;
509 [label="gini = 0.0\nsamples = 1\nvalue = [1, 0]\nclass = No", fillcolor="#e58139"] ;
508 -> 509 ;
510 [label="gini = 0.0\nsamples = 1\nvalue = [0, 1]\nclass = Yes", fillcolor="#399de5"] ;
508 -> 510 ;
511 [label="gini = 0.0\nsamples = 3\nvalue = [4, 0]\nclass = No", fillcolor="#e58139"] ;
507 -> 511 ;
512 [label="dur <= 0.559\ngini = 0.457\nsamples = 11\nvalue = [6, 11]\nclass = Yes", fillcolor="#a5d2f3"] ;
506 -> 512 ;
513 [label="dur <= 0.315\ngini = 0.26\nsamples = 9\nvalue = [2, 11]\nclass = Yes", fillcolor="#5dafea"] ;
512 -> 513 ;
514 [label="gini = 0.0\nsamples = 4\nvalue = [0, 7]\nclass = Yes", fillcolor="#399de5"] ;
513 -> 514 ;
515 [label="prev_outcome <= 0.167\ngini = 0.444\nsamples = 5\nvalue = [2, 4]\nclass = Yes", fillcolor="#9ccef2"] ;
513 -> 515 ;
516 [label="job <= 0.545\ngini = 0.375\nsamples = 3\nvalue = [1, 3]\nclass = Yes", fillcolor="#7bbeee"] ;
515 -> 516 ;
517 [label="gini = 0.0\nsamples = 1\nvalue = [1, 0]\nclass = No", fillcolor="#e58139"] ;
516 -> 517 ;
518 [label="gini = 0.0\nsamples = 2\nvalue = [0, 3]\nclass = Yes", fillcolor="#399de5"] ;
516 -> 518 ;
519 [label="dur <= 0.363\ngini = 0.5\nsamples = 2\nvalue = [1, 1]\nclass = No", fillcolor="#ffffff"] ;
515 -> 519 ;
520 [label="gini = 0.0\nsamples = 1\nvalue = [1, 0]\nclass = No", fillcolor="#e58139"] ;
519 -> 520 ;
521 [label="gini = 0.0\nsamples = 1\nvalue = [0, 1]\nclass = Yes", fillcolor="#399de5"] ;
519 -> 521 ;
522 [label="gini = 0.0\nsamples = 2\nvalue = [4, 0]\nclass = No", fillcolor="#e58139"] ;
512 -> 522 ;
523 [label="age <= 0.683\ngini = 0.493\nsamples = 79\nvalue = [56, 71]\nclass = Yes", fillcolor="#d5eafa"] ;
465 -> 523 ;
524 [label="age <= 0.413\ngini = 0.463\nsamples = 61\nvalue = [36, 63]\nclass = Yes", fillcolor="#aad5f4"] ;
523 -> 524 ;
525 [label="dur <= 0.523\ngini = 0.499\nsamples = 27\nvalue = [21, 23]\nclass = Yes", fillcolor="#eef6fd"] ;
524 -> 525 ;
526 [label="dur <= 0.232\ngini = 0.478\nsamples = 19\nvalue = [20, 13]\nclass = No", fillcolor="#f6d3ba"] ;
525 -> 526 ;
527 [label="dur <= 0.206\ngini = 0.463\nsamples = 8\nvalue = [4, 7]\nclass = Yes", fillcolor="#aad5f4"] ;
526 -> 527 ;
528 [label="num_calls <= 0.3\ngini = 0.444\nsamples = 5\nvalue = [4, 2]\nclass = No", fillcolor="#f2c09c"] ;
527 -> 528 ;
529 [label="dur <= 0.194\ngini = 0.5\nsamples = 3\nvalue = [2, 2]\nclass = No", fillcolor="#ffffff"] ;
528 -> 529 ;
530 [label="gini = 0.0\nsamples = 1\nvalue = [0, 2]\nclass = Yes", fillcolor="#399de5"] ;
529 -> 530 ;
531 [label="gini = 0.0\nsamples = 2\nvalue = [2, 0]\nclass = No", fillcolor="#e58139"] ;
529 -> 531 ;
532 [label="gini = 0.0\nsamples = 2\nvalue = [2, 0]\nclass = No", fillcolor="#e58139"] ;
528 -> 532 ;
533 [label="gini = 0.0\nsamples = 3\nvalue = [0, 5]\nclass = Yes", fillcolor="#399de5"] ;
527 -> 533 ;
534 [label="num_calls <= 0.4\ngini = 0.397\nsamples = 11\nvalue = [16, 6]\nclass = No", fillcolor="#efb083"] ;
526 -> 534 ;
535 [label="dur <= 0.383\ngini = 0.208\nsamples = 8\nvalue = [15, 2]\nclass = No", fillcolor="#e89253"] ;
534 -> 535 ;
536 [label="age <= 0.375\ngini = 0.133\nsamples = 6\nvalue = [13, 1]\nclass = No", fillcolor="#e78b48"] ;
535 -> 536 ;
537 [label="gini = 0.0\nsamples = 3\nvalue = [8, 0]\nclass = No", fillcolor="#e58139"] ;
536 -> 537 ;
538 [label="day <= 0.45\ngini = 0.278\nsamples = 3\nvalue = [5, 1]\nclass = No", fillcolor="#ea9a61"] ;
536 -> 538 ;
539 [label="gini = 0.0\nsamples = 2\nvalue = [5, 0]\nclass = No", fillcolor="#e58139"] ;
538 -> 539 ;
540 [label="gini = 0.0\nsamples = 1\nvalue = [0, 1]\nclass = Yes", fillcolor="#399de5"] ;
538 -> 540 ;
541 [label="day <= 0.233\ngini = 0.444\nsamples = 2\nvalue = [2, 1]\nclass = No", fillcolor="#f2c09c"] ;
535 -> 541 ;
542 [label="gini = 0.0\nsamples = 1\nvalue = [2, 0]\nclass = No", fillcolor="#e58139"] ;
541 -> 542 ;
543 [label="gini = 0.0\nsamples = 1\nvalue = [0, 1]\nclass = Yes", fillcolor="#399de5"] ;
541 -> 543 ;
544 [label="day <= 0.783\ngini = 0.32\nsamples = 3\nvalue = [1, 4]\nclass = Yes", fillcolor="#6ab6ec"] ;
534 -> 544 ;
545 [label="gini = 0.0\nsamples = 1\nvalue = [0, 2]\nclass = Yes", fillcolor="#399de5"] ;
544 -> 545 ;
546 [label="marital <= 0.75\ngini = 0.444\nsamples = 2\nvalue = [1, 2]\nclass = Yes", fillcolor="#9ccef2"] ;
544 -> 546 ;
547 [label="gini = 0.0\nsamples = 1\nvalue = [1, 0]\nclass = No", fillcolor="#e58139"] ;
546 -> 547 ;
548 [label="gini = 0.0\nsamples = 1\nvalue = [0, 2]\nclass = Yes", fillcolor="#399de5"] ;
546 -> 548 ;
549 [label="education_qual <= 0.5\ngini = 0.165\nsamples = 8\nvalue = [1, 10]\nclass = Yes", fillcolor="#4da7e8"] ;
525 -> 549 ;
550 [label="gini = 0.0\nsamples = 6\nvalue = [0, 9]\nclass = Yes", fillcolor="#399de5"] ;
549 -> 550 ;
551 [label="education_qual <= 0.833\ngini = 0.5\nsamples = 2\nvalue = [1, 1]\nclass = No", fillcolor="#ffffff"] ;
549 -> 551 ;
552 [label="gini = 0.0\nsamples = 1\nvalue = [1, 0]\nclass = No", fillcolor="#e58139"] ;
551 -> 552 ;
553 [label="gini = 0.0\nsamples = 1\nvalue = [0, 1]\nclass = Yes", fillcolor="#399de5"] ;
551 -> 553 ;
554 [label="education_qual <= 0.833\ngini = 0.397\nsamples = 34\nvalue = [15.0, 40.0]\nclass = Yes", fillcolor="#83c2ef"] ;
524 -> 554 ;
555 [label="education_qual <= 0.5\ngini = 0.355\nsamples = 33\nvalue = [12, 40]\nclass = Yes", fillcolor="#74baed"] ;
554 -> 555 ;
556 [label="mon <= 0.5\ngini = 0.444\nsamples = 15\nvalue = [8, 16]\nclass = Yes", fillcolor="#9ccef2"] ;
555 -> 556 ;
557 [label="call_type <= 0.25\ngini = 0.18\nsamples = 6\nvalue = [1, 9]\nclass = Yes", fillcolor="#4fa8e8"] ;
556 -> 557 ;
558 [label="age <= 0.529\ngini = 0.245\nsamples = 4\nvalue = [1, 6]\nclass = Yes", fillcolor="#5aade9"] ;
557 -> 558 ;
559 [label="education_qual <= 0.167\ngini = 0.5\nsamples = 2\nvalue = [1, 1]\nclass = No", fillcolor="#ffffff"] ;
558 -> 559 ;
560 [label="gini = 0.0\nsamples = 1\nvalue = [0, 1]\nclass = Yes", fillcolor="#399de5"] ;
559 -> 560 ;
561 [label="gini = 0.0\nsamples = 1\nvalue = [1, 0]\nclass = No", fillcolor="#e58139"] ;
559 -> 561 ;
562 [label="gini = 0.0\nsamples = 2\nvalue = [0, 5]\nclass = Yes", fillcolor="#399de5"] ;
558 -> 562 ;
563 [label="gini = 0.0\nsamples = 2\nvalue = [0, 3]\nclass = Yes", fillcolor="#399de5"] ;
557 -> 563 ;
564 [label="day <= 0.05\ngini = 0.5\nsamples = 9\nvalue = [7, 7]\nclass = No", fillcolor="#ffffff"] ;
556 -> 564 ;
565 [label="age <= 0.606\ngini = 0.375\nsamples = 3\nvalue = [1, 3]\nclass = Yes", fillcolor="#7bbeee"] ;
564 -> 565 ;
566 [label="gini = 0.0\nsamples = 2\nvalue = [0, 3]\nclass = Yes", fillcolor="#399de5"] ;
565 -> 566 ;
567 [label="gini = 0.0\nsamples = 1\nvalue = [1, 0]\nclass = No", fillcolor="#e58139"] ;
565 -> 567 ;
568 [label="education_qual <= 0.167\ngini = 0.48\nsamples = 6\nvalue = [6, 4]\nclass = No", fillcolor="#f6d5bd"] ;
564 -> 568 ;
569 [label="gini = 0.0\nsamples = 1\nvalue = [2, 0]\nclass = No", fillcolor="#e58139"] ;
568 -> 569 ;
570 [label="age <= 0.49\ngini = 0.5\nsamples = 5\nvalue = [4, 4]\nclass = No", fillcolor="#ffffff"] ;
568 -> 570 ;
571 [label="gini = 0.0\nsamples = 2\nvalue = [0, 3]\nclass = Yes", fillcolor="#399de5"] ;
570 -> 571 ;
572 [label="num_calls <= 0.2\ngini = 0.32\nsamples = 3\nvalue = [4, 1]\nclass = No", fillcolor="#eca06a"] ;
570 -> 572 ;
573 [label="gini = 0.0\nsamples = 2\nvalue = [4, 0]\nclass = No", fillcolor="#e58139"] ;
572 -> 573 ;
574 [label="gini = 0.0\nsamples = 1\nvalue = [0, 1]\nclass = Yes", fillcolor="#399de5"] ;
572 -> 574 ;
575 [label="job <= 0.318\ngini = 0.245\nsamples = 18\nvalue = [4, 24]\nclass = Yes", fillcolor="#5aade9"] ;
555 -> 575 ;
576 [label="gini = 0.0\nsamples = 1\nvalue = [2, 0]\nclass = No", fillcolor="#e58139"] ;
575 -> 576 ;
577 [label="marital <= 0.75\ngini = 0.142\nsamples = 17\nvalue = [2, 24]\nclass = Yes", fillcolor="#49a5e7"] ;
575 -> 577 ;
578 [label="day <= 0.083\ngini = 0.219\nsamples = 11\nvalue = [2, 14]\nclass = Yes", fillcolor="#55abe9"] ;
577 -> 578 ;
579 [label="age <= 0.51\ngini = 0.5\nsamples = 2\nvalue = [1, 1]\nclass = No", fillcolor="#ffffff"] ;
578 -> 579 ;
580 [label="gini = 0.0\nsamples = 1\nvalue = [1, 0]\nclass = No", fillcolor="#e58139"] ;
579 -> 580 ;
581 [label="gini = 0.0\nsamples = 1\nvalue = [0, 1]\nclass = Yes", fillcolor="#399de5"] ;
579 -> 581 ;
582 [label="dur <= 0.558\ngini = 0.133\nsamples = 9\nvalue = [1, 13]\nclass = Yes", fillcolor="#48a5e7"] ;
578 -> 582 ;
583 [label="gini = 0.0\nsamples = 6\nvalue = [0, 11]\nclass = Yes", fillcolor="#399de5"] ;
582 -> 583 ;
584 [label="dur <= 0.62\ngini = 0.444\nsamples = 3\nvalue = [1, 2]\nclass = Yes", fillcolor="#9ccef2"] ;
582 -> 584 ;
585 [label="gini = 0.0\nsamples = 1\nvalue = [1, 0]\nclass = No", fillcolor="#e58139"] ;
584 -> 585 ;
586 [label="gini = 0.0\nsamples = 2\nvalue = [0, 2]\nclass = Yes", fillcolor="#399de5"] ;
584 -> 586 ;
587 [label="gini = 0.0\nsamples = 6\nvalue = [0, 10]\nclass = Yes", fillcolor="#399de5"] ;
577 -> 587 ;
588 [label="gini = 0.0\nsamples = 1\nvalue = [3, 0]\nclass = No", fillcolor="#e58139"] ;
554 -> 588 ;
589 [label="age <= 0.779\ngini = 0.408\nsamples = 18\nvalue = [20, 8]\nclass = No", fillcolor="#efb388"] ;
523 -> 589 ;
590 [label="education_qual <= 0.5\ngini = 0.153\nsamples = 9\nvalue = [11, 1]\nclass = No", fillcolor="#e78c4b"] ;
589 -> 590 ;
591 [label="day <= 0.717\ngini = 0.32\nsamples = 4\nvalue = [4, 1]\nclass = No", fillcolor="#eca06a"] ;
590 -> 591 ;
592 [label="gini = 0.0\nsamples = 3\nvalue = [4, 0]\nclass = No", fillcolor="#e58139"] ;
591 -> 592 ;
593 [label="gini = 0.0\nsamples = 1\nvalue = [0, 1]\nclass = Yes", fillcolor="#399de5"] ;
591 -> 593 ;
594 [label="gini = 0.0\nsamples = 5\nvalue = [7, 0]\nclass = No", fillcolor="#e58139"] ;
590 -> 594 ;
595 [label="num_calls <= 0.4\ngini = 0.492\nsamples = 9\nvalue = [9, 7]\nclass = No", fillcolor="#f9e3d3"] ;
589 -> 595 ;
596 [label="dur <= 0.716\ngini = 0.497\nsamples = 7\nvalue = [6, 7]\nclass = Yes", fillcolor="#e3f1fb"] ;
595 -> 596 ;
597 [label="job <= 0.682\ngini = 0.245\nsamples = 5\nvalue = [6, 1]\nclass = No", fillcolor="#e9965a"] ;
596 -> 597 ;
598 [label="gini = 0.0\nsamples = 4\nvalue = [6, 0]\nclass = No", fillcolor="#e58139"] ;
597 -> 598 ;
599 [label="gini = 0.0\nsamples = 1\nvalue = [0, 1]\nclass = Yes", fillcolor="#399de5"] ;
597 -> 599 ;
600 [label="gini = 0.0\nsamples = 2\nvalue = [0, 6]\nclass = Yes", fillcolor="#399de5"] ;
596 -> 600 ;
601 [label="gini = 0.0\nsamples = 2\nvalue = [3, 0]\nclass = No", fillcolor="#e58139"] ;
595 -> 601 ;
602 [label="education_qual <= 0.167\ngini = 0.165\nsamples = 8\nvalue = [10, 1]\nclass = No", fillcolor="#e88e4d"] ;
446 -> 602 ;
603 [label="gini = 0.0\nsamples = 1\nvalue = [0, 1]\nclass = Yes", fillcolor="#399de5"] ;
602 -> 603 ;
604 [label="gini = 0.0\nsamples = 7\nvalue = [10, 0]\nclass = No", fillcolor="#e58139"] ;
602 -> 604 ;
605 [label="num_calls <= 0.7\ngini = 0.15\nsamples = 1429\nvalue = [2030, 180]\nclass = No", fillcolor="#e78c4b"] ;
5 -> 605 ;
606 [label="job <= 0.955\ngini = 0.156\nsamples = 1339\nvalue = [1904, 177]\nclass = No", fillcolor="#e78d4b"] ;
605 -> 606 ;
607 [label="job <= 0.318\ngini = 0.153\nsamples = 1335\nvalue = [1900, 173]\nclass = No", fillcolor="#e78c4b"] ;
606 -> 607 ;
608 [label="dur <= 0.635\ngini = 0.121\nsamples = 595\nvalue = [866.0, 60.0]\nclass = No", fillcolor="#e78a47"] ;
607 -> 608 ;
609 [label="dur <= 0.192\ngini = 0.09\nsamples = 534\nvalue = [791, 39]\nclass = No", fillcolor="#e68743"] ;
608 -> 609 ;
610 [label="gini = 0.0\nsamples = 189\nvalue = [281, 0]\nclass = No", fillcolor="#e58139"] ;
609 -> 610 ;
611 [label="day <= 0.85\ngini = 0.132\nsamples = 345\nvalue = [510, 39]\nclass = No", fillcolor="#e78b48"] ;
609 -> 611 ;
612 [label="job <= 0.045\ngini = 0.129\nsamples = 343\nvalue = [509, 38]\nclass = No", fillcolor="#e78a48"] ;
611 -> 612 ;
613 [label="mon <= 0.773\ngini = 0.239\nsamples = 81\nvalue = [112, 18]\nclass = No", fillcolor="#e99559"] ;
612 -> 613 ;
614 [label="dur <= 0.198\ngini = 0.284\nsamples = 66\nvalue = [87, 18]\nclass = No", fillcolor="#ea9b62"] ;
613 -> 614 ;
615 [label="num_calls <= 0.3\ngini = 0.291\nsamples = 7\nvalue = [3, 14]\nclass = Yes", fillcolor="#63b2eb"] ;
614 -> 615 ;
616 [label="gini = 0.0\nsamples = 3\nvalue = [0, 4]\nclass = Yes", fillcolor="#399de5"] ;
615 -> 616 ;
617 [label="prev_outcome <= 0.167\ngini = 0.355\nsamples = 4\nvalue = [3, 10]\nclass = Yes", fillcolor="#74baed"] ;
615 -> 617 ;
618 [label="gini = 0.0\nsamples = 2\nvalue = [0, 7]\nclass = Yes", fillcolor="#399de5"] ;
617 -> 618 ;
619 [label="day <= 0.283\ngini = 0.5\nsamples = 2\nvalue = [3, 3]\nclass = No", fillcolor="#ffffff"] ;
617 -> 619 ;
620 [label="gini = 0.0\nsamples = 1\nvalue = [0, 3]\nclass = Yes", fillcolor="#399de5"] ;
619 -> 620 ;
621 [label="gini = 0.0\nsamples = 1\nvalue = [3, 0]\nclass = No", fillcolor="#e58139"] ;
619 -> 621 ;
622 [label="education_qual <= 0.5\ngini = 0.087\nsamples = 59\nvalue = [84, 4]\nclass = No", fillcolor="#e68742"] ;
614 -> 622 ;
623 [label="gini = 0.0\nsamples = 51\nvalue = [76, 0]\nclass = No", fillcolor="#e58139"] ;
622 -> 623 ;
624 [label="marital <= 0.75\ngini = 0.444\nsamples = 8\nvalue = [8, 4]\nclass = No", fillcolor="#f2c09c"] ;
622 -> 624 ;
625 [label="day <= 0.4\ngini = 0.5\nsamples = 5\nvalue = [4, 4]\nclass = No", fillcolor="#ffffff"] ;
624 -> 625 ;
626 [label="gini = 0.0\nsamples = 3\nvalue = [4, 0]\nclass = No", fillcolor="#e58139"] ;
625 -> 626 ;
627 [label="gini = 0.0\nsamples = 2\nvalue = [0, 4]\nclass = Yes", fillcolor="#399de5"] ;
625 -> 627 ;
628 [label="gini = 0.0\nsamples = 3\nvalue = [4, 0]\nclass = No", fillcolor="#e58139"] ;
624 -> 628 ;
629 [label="gini = 0.0\nsamples = 15\nvalue = [25, 0]\nclass = No", fillcolor="#e58139"] ;
613 -> 629 ;
630 [label="day <= 0.35\ngini = 0.091\nsamples = 262\nvalue = [397, 20]\nclass = No", fillcolor="#e68743"] ;
612 -> 630 ;
631 [label="age <= 0.587\ngini = 0.027\nsamples = 90\nvalue = [143, 2]\nclass = No", fillcolor="#e5833c"] ;
630 -> 631 ;
632 [label="gini = 0.0\nsamples = 72\nvalue = [113, 0]\nclass = No", fillcolor="#e58139"] ;
631 -> 632 ;
633 [label="num_calls <= 0.1\ngini = 0.117\nsamples = 18\nvalue = [30, 2]\nclass = No", fillcolor="#e78946"] ;
631 -> 633 ;
634 [label="gini = 0.0\nsamples = 8\nvalue = [12, 0]\nclass = No", fillcolor="#e58139"] ;
633 -> 634 ;
635 [label="marital <= 0.75\ngini = 0.18\nsamples = 10\nvalue = [18, 2]\nclass = No", fillcolor="#e88f4f"] ;
633 -> 635 ;
636 [label="gini = 0.0\nsamples = 8\nvalue = [17, 0]\nclass = No", fillcolor="#e58139"] ;
635 -> 636 ;
637 [label="dur <= 0.245\ngini = 0.444\nsamples = 2\nvalue = [1, 2]\nclass = Yes", fillcolor="#9ccef2"] ;
635 -> 637 ;
638 [label="gini = 0.0\nsamples = 1\nvalue = [0, 2]\nclass = Yes", fillcolor="#399de5"] ;
637 -> 638 ;
639 [label="gini = 0.0\nsamples = 1\nvalue = [1, 0]\nclass = No", fillcolor="#e58139"] ;
637 -> 639 ;
640 [label="prev_outcome <= 0.167\ngini = 0.124\nsamples = 172\nvalue = [254, 18]\nclass = No", fillcolor="#e78a47"] ;
630 -> 640 ;
641 [label="education_qual <= 0.5\ngini = 0.148\nsamples = 139\nvalue = [205, 18]\nclass = No", fillcolor="#e78c4a"] ;
640 -> 641 ;
642 [label="day <= 0.383\ngini = 0.169\nsamples = 119\nvalue = [175, 18]\nclass = No", fillcolor="#e88e4d"] ;
641 -> 642 ;
643 [label="dur <= 0.351\ngini = 0.311\nsamples = 15\nvalue = [21, 5]\nclass = No", fillcolor="#eb9f68"] ;
642 -> 643 ;
644 [label="gini = 0.0\nsamples = 8\nvalue = [12, 0]\nclass = No", fillcolor="#e58139"] ;
643 -> 644 ;
645 [label="dur <= 0.39\ngini = 0.459\nsamples = 7\nvalue = [9, 5]\nclass = No", fillcolor="#f3c7a7"] ;
643 -> 645 ;
646 [label="gini = 0.0\nsamples = 2\nvalue = [0, 5]\nclass = Yes", fillcolor="#399de5"] ;
645 -> 646 ;
647 [label="gini = 0.0\nsamples = 5\nvalue = [9, 0]\nclass = No", fillcolor="#e58139"] ;
645 -> 647 ;
648 [label="day <= 0.55\ngini = 0.144\nsamples = 104\nvalue = [154, 13]\nclass = No", fillcolor="#e78c4a"] ;
642 -> 648 ;
649 [label="dur <= 0.194\ngini = 0.18\nsamples = 68\nvalue = [99, 11]\nclass = No", fillcolor="#e88f4f"] ;
648 -> 649 ;
650 [label="education_qual <= 0.167\ngini = 0.375\nsamples = 8\nvalue = [3, 9]\nclass = Yes", fillcolor="#7bbeee"] ;
649 -> 650 ;
651 [label="job <= 0.182\ngini = 0.444\nsamples = 6\nvalue = [3, 6]\nclass = Yes", fillcolor="#9ccef2"] ;
650 -> 651 ;
652 [label="marital <= 0.75\ngini = 0.245\nsamples = 5\nvalue = [1, 6]\nclass = Yes", fillcolor="#5aade9"] ;
651 -> 652 ;
653 [label="gini = 0.0\nsamples = 4\nvalue = [0, 6]\nclass = Yes", fillcolor="#399de5"] ;
652 -> 653 ;
654 [label="gini = 0.0\nsamples = 1\nvalue = [1, 0]\nclass = No", fillcolor="#e58139"] ;
652 -> 654 ;
655 [label="gini = 0.0\nsamples = 1\nvalue = [2, 0]\nclass = No", fillcolor="#e58139"] ;
651 -> 655 ;
656 [label="gini = 0.0\nsamples = 2\nvalue = [0, 3]\nclass = Yes", fillcolor="#399de5"] ;
650 -> 656 ;
657 [label="marital <= 0.25\ngini = 0.04\nsamples = 60\nvalue = [96.0, 2.0]\nclass = No", fillcolor="#e6843d"] ;
649 -> 657 ;
658 [label="day <= 0.417\ngini = 0.153\nsamples = 8\nvalue = [11, 1]\nclass = No", fillcolor="#e78c4b"] ;
657 -> 658 ;
659 [label="gini = 0.0\nsamples = 2\nvalue = [6, 0]\nclass = No", fillcolor="#e58139"] ;
658 -> 659 ;
660 [label="dur <= 0.302\ngini = 0.278\nsamples = 6\nvalue = [5, 1]\nclass = No", fillcolor="#ea9a61"] ;
658 -> 660 ;
661 [label="num_calls <= 0.1\ngini = 0.444\nsamples = 3\nvalue = [2, 1]\nclass = No", fillcolor="#f2c09c"] ;
660 -> 661 ;
662 [label="day <= 0.45\ngini = 0.5\nsamples = 2\nvalue = [1, 1]\nclass = No", fillcolor="#ffffff"] ;
661 -> 662 ;
663 [label="gini = 0.0\nsamples = 1\nvalue = [0, 1]\nclass = Yes", fillcolor="#399de5"] ;
662 -> 663 ;
664 [label="gini = 0.0\nsamples = 1\nvalue = [1, 0]\nclass = No", fillcolor="#e58139"] ;
662 -> 664 ;
665 [label="gini = 0.0\nsamples = 1\nvalue = [1, 0]\nclass = No", fillcolor="#e58139"] ;
661 -> 665 ;
666 [label="gini = 0.0\nsamples = 3\nvalue = [3, 0]\nclass = No", fillcolor="#e58139"] ;
660 -> 666 ;
667 [label="dur <= 0.477\ngini = 0.023\nsamples = 52\nvalue = [85, 1]\nclass = No", fillcolor="#e5823b"] ;
657 -> 667 ;
668 [label="gini = 0.0\nsamples = 40\nvalue = [69, 0]\nclass = No", fillcolor="#e58139"] ;
667 -> 668 ;
669 [label="dur <= 0.479\ngini = 0.111\nsamples = 12\nvalue = [16, 1]\nclass = No", fillcolor="#e78945"] ;
667 -> 669 ;
670 [label="gini = 0.0\nsamples = 1\nvalue = [0, 1]\nclass = Yes", fillcolor="#399de5"] ;
669 -> 670 ;
671 [label="gini = 0.0\nsamples = 11\nvalue = [16, 0]\nclass = No", fillcolor="#e58139"] ;
669 -> 671 ;
672 [label="age <= 0.24\ngini = 0.068\nsamples = 36\nvalue = [55, 2]\nclass = No", fillcolor="#e68640"] ;
648 -> 672 ;
673 [label="day <= 0.6\ngini = 0.346\nsamples = 6\nvalue = [7, 2]\nclass = No", fillcolor="#eca572"] ;
672 -> 673 ;
674 [label="gini = 0.0\nsamples = 4\nvalue = [6, 0]\nclass = No", fillcolor="#e58139"] ;
673 -> 674 ;
675 [label="dur <= 0.411\ngini = 0.444\nsamples = 2\nvalue = [1, 2]\nclass = Yes", fillcolor="#9ccef2"] ;
673 -> 675 ;
676 [label="gini = 0.0\nsamples = 1\nvalue = [0, 2]\nclass = Yes", fillcolor="#399de5"] ;
675 -> 676 ;
677 [label="gini = 0.0\nsamples = 1\nvalue = [1, 0]\nclass = No", fillcolor="#e58139"] ;
675 -> 677 ;
678 [label="gini = 0.0\nsamples = 30\nvalue = [48, 0]\nclass = No", fillcolor="#e58139"] ;
672 -> 678 ;
679 [label="gini = 0.0\nsamples = 20\nvalue = [30, 0]\nclass = No", fillcolor="#e58139"] ;
641 -> 679 ;
680 [label="gini = 0.0\nsamples = 33\nvalue = [49, 0]\nclass = No", fillcolor="#e58139"] ;
640 -> 680 ;
681 [label="prev_outcome <= 0.167\ngini = 0.5\nsamples = 2\nvalue = [1, 1]\nclass = No", fillcolor="#ffffff"] ;
611 -> 681 ;
682 [label="gini = 0.0\nsamples = 1\nvalue = [0, 1]\nclass = Yes", fillcolor="#399de5"] ;
681 -> 682 ;
683 [label="gini = 0.0\nsamples = 1\nvalue = [1, 0]\nclass = No", fillcolor="#e58139"] ;
681 -> 683 ;
684 [label="num_calls <= 0.1\ngini = 0.342\nsamples = 61\nvalue = [75, 21]\nclass = No", fillcolor="#eca470"] ;
608 -> 684 ;
685 [label="day <= 0.717\ngini = 0.444\nsamples = 32\nvalue = [34, 17]\nclass = No", fillcolor="#f2c09c"] ;
684 -> 685 ;
686 [label="age <= 0.481\ngini = 0.425\nsamples = 31\nvalue = [34, 15]\nclass = No", fillcolor="#f0b990"] ;
685 -> 686 ;
687 [label="day <= 0.15\ngini = 0.343\nsamples = 24\nvalue = [32, 9]\nclass = No", fillcolor="#eca471"] ;
686 -> 687 ;
688 [label="gini = 0.0\nsamples = 1\nvalue = [0, 1]\nclass = Yes", fillcolor="#399de5"] ;
687 -> 688 ;
689 [label="age <= 0.202\ngini = 0.32\nsamples = 23\nvalue = [32, 8]\nclass = No", fillcolor="#eca06a"] ;
687 -> 689 ;
690 [label="marital <= 0.75\ngini = 0.49\nsamples = 4\nvalue = [3, 4]\nclass = Yes", fillcolor="#cee6f8"] ;
689 -> 690 ;
691 [label="dur <= 0.638\ngini = 0.375\nsamples = 3\nvalue = [3, 1]\nclass = No", fillcolor="#eeab7b"] ;
690 -> 691 ;
692 [label="gini = 0.0\nsamples = 1\nvalue = [0, 1]\nclass = Yes", fillcolor="#399de5"] ;
691 -> 692 ;
693 [label="gini = 0.0\nsamples = 2\nvalue = [3, 0]\nclass = No", fillcolor="#e58139"] ;
691 -> 693 ;
694 [label="gini = 0.0\nsamples = 1\nvalue = [0, 3]\nclass = Yes", fillcolor="#399de5"] ;
690 -> 694 ;
695 [label="day <= 0.45\ngini = 0.213\nsamples = 19\nvalue = [29, 4]\nclass = No", fillcolor="#e99254"] ;
689 -> 695 ;
696 [label="dur <= 0.698\ngini = 0.287\nsamples = 13\nvalue = [19, 4]\nclass = No", fillcolor="#ea9c63"] ;
695 -> 696 ;
697 [label="gini = 0.0\nsamples = 6\nvalue = [12, 0]\nclass = No", fillcolor="#e58139"] ;
696 -> 697 ;
698 [label="age <= 0.288\ngini = 0.463\nsamples = 7\nvalue = [7, 4]\nclass = No", fillcolor="#f4c9aa"] ;
696 -> 698 ;
699 [label="gini = 0.0\nsamples = 1\nvalue = [3, 0]\nclass = No", fillcolor="#e58139"] ;
698 -> 699 ;
700 [label="education_qual <= 0.167\ngini = 0.5\nsamples = 6\nvalue = [4, 4]\nclass = No", fillcolor="#ffffff"] ;
698 -> 700 ;
701 [label="gini = 0.0\nsamples = 2\nvalue = [2, 0]\nclass = No", fillcolor="#e58139"] ;
700 -> 701 ;
702 [label="age <= 0.365\ngini = 0.444\nsamples = 4\nvalue = [2, 4]\nclass = Yes", fillcolor="#9ccef2"] ;
700 -> 702 ;
703 [label="gini = 0.0\nsamples = 3\nvalue = [0, 4]\nclass = Yes", fillcolor="#399de5"] ;
702 -> 703 ;
704 [label="gini = 0.0\nsamples = 1\nvalue = [2, 0]\nclass = No", fillcolor="#e58139"] ;
702 -> 704 ;
705 [label="gini = 0.0\nsamples = 6\nvalue = [10, 0]\nclass = No", fillcolor="#e58139"] ;
695 -> 705 ;
706 [label="dur <= 0.881\ngini = 0.375\nsamples = 7\nvalue = [2, 6]\nclass = Yes", fillcolor="#7bbeee"] ;
686 -> 706 ;
707 [label="dur <= 0.735\ngini = 0.245\nsamples = 6\nvalue = [1, 6]\nclass = Yes", fillcolor="#5aade9"] ;
706 -> 707 ;
708 [label="marital <= 0.25\ngini = 0.444\nsamples = 3\nvalue = [1, 2]\nclass = Yes", fillcolor="#9ccef2"] ;
707 -> 708 ;
709 [label="gini = 0.0\nsamples = 1\nvalue = [1, 0]\nclass = No", fillcolor="#e58139"] ;
708 -> 709 ;
710 [label="gini = 0.0\nsamples = 2\nvalue = [0, 2]\nclass = Yes", fillcolor="#399de5"] ;
708 -> 710 ;
711 [label="gini = 0.0\nsamples = 3\nvalue = [0, 4]\nclass = Yes", fillcolor="#399de5"] ;
707 -> 711 ;
712 [label="gini = 0.0\nsamples = 1\nvalue = [1, 0]\nclass = No", fillcolor="#e58139"] ;
706 -> 712 ;
713 [label="gini = 0.0\nsamples = 1\nvalue = [0, 2]\nclass = Yes", fillcolor="#399de5"] ;
685 -> 713 ;
714 [label="age <= 0.596\ngini = 0.162\nsamples = 29\nvalue = [41, 4]\nclass = No", fillcolor="#e88d4c"] ;
684 -> 714 ;
715 [label="day <= 0.283\ngini = 0.1\nsamples = 24\nvalue = [36, 2]\nclass = No", fillcolor="#e68844"] ;
714 -> 715 ;
716 [label="prev_outcome <= 0.167\ngini = 0.278\nsamples = 9\nvalue = [10, 2]\nclass = No", fillcolor="#ea9a61"] ;
715 -> 716 ;
717 [label="call_type <= 0.25\ngini = 0.18\nsamples = 7\nvalue = [9, 1]\nclass = No", fillcolor="#e88f4f"] ;
716 -> 717 ;
718 [label="day <= 0.217\ngini = 0.278\nsamples = 5\nvalue = [5, 1]\nclass = No", fillcolor="#ea9a61"] ;
717 -> 718 ;
719 [label="gini = 0.0\nsamples = 4\nvalue = [5, 0]\nclass = No", fillcolor="#e58139"] ;
718 -> 719 ;
720 [label="gini = 0.0\nsamples = 1\nvalue = [0, 1]\nclass = Yes", fillcolor="#399de5"] ;
718 -> 720 ;
721 [label="gini = 0.0\nsamples = 2\nvalue = [4, 0]\nclass = No", fillcolor="#e58139"] ;
717 -> 721 ;
722 [label="num_calls <= 0.5\ngini = 0.5\nsamples = 2\nvalue = [1, 1]\nclass = No", fillcolor="#ffffff"] ;
716 -> 722 ;
723 [label="gini = 0.0\nsamples = 1\nvalue = [0, 1]\nclass = Yes", fillcolor="#399de5"] ;
722 -> 723 ;
724 [label="gini = 0.0\nsamples = 1\nvalue = [1, 0]\nclass = No", fillcolor="#e58139"] ;
722 -> 724 ;
725 [label="gini = 0.0\nsamples = 15\nvalue = [26, 0]\nclass = No", fillcolor="#e58139"] ;
715 -> 725 ;
726 [label="dur <= 0.942\ngini = 0.408\nsamples = 5\nvalue = [5, 2]\nclass = No", fillcolor="#efb388"] ;
714 -> 726 ;
727 [label="gini = 0.0\nsamples = 4\nvalue = [5, 0]\nclass = No", fillcolor="#e58139"] ;
726 -> 727 ;
728 [label="gini = 0.0\nsamples = 1\nvalue = [0, 2]\nclass = Yes", fillcolor="#399de5"] ;
726 -> 728 ;
729 [label="dur <= 0.192\ngini = 0.178\nsamples = 740\nvalue = [1034, 113]\nclass = No", fillcolor="#e88f4f"] ;
607 -> 729 ;
730 [label="job <= 0.864\ngini = 0.031\nsamples = 250\nvalue = [379, 6]\nclass = No", fillcolor="#e5833c"] ;
729 -> 730 ;
731 [label="age <= 0.798\ngini = 0.026\nsamples = 245\nvalue = [373, 5]\nclass = No", fillcolor="#e5833c"] ;
730 -> 731 ;
732 [label="day <= 0.75\ngini = 0.011\nsamples = 242\nvalue = [370, 2]\nclass = No", fillcolor="#e5823a"] ;
731 -> 732 ;
733 [label="gini = 0.0\nsamples = 234\nvalue = [363, 0]\nclass = No", fillcolor="#e58139"] ;
732 -> 733 ;
734 [label="dur <= 0.138\ngini = 0.346\nsamples = 8\nvalue = [7, 2]\nclass = No", fillcolor="#eca572"] ;
732 -> 734 ;
735 [label="gini = 0.0\nsamples = 3\nvalue = [4, 0]\nclass = No", fillcolor="#e58139"] ;
734 -> 735 ;
736 [label="num_calls <= 0.1\ngini = 0.48\nsamples = 5\nvalue = [3, 2]\nclass = No", fillcolor="#f6d5bd"] ;
734 -> 736 ;
737 [label="marital <= 0.75\ngini = 0.375\nsamples = 4\nvalue = [3, 1]\nclass = No", fillcolor="#eeab7b"] ;
736 -> 737 ;
738 [label="gini = 0.0\nsamples = 3\nvalue = [3, 0]\nclass = No", fillcolor="#e58139"] ;
737 -> 738 ;
739 [label="gini = 0.0\nsamples = 1\nvalue = [0, 1]\nclass = Yes", fillcolor="#399de5"] ;
737 -> 739 ;
740 [label="gini = 0.0\nsamples = 1\nvalue = [0, 1]\nclass = Yes", fillcolor="#399de5"] ;
736 -> 740 ;
741 [label="dur <= 0.149\ngini = 0.5\nsamples = 3\nvalue = [3, 3]\nclass = No", fillcolor="#ffffff"] ;
731 -> 741 ;
742 [label="gini = 0.0\nsamples = 2\nvalue = [3, 0]\nclass = No", fillcolor="#e58139"] ;
741 -> 742 ;
743 [label="gini = 0.0\nsamples = 1\nvalue = [0, 3]\nclass = Yes", fillcolor="#399de5"] ;
741 -> 743 ;
744 [label="age <= 0.24\ngini = 0.245\nsamples = 5\nvalue = [6, 1]\nclass = No", fillcolor="#e9965a"] ;
730 -> 744 ;
745 [label="gini = 0.0\nsamples = 1\nvalue = [0, 1]\nclass = Yes", fillcolor="#399de5"] ;
744 -> 745 ;
746 [label="gini = 0.0\nsamples = 4\nvalue = [6, 0]\nclass = No", fillcolor="#e58139"] ;
744 -> 746 ;
747 [label="job <= 0.773\ngini = 0.241\nsamples = 490\nvalue = [655, 107]\nclass = No", fillcolor="#e99659"] ;
729 -> 747 ;
748 [label="day <= 0.117\ngini = 0.284\nsamples = 336\nvalue = [430, 89]\nclass = No", fillcolor="#ea9b62"] ;
747 -> 748 ;
749 [label="prev_outcome <= 0.167\ngini = 0.48\nsamples = 12\nvalue = [8, 12]\nclass = Yes", fillcolor="#bddef6"] ;
748 -> 749 ;
750 [label="num_calls <= 0.1\ngini = 0.375\nsamples = 9\nvalue = [4, 12]\nclass = Yes", fillcolor="#7bbeee"] ;
749 -> 750 ;
751 [label="gini = 0.0\nsamples = 5\nvalue = [0, 10]\nclass = Yes", fillcolor="#399de5"] ;
750 -> 751 ;
752 [label="num_calls <= 0.3\ngini = 0.444\nsamples = 4\nvalue = [4, 2]\nclass = No", fillcolor="#f2c09c"] ;
750 -> 752 ;
753 [label="gini = 0.0\nsamples = 2\nvalue = [4, 0]\nclass = No", fillcolor="#e58139"] ;
752 -> 753 ;
754 [label="gini = 0.0\nsamples = 2\nvalue = [0, 2]\nclass = Yes", fillcolor="#399de5"] ;
752 -> 754 ;
755 [label="gini = 0.0\nsamples = 3\nvalue = [4, 0]\nclass = No", fillcolor="#e58139"] ;
749 -> 755 ;
756 [label="dur <= 0.194\ngini = 0.261\nsamples = 324\nvalue = [422, 77]\nclass = No", fillcolor="#ea985d"] ;
748 -> 756 ;
757 [label="day <= 0.583\ngini = 0.462\nsamples = 33\nvalue = [17, 30]\nclass = Yes", fillcolor="#a9d5f4"] ;
756 -> 757 ;
758 [label="marital <= 0.75\ngini = 0.368\nsamples = 26\nvalue = [9, 28]\nclass = Yes", fillcolor="#79bced"] ;
757 -> 758 ;
759 [label="day <= 0.183\ngini = 0.444\nsamples = 18\nvalue = [9, 18]\nclass = Yes", fillcolor="#9ccef2"] ;
758 -> 759 ;
760 [label="gini = 0.0\nsamples = 2\nvalue = [0, 6]\nclass = Yes", fillcolor="#399de5"] ;
759 -> 760 ;
761 [label="age <= 0.433\ngini = 0.49\nsamples = 16\nvalue = [9, 12]\nclass = Yes", fillcolor="#cee6f8"] ;
759 -> 761 ;
762 [label="job <= 0.591\ngini = 0.245\nsamples = 5\nvalue = [6, 1]\nclass = No", fillcolor="#e9965a"] ;
761 -> 762 ;
763 [label="gini = 0.0\nsamples = 4\nvalue = [6, 0]\nclass = No", fillcolor="#e58139"] ;
762 -> 763 ;
764 [label="gini = 0.0\nsamples = 1\nvalue = [0, 1]\nclass = Yes", fillcolor="#399de5"] ;
762 -> 764 ;
765 [label="num_calls <= 0.3\ngini = 0.337\nsamples = 11\nvalue = [3, 11]\nclass = Yes", fillcolor="#6fb8ec"] ;
761 -> 765 ;
766 [label="call_type <= 0.25\ngini = 0.49\nsamples = 6\nvalue = [3, 4]\nclass = Yes", fillcolor="#cee6f8"] ;
765 -> 766 ;
767 [label="day <= 0.4\ngini = 0.32\nsamples = 5\nvalue = [1, 4]\nclass = Yes", fillcolor="#6ab6ec"] ;
766 -> 767 ;
768 [label="num_calls <= 0.1\ngini = 0.5\nsamples = 2\nvalue = [1, 1]\nclass = No", fillcolor="#ffffff"] ;
767 -> 768 ;
769 [label="gini = 0.0\nsamples = 1\nvalue = [0, 1]\nclass = Yes", fillcolor="#399de5"] ;
768 -> 769 ;
770 [label="gini = 0.0\nsamples = 1\nvalue = [1, 0]\nclass = No", fillcolor="#e58139"] ;
768 -> 770 ;
771 [label="gini = 0.0\nsamples = 3\nvalue = [0, 3]\nclass = Yes", fillcolor="#399de5"] ;
767 -> 771 ;
772 [label="gini = 0.0\nsamples = 1\nvalue = [2, 0]\nclass = No", fillcolor="#e58139"] ;
766 -> 772 ;
773 [label="gini = 0.0\nsamples = 5\nvalue = [0, 7]\nclass = Yes", fillcolor="#399de5"] ;
765 -> 773 ;
774 [label="gini = 0.0\nsamples = 8\nvalue = [0, 10]\nclass = Yes", fillcolor="#399de5"] ;
758 -> 774 ;
775 [label="mon <= 0.773\ngini = 0.32\nsamples = 7\nvalue = [8, 2]\nclass = No", fillcolor="#eca06a"] ;
757 -> 775 ;
776 [label="gini = 0.0\nsamples = 1\nvalue = [0, 1]\nclass = Yes", fillcolor="#399de5"] ;
775 -> 776 ;
777 [label="prev_outcome <= 0.167\ngini = 0.198\nsamples = 6\nvalue = [8, 1]\nclass = No", fillcolor="#e89152"] ;
775 -> 777 ;
778 [label="gini = 0.0\nsamples = 4\nvalue = [7, 0]\nclass = No", fillcolor="#e58139"] ;
777 -> 778 ;
779 [label="age <= 0.587\ngini = 0.5\nsamples = 2\nvalue = [1, 1]\nclass = No", fillcolor="#ffffff"] ;
777 -> 779 ;
780 [label="gini = 0.0\nsamples = 1\nvalue = [0, 1]\nclass = Yes", fillcolor="#399de5"] ;
779 -> 780 ;
781 [label="gini = 0.0\nsamples = 1\nvalue = [1, 0]\nclass = No", fillcolor="#e58139"] ;
779 -> 781 ;
782 [label="age <= 0.125\ngini = 0.186\nsamples = 291\nvalue = [405, 47]\nclass = No", fillcolor="#e89050"] ;
756 -> 782 ;
783 [label="dur <= 0.385\ngini = 0.408\nsamples = 4\nvalue = [2, 5]\nclass = Yes", fillcolor="#88c4ef"] ;
782 -> 783 ;
784 [label="gini = 0.0\nsamples = 2\nvalue = [2, 0]\nclass = No", fillcolor="#e58139"] ;
783 -> 784 ;
785 [label="gini = 0.0\nsamples = 2\nvalue = [0, 5]\nclass = Yes", fillcolor="#399de5"] ;
783 -> 785 ;
786 [label="day <= 0.683\ngini = 0.171\nsamples = 287\nvalue = [403, 42]\nclass = No", fillcolor="#e88e4e"] ;
782 -> 786 ;
787 [label="marital <= 0.25\ngini = 0.122\nsamples = 267\nvalue = [387, 27]\nclass = No", fillcolor="#e78a47"] ;
786 -> 787 ;
788 [label="gini = 0.0\nsamples = 39\nvalue = [62, 0]\nclass = No", fillcolor="#e58139"] ;
787 -> 788 ;
789 [label="dur <= 0.586\ngini = 0.142\nsamples = 228\nvalue = [325, 27]\nclass = No", fillcolor="#e78b49"] ;
787 -> 789 ;
790 [label="marital <= 0.75\ngini = 0.092\nsamples = 190\nvalue = [276, 14]\nclass = No", fillcolor="#e68743"] ;
789 -> 790 ;
791 [label="mon <= 0.773\ngini = 0.127\nsamples = 127\nvalue = [177, 13]\nclass = No", fillcolor="#e78a48"] ;
790 -> 791 ;
792 [label="dur <= 0.351\ngini = 0.05\nsamples = 77\nvalue = [114, 3]\nclass = No", fillcolor="#e6843e"] ;
791 -> 792 ;
793 [label="gini = 0.0\nsamples = 48\nvalue = [71, 0]\nclass = No", fillcolor="#e58139"] ;
792 -> 793 ;
794 [label="age <= 0.279\ngini = 0.122\nsamples = 29\nvalue = [43, 3]\nclass = No", fillcolor="#e78a47"] ;
792 -> 794 ;
795 [label="age <= 0.26\ngini = 0.298\nsamples = 6\nvalue = [9, 2]\nclass = No", fillcolor="#eb9d65"] ;
794 -> 795 ;
796 [label="gini = 0.0\nsamples = 5\nvalue = [9, 0]\nclass = No", fillcolor="#e58139"] ;
795 -> 796 ;
797 [label="gini = 0.0\nsamples = 1\nvalue = [0, 2]\nclass = Yes", fillcolor="#399de5"] ;
795 -> 797 ;
798 [label="education_qual <= 0.5\ngini = 0.056\nsamples = 23\nvalue = [34, 1]\nclass = No", fillcolor="#e6853f"] ;
794 -> 798 ;
799 [label="gini = 0.0\nsamples = 14\nvalue = [22, 0]\nclass = No", fillcolor="#e58139"] ;
798 -> 799 ;
800 [label="dur <= 0.445\ngini = 0.142\nsamples = 9\nvalue = [12, 1]\nclass = No", fillcolor="#e78c49"] ;
798 -> 800 ;
801 [label="gini = 0.0\nsamples = 5\nvalue = [7, 0]\nclass = No", fillcolor="#e58139"] ;
800 -> 801 ;
802 [label="day <= 0.533\ngini = 0.278\nsamples = 4\nvalue = [5, 1]\nclass = No", fillcolor="#ea9a61"] ;
800 -> 802 ;
803 [label="gini = 0.0\nsamples = 3\nvalue = [5, 0]\nclass = No", fillcolor="#e58139"] ;
802 -> 803 ;
804 [label="gini = 0.0\nsamples = 1\nvalue = [0, 1]\nclass = Yes", fillcolor="#399de5"] ;
802 -> 804 ;
805 [label="day <= 0.433\ngini = 0.236\nsamples = 50\nvalue = [63, 10]\nclass = No", fillcolor="#e99558"] ;
791 -> 805 ;
806 [label="age <= 0.712\ngini = 0.486\nsamples = 6\nvalue = [5, 7]\nclass = Yes", fillcolor="#c6e3f8"] ;
805 -> 806 ;
807 [label="age <= 0.269\ngini = 0.469\nsamples = 5\nvalue = [5, 3]\nclass = No", fillcolor="#f5cdb0"] ;
806 -> 807 ;
808 [label="gini = 0.0\nsamples = 1\nvalue = [2, 0]\nclass = No", fillcolor="#e58139"] ;
807 -> 808 ;
809 [label="day <= 0.317\ngini = 0.5\nsamples = 4\nvalue = [3, 3]\nclass = No", fillcolor="#ffffff"] ;
807 -> 809 ;
810 [label="gini = 0.0\nsamples = 2\nvalue = [3, 0]\nclass = No", fillcolor="#e58139"] ;
809 -> 810 ;
811 [label="gini = 0.0\nsamples = 2\nvalue = [0, 3]\nclass = Yes", fillcolor="#399de5"] ;
809 -> 811 ;
812 [label="gini = 0.0\nsamples = 1\nvalue = [0, 4]\nclass = Yes", fillcolor="#399de5"] ;
806 -> 812 ;
813 [label="day <= 0.65\ngini = 0.094\nsamples = 44\nvalue = [58, 3]\nclass = No", fillcolor="#e68843"] ;
805 -> 813 ;
814 [label="day <= 0.55\ngini = 0.038\nsamples = 38\nvalue = [51, 1]\nclass = No", fillcolor="#e6833d"] ;
813 -> 814 ;
815 [label="education_qual <= 0.5\ngini = 0.111\nsamples = 11\nvalue = [16, 1]\nclass = No", fillcolor="#e78945"] ;
814 -> 815 ;
816 [label="job <= 0.409\ngini = 0.375\nsamples = 3\nvalue = [3, 1]\nclass = No", fillcolor="#eeab7b"] ;
815 -> 816 ;
817 [label="gini = 0.0\nsamples = 2\nvalue = [3, 0]\nclass = No", fillcolor="#e58139"] ;
816 -> 817 ;
818 [label="gini = 0.0\nsamples = 1\nvalue = [0, 1]\nclass = Yes", fillcolor="#399de5"] ;
816 -> 818 ;
819 [label="gini = 0.0\nsamples = 8\nvalue = [13, 0]\nclass = No", fillcolor="#e58139"] ;
815 -> 819 ;
820 [label="gini = 0.0\nsamples = 27\nvalue = [35, 0]\nclass = No", fillcolor="#e58139"] ;
814 -> 820 ;
821 [label="prev_outcome <= 0.167\ngini = 0.346\nsamples = 6\nvalue = [7, 2]\nclass = No", fillcolor="#eca572"] ;
813 -> 821 ;
822 [label="gini = 0.0\nsamples = 3\nvalue = [4, 0]\nclass = No", fillcolor="#e58139"] ;
821 -> 822 ;
823 [label="num_calls <= 0.3\ngini = 0.48\nsamples = 3\nvalue = [3, 2]\nclass = No", fillcolor="#f6d5bd"] ;
821 -> 823 ;
824 [label="gini = 0.0\nsamples = 2\nvalue = [3, 0]\nclass = No", fillcolor="#e58139"] ;
823 -> 824 ;
825 [label="gini = 0.0\nsamples = 1\nvalue = [0, 2]\nclass = Yes", fillcolor="#399de5"] ;
823 -> 825 ;
826 [label="age <= 0.683\ngini = 0.02\nsamples = 63\nvalue = [99, 1]\nclass = No", fillcolor="#e5823b"] ;
790 -> 826 ;
827 [label="gini = 0.0\nsamples = 62\nvalue = [99, 0]\nclass = No", fillcolor="#e58139"] ;
826 -> 827 ;
828 [label="gini = 0.0\nsamples = 1\nvalue = [0, 1]\nclass = Yes", fillcolor="#399de5"] ;
826 -> 828 ;
829 [label="age <= 0.24\ngini = 0.331\nsamples = 38\nvalue = [49, 13]\nclass = No", fillcolor="#eca26e"] ;
789 -> 829 ;
830 [label="job <= 0.5\ngini = 0.496\nsamples = 7\nvalue = [6, 5]\nclass = No", fillcolor="#fbeade"] ;
829 -> 830 ;
831 [label="prev_outcome <= 0.167\ngini = 0.444\nsamples = 3\nvalue = [2, 4]\nclass = Yes", fillcolor="#9ccef2"] ;
830 -> 831 ;
832 [label="gini = 0.0\nsamples = 1\nvalue = [2, 0]\nclass = No", fillcolor="#e58139"] ;
831 -> 832 ;
833 [label="gini = 0.0\nsamples = 2\nvalue = [0, 4]\nclass = Yes", fillcolor="#399de5"] ;
831 -> 833 ;
834 [label="day <= 0.467\ngini = 0.32\nsamples = 4\nvalue = [4, 1]\nclass = No", fillcolor="#eca06a"] ;
830 -> 834 ;
835 [label="gini = 0.0\nsamples = 2\nvalue = [3, 0]\nclass = No", fillcolor="#e58139"] ;
834 -> 835 ;
836 [label="education_qual <= 0.5\ngini = 0.5\nsamples = 2\nvalue = [1, 1]\nclass = No", fillcolor="#ffffff"] ;
834 -> 836 ;
837 [label="gini = 0.0\nsamples = 1\nvalue = [1, 0]\nclass = No", fillcolor="#e58139"] ;
836 -> 837 ;
838 [label="gini = 0.0\nsamples = 1\nvalue = [0, 1]\nclass = Yes", fillcolor="#399de5"] ;
836 -> 838 ;
839 [label="education_qual <= 0.5\ngini = 0.265\nsamples = 31\nvalue = [43, 8]\nclass = No", fillcolor="#ea985e"] ;
829 -> 839 ;
840 [label="marital <= 0.75\ngini = 0.153\nsamples = 14\nvalue = [22, 2]\nclass = No", fillcolor="#e78c4b"] ;
839 -> 840 ;
841 [label="age <= 0.548\ngini = 0.32\nsamples = 9\nvalue = [8, 2]\nclass = No", fillcolor="#eca06a"] ;
840 -> 841 ;
842 [label="prev_outcome <= 0.167\ngini = 0.219\nsamples = 7\nvalue = [7, 1]\nclass = No", fillcolor="#e99355"] ;
841 -> 842 ;
843 [label="mon <= 0.773\ngini = 0.278\nsamples = 5\nvalue = [5, 1]\nclass = No", fillcolor="#ea9a61"] ;
842 -> 843 ;
844 [label="day <= 0.367\ngini = 0.444\nsamples = 2\nvalue = [2, 1]\nclass = No", fillcolor="#f2c09c"] ;
843 -> 844 ;
845 [label="gini = 0.0\nsamples = 1\nvalue = [0, 1]\nclass = Yes", fillcolor="#399de5"] ;
844 -> 845 ;
846 [label="gini = 0.0\nsamples = 1\nvalue = [2, 0]\nclass = No", fillcolor="#e58139"] ;
844 -> 846 ;
847 [label="gini = 0.0\nsamples = 3\nvalue = [3, 0]\nclass = No", fillcolor="#e58139"] ;
843 -> 847 ;
848 [label="gini = 0.0\nsamples = 2\nvalue = [2, 0]\nclass = No", fillcolor="#e58139"] ;
842 -> 848 ;
849 [label="prev_outcome <= 0.167\ngini = 0.5\nsamples = 2\nvalue = [1, 1]\nclass = No", fillcolor="#ffffff"] ;
841 -> 849 ;
850 [label="gini = 0.0\nsamples = 1\nvalue = [0, 1]\nclass = Yes", fillcolor="#399de5"] ;
849 -> 850 ;
851 [label="gini = 0.0\nsamples = 1\nvalue = [1, 0]\nclass = No", fillcolor="#e58139"] ;
849 -> 851 ;
852 [label="gini = 0.0\nsamples = 5\nvalue = [14, 0]\nclass = No", fillcolor="#e58139"] ;
840 -> 852 ;
853 [label="day <= 0.417\ngini = 0.346\nsamples = 17\nvalue = [21, 6]\nclass = No", fillcolor="#eca572"] ;
839 -> 853 ;
854 [label="num_calls <= 0.1\ngini = 0.117\nsamples = 10\nvalue = [15, 1]\nclass = No", fillcolor="#e78946"] ;
853 -> 854 ;
855 [label="marital <= 0.75\ngini = 0.18\nsamples = 7\nvalue = [9, 1]\nclass = No", fillcolor="#e88f4f"] ;
854 -> 855 ;
856 [label="gini = 0.0\nsamples = 2\nvalue = [2, 0]\nclass = No", fillcolor="#e58139"] ;
855 -> 856 ;
857 [label="day <= 0.183\ngini = 0.219\nsamples = 5\nvalue = [7, 1]\nclass = No", fillcolor="#e99355"] ;
855 -> 857 ;
858 [label="age <= 0.327\ngini = 0.444\nsamples = 2\nvalue = [2, 1]\nclass = No", fillcolor="#f2c09c"] ;
857 -> 858 ;
859 [label="gini = 0.0\nsamples = 1\nvalue = [2, 0]\nclass = No", fillcolor="#e58139"] ;
858 -> 859 ;
860 [label="gini = 0.0\nsamples = 1\nvalue = [0, 1]\nclass = Yes", fillcolor="#399de5"] ;
858 -> 860 ;
861 [label="gini = 0.0\nsamples = 3\nvalue = [5, 0]\nclass = No", fillcolor="#e58139"] ;
857 -> 861 ;
862 [label="gini = 0.0\nsamples = 3\nvalue = [6, 0]\nclass = No", fillcolor="#e58139"] ;
854 -> 862 ;
863 [label="day <= 0.533\ngini = 0.496\nsamples = 7\nvalue = [6, 5]\nclass = No", fillcolor="#fbeade"] ;
853 -> 863 ;
864 [label="age <= 0.279\ngini = 0.278\nsamples = 4\nvalue = [1, 5]\nclass = Yes", fillcolor="#61b1ea"] ;
863 -> 864 ;
865 [label="gini = 0.0\nsamples = 1\nvalue = [1, 0]\nclass = No", fillcolor="#e58139"] ;
864 -> 865 ;
866 [label="gini = 0.0\nsamples = 3\nvalue = [0, 5]\nclass = Yes", fillcolor="#399de5"] ;
864 -> 866 ;
867 [label="gini = 0.0\nsamples = 3\nvalue = [5, 0]\nclass = No", fillcolor="#e58139"] ;
863 -> 867 ;
868 [label="dur <= 0.382\ngini = 0.499\nsamples = 20\nvalue = [16, 15]\nclass = No", fillcolor="#fdf7f3"] ;
786 -> 868 ;
869 [label="num_calls <= 0.1\ngini = 0.153\nsamples = 7\nvalue = [11, 1]\nclass = No", fillcolor="#e78c4b"] ;
868 -> 869 ;
870 [label="dur <= 0.297\ngini = 0.375\nsamples = 3\nvalue = [3, 1]\nclass = No", fillcolor="#eeab7b"] ;
869 -> 870 ;
871 [label="gini = 0.0\nsamples = 1\nvalue = [0, 1]\nclass = Yes", fillcolor="#399de5"] ;
870 -> 871 ;
872 [label="gini = 0.0\nsamples = 2\nvalue = [3, 0]\nclass = No", fillcolor="#e58139"] ;
870 -> 872 ;
873 [label="gini = 0.0\nsamples = 4\nvalue = [8, 0]\nclass = No", fillcolor="#e58139"] ;
869 -> 873 ;
874 [label="age <= 0.798\ngini = 0.388\nsamples = 13\nvalue = [5, 14]\nclass = Yes", fillcolor="#80c0ee"] ;
868 -> 874 ;
875 [label="mon <= 0.773\ngini = 0.291\nsamples = 12\nvalue = [3, 14]\nclass = Yes", fillcolor="#63b2eb"] ;
874 -> 875 ;
876 [label="job <= 0.409\ngini = 0.219\nsamples = 11\nvalue = [2, 14]\nclass = Yes", fillcolor="#55abe9"] ;
875 -> 876 ;
877 [label="age <= 0.519\ngini = 0.444\nsamples = 4\nvalue = [2, 4]\nclass = Yes", fillcolor="#9ccef2"] ;
876 -> 877 ;
878 [label="gini = 0.0\nsamples = 2\nvalue = [2, 0]\nclass = No", fillcolor="#e58139"] ;
877 -> 878 ;
879 [label="gini = 0.0\nsamples = 2\nvalue = [0, 4]\nclass = Yes", fillcolor="#399de5"] ;
877 -> 879 ;
880 [label="gini = 0.0\nsamples = 7\nvalue = [0, 10]\nclass = Yes", fillcolor="#399de5"] ;
876 -> 880 ;
881 [label="gini = 0.0\nsamples = 1\nvalue = [1, 0]\nclass = No", fillcolor="#e58139"] ;
875 -> 881 ;
882 [label="gini = 0.0\nsamples = 1\nvalue = [2, 0]\nclass = No", fillcolor="#e58139"] ;
874 -> 882 ;
883 [label="num_calls <= 0.1\ngini = 0.137\nsamples = 154\nvalue = [225, 18]\nclass = No", fillcolor="#e78b49"] ;
747 -> 883 ;
884 [label="dur <= 0.194\ngini = 0.018\nsamples = 74\nvalue = [110, 1]\nclass = No", fillcolor="#e5823b"] ;
883 -> 884 ;
885 [label="prev_outcome <= 0.167\ngini = 0.198\nsamples = 8\nvalue = [8, 1]\nclass = No", fillcolor="#e89152"] ;
884 -> 885 ;
886 [label="gini = 0.0\nsamples = 6\nvalue = [7, 0]\nclass = No", fillcolor="#e58139"] ;
885 -> 886 ;
887 [label="education_qual <= 0.5\ngini = 0.5\nsamples = 2\nvalue = [1, 1]\nclass = No", fillcolor="#ffffff"] ;
885 -> 887 ;
888 [label="gini = 0.0\nsamples = 1\nvalue = [1, 0]\nclass = No", fillcolor="#e58139"] ;
887 -> 888 ;
889 [label="gini = 0.0\nsamples = 1\nvalue = [0, 1]\nclass = Yes", fillcolor="#399de5"] ;
887 -> 889 ;
890 [label="gini = 0.0\nsamples = 66\nvalue = [102, 0]\nclass = No", fillcolor="#e58139"] ;
884 -> 890 ;
891 [label="num_calls <= 0.5\ngini = 0.224\nsamples = 80\nvalue = [115, 17]\nclass = No", fillcolor="#e99456"] ;
883 -> 891 ;
892 [label="dur <= 0.575\ngini = 0.24\nsamples = 73\nvalue = [105, 17]\nclass = No", fillcolor="#e99559"] ;
891 -> 892 ;
