digraph Tree {
node [shape=box, style="filled, rounded", color="black", fontname="helvetica"] ;
edge [fontname="helvetica"] ;
0 [label="mon <= 0.864\ngini = 0.211\nsamples = 19919\nvalue = [27858, 3785]\nclass = No", fillcolor="#e99254"] ;
1 [label="dur <= 0.192\ngini = 0.196\nsamples = 19350\nvalue = [27338, 3390]\nclass = No", fillcolor="#e89152"] ;
0 -> 1 [labeldistance=2.5, labelangle=45, headlabel="True"] ;
2 [label="num_calls <= 0.1\ngini = 0.027\nsamples = 6241\nvalue = [9725, 135]\nclass = No", fillcolor="#e5833c"] ;
1 -> 2 ;
3 [label="prev_outcome <= 0.833\ngini = 0.039\nsamples = 2893\nvalue = [4513, 92]\nclass = No", fillcolor="#e6843d"] ;
2 -> 3 ;
4 [label="dur <= 0.135\ngini = 0.09\nsamples = 492\nvalue = [787, 39]\nclass = No", fillcolor="#e68743"] ;
3 -> 4 ;
5 [label="job <= 0.409\ngini = 0.013\nsamples = 269\nvalue = [457, 3]\nclass = No", fillcolor="#e5823a"] ;
4 -> 5 ;
6 [label="prev_outcome <= 0.5\ngini = 0.022\nsamples = 165\nvalue = [270.0, 3.0]\nclass = No", fillcolor="#e5823b"] ;
5 -> 6 ;
7 [label="day <= 0.017\ngini = 0.008\nsamples = 156\nvalue = [259, 1]\nclass = No", fillcolor="#e5813a"] ;
6 -> 7 ;
8 [label="gini = 0.0\nsamples = 1\nvalue = [0, 1]\nclass = Yes", fillcolor="#399de5"] ;
7 -> 8 ;
9 [label="gini = 0.0\nsamples = 155\nvalue = [259, 0]\nclass = No", fillcolor="#e58139"] ;
7 -> 9 ;
10 [label="dur <= 0.108\ngini = 0.26\nsamples = 9\nvalue = [11, 2]\nclass = No", fillcolor="#ea985d"] ;
6 -> 10 ;
11 [label="gini = 0.0\nsamples = 7\nvalue = [11, 0]\nclass = No", fillcolor="#e58139"] ;
10 -> 11 ;
12 [label="gini = 0.0\nsamples = 2\nvalue = [0, 2]\nclass = Yes", fillcolor="#399de5"] ;
10 -> 12 ;
13 [label="gini = 0.0\nsamples = 104\nvalue = [187, 0]\nclass = No", fillcolor="#e58139"] ;
5 -> 13 ;
14 [label="dur <= 0.153\ngini = 0.177\nsamples = 223\nvalue = [330, 36]\nclass = No", fillcolor="#e88f4f"] ;
4 -> 14 ;
15 [label="age <= 0.798\ngini = 0.303\nsamples = 69\nvalue = [105, 24]\nclass = No", fillcolor="#eb9e66"] ;
14 -> 15 ;
16 [label="prev_outcome <= 0.5\ngini = 0.22\nsamples = 65\nvalue = [104, 15]\nclass = No", fillcolor="#e99356"] ;
15 -> 16 ;
17 [label="day <= 0.283\ngini = 0.129\nsamples = 56\nvalue = [94.0, 7.0]\nclass = No", fillcolor="#e78a48"] ;
16 -> 17 ;
18 [label="gini = 0.0\nsamples = 20\nvalue = [37, 0]\nclass = No", fillcolor="#e58139"] ;
17 -> 18 ;
19 [label="mon <= 0.318\ngini = 0.195\nsamples = 36\nvalue = [57, 7]\nclass = No", fillcolor="#e89051"] ;
17 -> 19 ;
20 [label="call_type <= 0.75\ngini = 0.375\nsamples = 10\nvalue = [15, 5]\nclass = No", fillcolor="#eeab7b"] ;
19 -> 20 ;
21 [label="marital <= 0.75\ngini = 0.332\nsamples = 9\nvalue = [15, 4]\nclass = No", fillcolor="#eca36e"] ;
20 -> 21 ;
22 [label="mon <= 0.227\ngini = 0.463\nsamples = 5\nvalue = [7, 4]\nclass = No", fillcolor="#f4c9aa"] ;
21 -> 22 ;
23 [label="gini = 0.0\nsamples = 3\nvalue = [7, 0]\nclass = No", fillcolor="#e58139"] ;
22 -> 23 ;
24 [label="gini = 0.0\nsamples = 2\nvalue = [0, 4]\nclass = Yes", fillcolor="#399de5"] ;
22 -> 24 ;
25 [label="gini = 0.0\nsamples = 4\nvalue = [8, 0]\nclass = No", fillcolor="#e58139"] ;
21 -> 25 ;
26 [label="gini = 0.0\nsamples = 1\nvalue = [0, 1]\nclass = Yes", fillcolor="#399de5"] ;
20 -> 26 ;
27 [label="age <= 0.413\ngini = 0.087\nsamples = 26\nvalue = [42, 2]\nclass = No", fillcolor="#e68742"] ;
19 -> 27 ;
28 [label="day <= 0.75\ngini = 0.147\nsamples = 17\nvalue = [23, 2]\nclass = No", fillcolor="#e78c4a"] ;
27 -> 28 ;
29 [label="gini = 0.0\nsamples = 11\nvalue = [17, 0]\nclass = No", fillcolor="#e58139"] ;
28 -> 29 ;
30 [label="day <= 0.9\ngini = 0.375\nsamples = 6\nvalue = [6, 2]\nclass = No", fillcolor="#eeab7b"] ;
28 -> 30 ;
31 [label="day <= 0.85\ngini = 0.444\nsamples = 3\nvalue = [1, 2]\nclass = Yes", fillcolor="#9ccef2"] ;
30 -> 31 ;
32 [label="dur <= 0.138\ngini = 0.5\nsamples = 2\nvalue = [1, 1]\nclass = No", fillcolor="#ffffff"] ;
31 -> 32 ;
33 [label="gini = 0.0\nsamples = 1\nvalue = [1, 0]\nclass = No", fillcolor="#e58139"] ;
32 -> 33 ;
34 [label="gini = 0.0\nsamples = 1\nvalue = [0, 1]\nclass = Yes", fillcolor="#399de5"] ;
32 -> 34 ;
35 [label="gini = 0.0\nsamples = 1\nvalue = [0, 1]\nclass = Yes", fillcolor="#399de5"] ;
31 -> 35 ;
36 [label="gini = 0.0\nsamples = 3\nvalue = [5, 0]\nclass = No", fillcolor="#e58139"] ;
30 -> 36 ;
37 [label="gini = 0.0\nsamples = 9\nvalue = [19, 0]\nclass = No", fillcolor="#e58139"] ;
27 -> 37 ;
38 [label="job <= 0.636\ngini = 0.494\nsamples = 9\nvalue = [10, 8]\nclass = No", fillcolor="#fae6d7"] ;
16 -> 38 ;
39 [label="marital <= 0.25\ngini = 0.444\nsamples = 6\nvalue = [10, 5]\nclass = No", fillcolor="#f2c09c"] ;
38 -> 39 ;
40 [label="gini = 0.0\nsamples = 1\nvalue = [4, 0]\nclass = No", fillcolor="#e58139"] ;
39 -> 40 ;
41 [label="day <= 0.15\ngini = 0.496\nsamples = 5\nvalue = [6, 5]\nclass = No", fillcolor="#fbeade"] ;
39 -> 41 ;
42 [label="gini = 0.0\nsamples = 1\nvalue = [2, 0]\nclass = No", fillcolor="#e58139"] ;
41 -> 42 ;
43 [label="age <= 0.394\ngini = 0.494\nsamples = 4\nvalue = [4, 5]\nclass = Yes", fillcolor="#d7ebfa"] ;
41 -> 43 ;
44 [label="gini = 0.0\nsamples = 2\nvalue = [4, 0]\nclass = No", fillcolor="#e58139"] ;
43 -> 44 ;
45 [label="gini = 0.0\nsamples = 2\nvalue = [0, 5]\nclass = Yes", fillcolor="#399de5"] ;
43 -> 45 ;
46 [label="gini = 0.0\nsamples = 3\nvalue = [0, 3]\nclass = Yes", fillcolor="#399de5"] ;
38 -> 46 ;
47 [label="job <= 0.409\ngini = 0.18\nsamples = 4\nvalue = [1, 9]\nclass = Yes", fillcolor="#4fa8e8"] ;
15 -> 47 ;
48 [label="gini = 0.0\nsamples = 2\nvalue = [0, 5]\nclass = Yes", fillcolor="#399de5"] ;
47 -> 48 ;
49 [label="mon <= 0.636\ngini = 0.32\nsamples = 2\nvalue = [1, 4]\nclass = Yes", fillcolor="#6ab6ec"] ;
47 -> 49 ;
50 [label="gini = 0.0\nsamples = 1\nvalue = [1, 0]\nclass = No", fillcolor="#e58139"] ;
49 -> 50 ;
51 [label="gini = 0.0\nsamples = 1\nvalue = [0, 4]\nclass = Yes", fillcolor="#399de5"] ;
49 -> 51 ;
52 [label="job <= 0.864\ngini = 0.096\nsamples = 154\nvalue = [225, 12]\nclass = No", fillcolor="#e68844"] ;
14 -> 52 ;
53 [label="mon <= 0.045\ngini = 0.084\nsamples = 150\nvalue = [219, 10]\nclass = No", fillcolor="#e68742"] ;
52 -> 53 ;
54 [label="age <= 0.779\ngini = 0.245\nsamples = 21\nvalue = [24, 4]\nclass = No", fillcolor="#e9965a"] ;
53 -> 54 ;
55 [label="dur <= 0.163\ngini = 0.077\nsamples = 20\nvalue = [24, 1]\nclass = No", fillcolor="#e68641"] ;
54 -> 55 ;
56 [label="education_qual <= 0.5\ngini = 0.278\nsamples = 4\nvalue = [5, 1]\nclass = No", fillcolor="#ea9a61"] ;
55 -> 56 ;
57 [label="gini = 0.0\nsamples = 3\nvalue = [5, 0]\nclass = No", fillcolor="#e58139"] ;
56 -> 57 ;
58 [label="gini = 0.0\nsamples = 1\nvalue = [0, 1]\nclass = Yes", fillcolor="#399de5"] ;
56 -> 58 ;
59 [label="gini = 0.0\nsamples = 16\nvalue = [19, 0]\nclass = No", fillcolor="#e58139"] ;
55 -> 59 ;
60 [label="gini = 0.0\nsamples = 1\nvalue = [0, 3]\nclass = Yes", fillcolor="#399de5"] ;
54 -> 60 ;
61 [label="age <= 0.279\ngini = 0.058\nsamples = 129\nvalue = [195, 6]\nclass = No", fillcolor="#e6853f"] ;
53 -> 61 ;
62 [label="job <= 0.273\ngini = 0.21\nsamples = 31\nvalue = [37, 5]\nclass = No", fillcolor="#e99254"] ;
61 -> 62 ;
63 [label="gini = 0.0\nsamples = 10\nvalue = [14, 0]\nclass = No", fillcolor="#e58139"] ;
62 -> 63 ;
64 [label="dur <= 0.184\ngini = 0.293\nsamples = 21\nvalue = [23, 5]\nclass = No", fillcolor="#eb9c64"] ;
62 -> 64 ;
65 [label="gini = 0.0\nsamples = 16\nvalue = [21, 0]\nclass = No", fillcolor="#e58139"] ;
64 -> 65 ;
66 [label="prev_outcome <= 0.333\ngini = 0.408\nsamples = 5\nvalue = [2, 5]\nclass = Yes", fillcolor="#88c4ef"] ;
64 -> 66 ;
67 [label="gini = 0.0\nsamples = 2\nvalue = [2, 0]\nclass = No", fillcolor="#e58139"] ;
66 -> 67 ;
68 [label="gini = 0.0\nsamples = 3\nvalue = [0, 5]\nclass = Yes", fillcolor="#399de5"] ;
66 -> 68 ;
69 [label="dur <= 0.161\ngini = 0.012\nsamples = 98\nvalue = [158, 1]\nclass = No", fillcolor="#e5823a"] ;
61 -> 69 ;
70 [label="prev_outcome <= 0.5\ngini = 0.045\nsamples = 25\nvalue = [42, 1]\nclass = No", fillcolor="#e6843e"] ;
69 -> 70 ;
71 [label="gini = 0.0\nsamples = 23\nvalue = [39, 0]\nclass = No", fillcolor="#e58139"] ;
70 -> 71 ;
72 [label="age <= 0.375\ngini = 0.375\nsamples = 2\nvalue = [3, 1]\nclass = No", fillcolor="#eeab7b"] ;
70 -> 72 ;
73 [label="gini = 0.0\nsamples = 1\nvalue = [3, 0]\nclass = No", fillcolor="#e58139"] ;
72 -> 73 ;
74 [label="gini = 0.0\nsamples = 1\nvalue = [0, 1]\nclass = Yes", fillcolor="#399de5"] ;
72 -> 74 ;
75 [label="gini = 0.0\nsamples = 73\nvalue = [116, 0]\nclass = No", fillcolor="#e58139"] ;
69 -> 75 ;
76 [label="age <= 0.192\ngini = 0.375\nsamples = 4\nvalue = [6, 2]\nclass = No", fillcolor="#eeab7b"] ;
52 -> 76 ;
77 [label="gini = 0.0\nsamples = 1\nvalue = [4, 0]\nclass = No", fillcolor="#e58139"] ;
76 -> 77 ;
78 [label="marital <= 0.5\ngini = 0.5\nsamples = 3\nvalue = [2, 2]\nclass = No", fillcolor="#ffffff"] ;
76 -> 78 ;
79 [label="gini = 0.0\nsamples = 2\nvalue = [2, 0]\nclass = No", fillcolor="#e58139"] ;
78 -> 79 ;
80 [label="gini = 0.0\nsamples = 1\nvalue = [0, 2]\nclass = Yes", fillcolor="#399de5"] ;
78 -> 80 ;
81 [label="marital <= 0.75\ngini = 0.028\nsamples = 2401\nvalue = [3726, 53]\nclass = No", fillcolor="#e5833c"] ;
3 -> 81 ;
82 [label="dur <= 0.125\ngini = 0.017\nsamples = 1750\nvalue = [2731.0, 24.0]\nclass = No", fillcolor="#e5823b"] ;
81 -> 82 ;
83 [label="dur <= 0.061\ngini = 0.003\nsamples = 1016\nvalue = [1593, 2]\nclass = No", fillcolor="#e58139"] ;
82 -> 83 ;
84 [label="education_qual <= 0.5\ngini = 0.006\nsamples = 401\nvalue = [636, 2]\nclass = No", fillcolor="#e5813a"] ;
83 -> 84 ;
85 [label="age <= 0.548\ngini = 0.009\nsamples = 290\nvalue = [447, 2]\nclass = No", fillcolor="#e5823a"] ;
84 -> 85 ;
86 [label="gini = 0.0\nsamples = 202\nvalue = [304, 0]\nclass = No", fillcolor="#e58139"] ;
85 -> 86 ;
87 [label="mon <= 0.5\ngini = 0.027\nsamples = 88\nvalue = [143, 2]\nclass = No", fillcolor="#e5833c"] ;
85 -> 87 ;
88 [label="dur <= 0.058\ngini = 0.059\nsamples = 42\nvalue = [64, 2]\nclass = No", fillcolor="#e6853f"] ;
87 -> 88 ;
89 [label="gini = 0.0\nsamples = 38\nvalue = [61, 0]\nclass = No", fillcolor="#e58139"] ;
88 -> 89 ;
90 [label="job <= 0.364\ngini = 0.48\nsamples = 4\nvalue = [3, 2]\nclass = No", fillcolor="#f6d5bd"] ;
88 -> 90 ;
91 [label="call_type <= 0.25\ngini = 0.444\nsamples = 2\nvalue = [1, 2]\nclass = Yes", fillcolor="#9ccef2"] ;
90 -> 91 ;
92 [label="gini = 0.0\nsamples = 1\nvalue = [1, 0]\nclass = No", fillcolor="#e58139"] ;
91 -> 92 ;
93 [label="gini = 0.0\nsamples = 1\nvalue = [0, 2]\nclass = Yes", fillcolor="#399de5"] ;
91 -> 93 ;
94 [label="gini = 0.0\nsamples = 2\nvalue = [2, 0]\nclass = No", fillcolor="#e58139"] ;
90 -> 94 ;
95 [label="gini = 0.0\nsamples = 46\nvalue = [79, 0]\nclass = No", fillcolor="#e58139"] ;
87 -> 95 ;
96 [label="gini = 0.0\nsamples = 111\nvalue = [189, 0]\nclass = No", fillcolor="#e58139"] ;
84 -> 96 ;
97 [label="gini = 0.0\nsamples = 615\nvalue = [957, 0]\nclass = No", fillcolor="#e58139"] ;
83 -> 97 ;
98 [label="day <= 0.05\ngini = 0.037\nsamples = 734\nvalue = [1138, 22]\nclass = No", fillcolor="#e6833d"] ;
82 -> 98 ;
99 [label="dur <= 0.134\ngini = 0.193\nsamples = 24\nvalue = [33, 4]\nclass = No", fillcolor="#e89051"] ;
98 -> 99 ;
100 [label="gini = 0.0\nsamples = 1\nvalue = [0, 2]\nclass = Yes", fillcolor="#399de5"] ;
99 -> 100 ;
101 [label="dur <= 0.166\ngini = 0.108\nsamples = 23\nvalue = [33, 2]\nclass = No", fillcolor="#e78945"] ;
99 -> 101 ;
102 [label="gini = 0.0\nsamples = 12\nvalue = [20, 0]\nclass = No", fillcolor="#e58139"] ;
101 -> 102 ;
103 [label="dur <= 0.167\ngini = 0.231\nsamples = 11\nvalue = [13, 2]\nclass = No", fillcolor="#e99457"] ;
101 -> 103 ;
104 [label="gini = 0.0\nsamples = 1\nvalue = [0, 1]\nclass = Yes", fillcolor="#399de5"] ;
103 -> 104 ;
105 [label="mon <= 0.591\ngini = 0.133\nsamples = 10\nvalue = [13, 1]\nclass = No", fillcolor="#e78b48"] ;
103 -> 105 ;
106 [label="gini = 0.0\nsamples = 9\nvalue = [13, 0]\nclass = No", fillcolor="#e58139"] ;
105 -> 106 ;
107 [label="gini = 0.0\nsamples = 1\nvalue = [0, 1]\nclass = Yes", fillcolor="#399de5"] ;
105 -> 107 ;
108 [label="dur <= 0.127\ngini = 0.032\nsamples = 710\nvalue = [1105, 18]\nclass = No", fillcolor="#e5833c"] ;
98 -> 108 ;
109 [label="mon <= 0.273\ngini = 0.219\nsamples = 14\nvalue = [21, 3]\nclass = No", fillcolor="#e99355"] ;
108 -> 109 ;
110 [label="day <= 0.75\ngini = 0.42\nsamples = 4\nvalue = [7, 3]\nclass = No", fillcolor="#f0b78e"] ;
109 -> 110 ;
111 [label="gini = 0.0\nsamples = 1\nvalue = [0, 3]\nclass = Yes", fillcolor="#399de5"] ;
110 -> 111 ;
112 [label="gini = 0.0\nsamples = 3\nvalue = [7, 0]\nclass = No", fillcolor="#e58139"] ;
110 -> 112 ;
113 [label="gini = 0.0\nsamples = 10\nvalue = [14, 0]\nclass = No", fillcolor="#e58139"] ;
109 -> 113 ;
114 [label="mon <= 0.318\ngini = 0.027\nsamples = 696\nvalue = [1084, 15]\nclass = No", fillcolor="#e5833c"] ;
108 -> 114 ;
115 [label="age <= 0.529\ngini = 0.053\nsamples = 154\nvalue = [249, 7]\nclass = No", fillcolor="#e6853f"] ;
114 -> 115 ;
116 [label="day <= 0.617\ngini = 0.012\nsamples = 91\nvalue = [159, 1]\nclass = No", fillcolor="#e5823a"] ;
115 -> 116 ;
117 [label="gini = 0.0\nsamples = 49\nvalue = [85, 0]\nclass = No", fillcolor="#e58139"] ;
116 -> 117 ;
118 [label="age <= 0.317\ngini = 0.026\nsamples = 42\nvalue = [74, 1]\nclass = No", fillcolor="#e5833c"] ;
116 -> 118 ;
119 [label="age <= 0.298\ngini = 0.08\nsamples = 15\nvalue = [23, 1]\nclass = No", fillcolor="#e68642"] ;
118 -> 119 ;
120 [label="gini = 0.0\nsamples = 11\nvalue = [16, 0]\nclass = No", fillcolor="#e58139"] ;
119 -> 120 ;
121 [label="day <= 0.65\ngini = 0.219\nsamples = 4\nvalue = [7, 1]\nclass = No", fillcolor="#e99355"] ;
119 -> 121 ;
122 [label="gini = 0.0\nsamples = 1\nvalue = [0, 1]\nclass = Yes", fillcolor="#399de5"] ;
121 -> 122 ;
123 [label="gini = 0.0\nsamples = 3\nvalue = [7, 0]\nclass = No", fillcolor="#e58139"] ;
121 -> 123 ;
124 [label="gini = 0.0\nsamples = 27\nvalue = [51, 0]\nclass = No", fillcolor="#e58139"] ;
118 -> 124 ;
125 [label="job <= 0.727\ngini = 0.117\nsamples = 63\nvalue = [90, 6]\nclass = No", fillcolor="#e78946"] ;
115 -> 125 ;
126 [label="job <= 0.318\ngini = 0.051\nsamples = 49\nvalue = [74, 2]\nclass = No", fillcolor="#e6843e"] ;
125 -> 126 ;
127 [label="gini = 0.0\nsamples = 23\nvalue = [40, 0]\nclass = No", fillcolor="#e58139"] ;
126 -> 127 ;
128 [label="age <= 0.846\ngini = 0.105\nsamples = 26\nvalue = [34, 2]\nclass = No", fillcolor="#e78845"] ;
126 -> 128 ;
129 [label="dur <= 0.17\ngini = 0.142\nsamples = 19\nvalue = [24, 2]\nclass = No", fillcolor="#e78c49"] ;
128 -> 129 ;
130 [label="gini = 0.0\nsamples = 11\nvalue = [16, 0]\nclass = No", fillcolor="#e58139"] ;
129 -> 130 ;
131 [label="dur <= 0.177\ngini = 0.32\nsamples = 8\nvalue = [8, 2]\nclass = No", fillcolor="#eca06a"] ;
129 -> 131 ;
132 [label="gini = 0.0\nsamples = 2\nvalue = [0, 2]\nclass = Yes", fillcolor="#399de5"] ;
131 -> 132 ;
133 [label="gini = 0.0\nsamples = 6\nvalue = [8, 0]\nclass = No", fillcolor="#e58139"] ;
131 -> 133 ;
134 [label="gini = 0.0\nsamples = 7\nvalue = [10, 0]\nclass = No", fillcolor="#e58139"] ;
128 -> 134 ;
135 [label="age <= 0.548\ngini = 0.32\nsamples = 14\nvalue = [16, 4]\nclass = No", fillcolor="#eca06a"] ;
125 -> 135 ;
136 [label="dur <= 0.172\ngini = 0.375\nsamples = 2\nvalue = [1, 3]\nclass = Yes", fillcolor="#7bbeee"] ;
135 -> 136 ;
137 [label="gini = 0.0\nsamples = 1\nvalue = [1, 0]\nclass = No", fillcolor="#e58139"] ;
136 -> 137 ;
138 [label="gini = 0.0\nsamples = 1\nvalue = [0, 3]\nclass = Yes", fillcolor="#399de5"] ;
136 -> 138 ;
139 [label="marital <= 0.25\ngini = 0.117\nsamples = 12\nvalue = [15, 1]\nclass = No", fillcolor="#e78946"] ;
135 -> 139 ;
140 [label="gini = 0.0\nsamples = 5\nvalue = [5, 0]\nclass = No", fillcolor="#e58139"] ;
139 -> 140 ;
141 [label="age <= 0.615\ngini = 0.165\nsamples = 7\nvalue = [10, 1]\nclass = No", fillcolor="#e88e4d"] ;
139 -> 141 ;
142 [label="gini = 0.0\nsamples = 3\nvalue = [6, 0]\nclass = No", fillcolor="#e58139"] ;
141 -> 142 ;
143 [label="dur <= 0.139\ngini = 0.32\nsamples = 4\nvalue = [4, 1]\nclass = No", fillcolor="#eca06a"] ;
141 -> 143 ;
144 [label="gini = 0.0\nsamples = 1\nvalue = [0, 1]\nclass = Yes", fillcolor="#399de5"] ;
143 -> 144 ;
145 [label="gini = 0.0\nsamples = 3\nvalue = [4, 0]\nclass = No", fillcolor="#e58139"] ;
143 -> 145 ;
146 [label="day <= 0.55\ngini = 0.019\nsamples = 542\nvalue = [835, 8]\nclass = No", fillcolor="#e5823b"] ;
114 -> 146 ;
147 [label="mon <= 0.591\ngini = 0.036\nsamples = 287\nvalue = [431, 8]\nclass = No", fillcolor="#e5833d"] ;
146 -> 147 ;
148 [label="age <= 0.317\ngini = 0.008\nsamples = 151\nvalue = [234, 1]\nclass = No", fillcolor="#e5823a"] ;
147 -> 148 ;
149 [label="education_qual <= 0.5\ngini = 0.069\nsamples = 19\nvalue = [27, 1]\nclass = No", fillcolor="#e68640"] ;
148 -> 149 ;
150 [label="gini = 0.0\nsamples = 15\nvalue = [24, 0]\nclass = No", fillcolor="#e58139"] ;
149 -> 150 ;
151 [label="call_type <= 0.5\ngini = 0.375\nsamples = 4\nvalue = [3, 1]\nclass = No", fillcolor="#eeab7b"] ;
149 -> 151 ;
152 [label="dur <= 0.18\ngini = 0.5\nsamples = 2\nvalue = [1, 1]\nclass = No", fillcolor="#ffffff"] ;
151 -> 152 ;
153 [label="gini = 0.0\nsamples = 1\nvalue = [1, 0]\nclass = No", fillcolor="#e58139"] ;
152 -> 153 ;
154 [label="gini = 0.0\nsamples = 1\nvalue = [0, 1]\nclass = Yes", fillcolor="#399de5"] ;
152 -> 154 ;
155 [label="gini = 0.0\nsamples = 2\nvalue = [2, 0]\nclass = No", fillcolor="#e58139"] ;
151 -> 155 ;
156 [label="gini = 0.0\nsamples = 132\nvalue = [207, 0]\nclass = No", fillcolor="#e58139"] ;
148 -> 156 ;
157 [label="job <= 0.045\ngini = 0.066\nsamples = 136\nvalue = [197.0, 7.0]\nclass = No", fillcolor="#e68540"] ;
147 -> 157 ;
158 [label="education_qual <= 0.5\ngini = 0.293\nsamples = 21\nvalue = [23, 5]\nclass = No", fillcolor="#eb9c64"] ;
157 -> 158 ;
159 [label="day <= 0.367\ngini = 0.219\nsamples = 19\nvalue = [21, 3]\nclass = No", fillcolor="#e99355"] ;
158 -> 159 ;
160 [label="age <= 0.317\ngini = 0.444\nsamples = 5\nvalue = [6, 3]\nclass = No", fillcolor="#f2c09c"] ;
159 -> 160 ;
161 [label="dur <= 0.145\ngini = 0.375\nsamples = 2\nvalue = [1, 3]\nclass = Yes", fillcolor="#7bbeee"] ;
160 -> 161 ;
162 [label="gini = 0.0\nsamples = 1\nvalue = [1, 0]\nclass = No", fillcolor="#e58139"] ;
161 -> 162 ;
163 [label="gini = 0.0\nsamples = 1\nvalue = [0, 3]\nclass = Yes", fillcolor="#399de5"] ;
161 -> 163 ;
164 [label="gini = 0.0\nsamples = 3\nvalue = [5, 0]\nclass = No", fillcolor="#e58139"] ;
160 -> 164 ;
165 [label="gini = 0.0\nsamples = 14\nvalue = [15, 0]\nclass = No", fillcolor="#e58139"] ;
159 -> 165 ;
166 [label="dur <= 0.144\ngini = 0.5\nsamples = 2\nvalue = [2, 2]\nclass = No", fillcolor="#ffffff"] ;
158 -> 166 ;
167 [label="gini = 0.0\nsamples = 1\nvalue = [0, 2]\nclass = Yes", fillcolor="#399de5"] ;
166 -> 167 ;
168 [label="gini = 0.0\nsamples = 1\nvalue = [2, 0]\nclass = No", fillcolor="#e58139"] ;
166 -> 168 ;
169 [label="mon <= 0.682\ngini = 0.022\nsamples = 115\nvalue = [174, 2]\nclass = No", fillcolor="#e5823b"] ;
157 -> 169 ;
170 [label="dur <= 0.161\ngini = 0.408\nsamples = 4\nvalue = [5, 2]\nclass = No", fillcolor="#efb388"] ;
169 -> 170 ;
171 [label="gini = 0.0\nsamples = 1\nvalue = [3, 0]\nclass = No", fillcolor="#e58139"] ;
170 -> 171 ;
172 [label="job <= 0.727\ngini = 0.5\nsamples = 3\nvalue = [2, 2]\nclass = No", fillcolor="#ffffff"] ;
170 -> 172 ;
173 [label="gini = 0.0\nsamples = 2\nvalue = [0, 2]\nclass = Yes", fillcolor="#399de5"] ;
172 -> 173 ;
174 [label="gini = 0.0\nsamples = 1\nvalue = [2, 0]\nclass = No", fillcolor="#e58139"] ;
172 -> 174 ;
175 [label="gini = 0.0\nsamples = 111\nvalue = [169, 0]\nclass = No", fillcolor="#e58139"] ;
169 -> 175 ;
176 [label="gini = 0.0\nsamples = 255\nvalue = [404, 0]\nclass = No", fillcolor="#e58139"] ;
146 -> 176 ;
177 [label="dur <= 0.186\ngini = 0.055\nsamples = 651\nvalue = [995, 29]\nclass = No", fillcolor="#e6853f"] ;
81 -> 177 ;
178 [label="dur <= 0.1\ngini = 0.04\nsamples = 624\nvalue = [959, 20]\nclass = No", fillcolor="#e6843d"] ;
177 -> 178 ;
179 [label="job <= 0.773\ngini = 0.005\nsamples = 261\nvalue = [425, 1]\nclass = No", fillcolor="#e58139"] ;
178 -> 179 ;
180 [label="gini = 0.0\nsamples = 194\nvalue = [313, 0]\nclass = No", fillcolor="#e58139"] ;
179 -> 180 ;
181 [label="age <= 0.183\ngini = 0.018\nsamples = 67\nvalue = [112, 1]\nclass = No", fillcolor="#e5823b"] ;
179 -> 181 ;
182 [label="day <= 0.317\ngini = 0.245\nsamples = 7\nvalue = [6, 1]\nclass = No", fillcolor="#e9965a"] ;
181 -> 182 ;
183 [label="age <= 0.115\ngini = 0.444\nsamples = 3\nvalue = [2, 1]\nclass = No", fillcolor="#f2c09c"] ;
182 -> 183 ;
184 [label="gini = 0.0\nsamples = 1\nvalue = [1, 0]\nclass = No", fillcolor="#e58139"] ;
183 -> 184 ;
185 [label="dur <= 0.04\ngini = 0.5\nsamples = 2\nvalue = [1, 1]\nclass = No", fillcolor="#ffffff"] ;
183 -> 185 ;
186 [label="gini = 0.0\nsamples = 1\nvalue = [0, 1]\nclass = Yes", fillcolor="#399de5"] ;
185 -> 186 ;
187 [label="gini = 0.0\nsamples = 1\nvalue = [1, 0]\nclass = No", fillcolor="#e58139"] ;
185 -> 187 ;
188 [label="gini = 0.0\nsamples = 4\nvalue = [4, 0]\nclass = No", fillcolor="#e58139"] ;
182 -> 188 ;
189 [label="gini = 0.0\nsamples = 60\nvalue = [106, 0]\nclass = No", fillcolor="#e58139"] ;
181 -> 189 ;
190 [label="call_type <= 0.75\ngini = 0.066\nsamples = 363\nvalue = [534, 19]\nclass = No", fillcolor="#e68540"] ;
178 -> 190 ;
191 [label="day <= 0.017\ngini = 0.057\nsamples = 241\nvalue = [362, 11]\nclass = No", fillcolor="#e6853f"] ;
190 -> 191 ;
192 [label="education_qual <= 0.667\ngini = 0.5\nsamples = 2\nvalue = [1, 1]\nclass = No", fillcolor="#ffffff"] ;
191 -> 192 ;
193 [label="gini = 0.0\nsamples = 1\nvalue = [0, 1]\nclass = Yes", fillcolor="#399de5"] ;
192 -> 193 ;
194 [label="gini = 0.0\nsamples = 1\nvalue = [1, 0]\nclass = No", fillcolor="#e58139"] ;
192 -> 194 ;
195 [label="call_type <= 0.25\ngini = 0.052\nsamples = 239\nvalue = [361, 10]\nclass = No", fillcolor="#e6843e"] ;
191 -> 195 ;
196 [label="education_qual <= 0.167\ngini = 0.056\nsamples = 225\nvalue = [337, 10]\nclass = No", fillcolor="#e6853f"] ;
195 -> 196 ;
197 [label="gini = 0.0\nsamples = 13\nvalue = [21, 0]\nclass = No", fillcolor="#e58139"] ;
196 -> 197 ;
198 [label="day <= 0.083\ngini = 0.059\nsamples = 212\nvalue = [316, 10]\nclass = No", fillcolor="#e6853f"] ;
196 -> 198 ;
199 [label="dur <= 0.181\ngini = 0.227\nsamples = 16\nvalue = [20, 3]\nclass = No", fillcolor="#e99457"] ;
198 -> 199 ;
200 [label="mon <= 0.591\ngini = 0.091\nsamples = 15\nvalue = [20, 1]\nclass = No", fillcolor="#e68743"] ;
199 -> 200 ;
201 [label="gini = 0.0\nsamples = 14\nvalue = [20, 0]\nclass = No", fillcolor="#e58139"] ;
200 -> 201 ;
202 [label="gini = 0.0\nsamples = 1\nvalue = [0, 1]\nclass = Yes", fillcolor="#399de5"] ;
200 -> 202 ;
203 [label="gini = 0.0\nsamples = 1\nvalue = [0, 2]\nclass = Yes", fillcolor="#399de5"] ;
199 -> 203 ;
204 [label="dur <= 0.102\ngini = 0.045\nsamples = 196\nvalue = [296, 7]\nclass = No", fillcolor="#e6843e"] ;
198 -> 204 ;
205 [label="education_qual <= 0.5\ngini = 0.245\nsamples = 4\nvalue = [6, 1]\nclass = No", fillcolor="#e9965a"] ;
204 -> 205 ;
206 [label="gini = 0.0\nsamples = 3\nvalue = [6, 0]\nclass = No", fillcolor="#e58139"] ;
205 -> 206 ;
207 [label="gini = 0.0\nsamples = 1\nvalue = [0, 1]\nclass = Yes", fillcolor="#399de5"] ;
205 -> 207 ;
208 [label="age <= 0.202\ngini = 0.04\nsamples = 192\nvalue = [290, 6]\nclass = No", fillcolor="#e6843d"] ;
204 -> 208 ;
209 [label="day <= 0.85\ngini = 0.131\nsamples = 43\nvalue = [66, 5]\nclass = No", fillcolor="#e78b48"] ;
208 -> 209 ;
210 [label="day <= 0.333\ngini = 0.07\nsamples = 34\nvalue = [53, 2]\nclass = No", fillcolor="#e68640"] ;
209 -> 210 ;
211 [label="dur <= 0.149\ngini = 0.159\nsamples = 12\nvalue = [21, 2]\nclass = No", fillcolor="#e78d4c"] ;
210 -> 211 ;
212 [label="education_qual <= 0.5\ngini = 0.278\nsamples = 6\nvalue = [10, 2]\nclass = No", fillcolor="#ea9a61"] ;
211 -> 212 ;
213 [label="age <= 0.183\ngini = 0.408\nsamples = 3\nvalue = [5, 2]\nclass = No", fillcolor="#efb388"] ;
212 -> 213 ;
214 [label="gini = 0.0\nsamples = 2\nvalue = [5, 0]\nclass = No", fillcolor="#e58139"] ;
213 -> 214 ;
215 [label="gini = 0.0\nsamples = 1\nvalue = [0, 2]\nclass = Yes", fillcolor="#399de5"] ;
213 -> 215 ;
216 [label="gini = 0.0\nsamples = 3\nvalue = [5, 0]\nclass = No", fillcolor="#e58139"] ;
212 -> 216 ;
217 [label="gini = 0.0\nsamples = 6\nvalue = [11, 0]\nclass = No", fillcolor="#e58139"] ;
211 -> 217 ;
218 [label="gini = 0.0\nsamples = 22\nvalue = [32, 0]\nclass = No", fillcolor="#e58139"] ;
210 -> 218 ;
219 [label="age <= 0.125\ngini = 0.305\nsamples = 9\nvalue = [13, 3]\nclass = No", fillcolor="#eb9e67"] ;
209 -> 219 ;
220 [label="gini = 0.0\nsamples = 1\nvalue = [0, 1]\nclass = Yes", fillcolor="#399de5"] ;
219 -> 220 ;
221 [label="dur <= 0.124\ngini = 0.231\nsamples = 8\nvalue = [13, 2]\nclass = No", fillcolor="#e99457"] ;
219 -> 221 ;
222 [label="gini = 0.0\nsamples = 1\nvalue = [0, 2]\nclass = Yes", fillcolor="#399de5"] ;
221 -> 222 ;
223 [label="gini = 0.0\nsamples = 7\nvalue = [13, 0]\nclass = No", fillcolor="#e58139"] ;
221 -> 223 ;
224 [label="dur <= 0.156\ngini = 0.009\nsamples = 149\nvalue = [224, 1]\nclass = No", fillcolor="#e5823a"] ;
208 -> 224 ;
225 [label="gini = 0.0\nsamples = 103\nvalue = [159, 0]\nclass = No", fillcolor="#e58139"] ;
224 -> 225 ;
226 [label="dur <= 0.158\ngini = 0.03\nsamples = 46\nvalue = [65, 1]\nclass = No", fillcolor="#e5833c"] ;
224 -> 226 ;
227 [label="day <= 0.367\ngini = 0.278\nsamples = 5\nvalue = [5, 1]\nclass = No", fillcolor="#ea9a61"] ;
226 -> 227 ;
228 [label="gini = 0.0\nsamples = 1\nvalue = [0, 1]\nclass = Yes", fillcolor="#399de5"] ;
227 -> 228 ;
229 [label="gini = 0.0\nsamples = 4\nvalue = [5, 0]\nclass = No", fillcolor="#e58139"] ;
227 -> 229 ;
230 [label="gini = 0.0\nsamples = 41\nvalue = [60, 0]\nclass = No", fillcolor="#e58139"] ;
226 -> 230 ;
231 [label="gini = 0.0\nsamples = 14\nvalue = [24, 0]\nclass = No", fillcolor="#e58139"] ;
195 -> 231 ;
232 [label="dur <= 0.105\ngini = 0.085\nsamples = 122\nvalue = [172, 8]\nclass = No", fillcolor="#e68742"] ;
190 -> 232 ;
233 [label="education_qual <= 0.5\ngini = 0.375\nsamples = 10\nvalue = [12, 4]\nclass = No", fillcolor="#eeab7b"] ;
232 -> 233 ;
234 [label="age <= 0.538\ngini = 0.463\nsamples = 6\nvalue = [7, 4]\nclass = No", fillcolor="#f4c9aa"] ;
233 -> 234 ;
235 [label="gini = 0.0\nsamples = 5\nvalue = [7, 0]\nclass = No", fillcolor="#e58139"] ;
234 -> 235 ;
236 [label="gini = 0.0\nsamples = 1\nvalue = [0, 4]\nclass = Yes", fillcolor="#399de5"] ;
234 -> 236 ;
237 [label="gini = 0.0\nsamples = 4\nvalue = [5, 0]\nclass = No", fillcolor="#e58139"] ;
233 -> 237 ;
238 [label="mon <= 0.773\ngini = 0.048\nsamples = 112\nvalue = [160, 4]\nclass = No", fillcolor="#e6843e"] ;
232 -> 238 ;
239 [label="education_qual <= 0.833\ngini = 0.012\nsamples = 111\nvalue = [160.0, 1.0]\nclass = No", fillcolor="#e5823a"] ;
238 -> 239 ;
240 [label="gini = 0.0\nsamples = 99\nvalue = [145, 0]\nclass = No", fillcolor="#e58139"] ;
239 -> 240 ;
241 [label="mon <= 0.636\ngini = 0.117\nsamples = 12\nvalue = [15, 1]\nclass = No", fillcolor="#e78946"] ;
239 -> 241 ;
242 [label="gini = 0.0\nsamples = 6\nvalue = [8, 0]\nclass = No", fillcolor="#e58139"] ;
241 -> 242 ;
243 [label="dur <= 0.132\ngini = 0.219\nsamples = 6\nvalue = [7, 1]\nclass = No", fillcolor="#e99355"] ;
241 -> 243 ;
244 [label="gini = 0.0\nsamples = 3\nvalue = [4, 0]\nclass = No", fillcolor="#e58139"] ;
243 -> 244 ;
245 [label="dur <= 0.143\ngini = 0.375\nsamples = 3\nvalue = [3, 1]\nclass = No", fillcolor="#eeab7b"] ;
243 -> 245 ;
246 [label="gini = 0.0\nsamples = 1\nvalue = [0, 1]\nclass = Yes", fillcolor="#399de5"] ;
245 -> 246 ;
247 [label="gini = 0.0\nsamples = 2\nvalue = [3, 0]\nclass = No", fillcolor="#e58139"] ;
245 -> 247 ;
248 [label="gini = 0.0\nsamples = 1\nvalue = [0, 3]\nclass = Yes", fillcolor="#399de5"] ;
238 -> 248 ;
249 [label="job <= 0.455\ngini = 0.32\nsamples = 27\nvalue = [36, 9]\nclass = No", fillcolor="#eca06a"] ;
177 -> 249 ;
250 [label="mon <= 0.045\ngini = 0.08\nsamples = 15\nvalue = [23, 1]\nclass = No", fillcolor="#e68642"] ;
249 -> 250 ;
251 [label="gini = 0.0\nsamples = 1\nvalue = [0, 1]\nclass = Yes", fillcolor="#399de5"] ;
250 -> 251 ;
252 [label="gini = 0.0\nsamples = 14\nvalue = [23, 0]\nclass = No", fillcolor="#e58139"] ;
250 -> 252 ;
253 [label="job <= 0.727\ngini = 0.472\nsamples = 12\nvalue = [13, 8]\nclass = No", fillcolor="#f5cfb3"] ;
249 -> 253 ;
254 [label="gini = 0.0\nsamples = 2\nvalue = [0, 6]\nclass = Yes", fillcolor="#399de5"] ;
253 -> 254 ;
255 [label="age <= 0.279\ngini = 0.231\nsamples = 10\nvalue = [13, 2]\nclass = No", fillcolor="#e99457"] ;
253 -> 255 ;
256 [label="mon <= 0.045\ngini = 0.5\nsamples = 3\nvalue = [2, 2]\nclass = No", fillcolor="#ffffff"] ;
255 -> 256 ;
257 [label="gini = 0.0\nsamples = 1\nvalue = [0, 2]\nclass = Yes", fillcolor="#399de5"] ;
256 -> 257 ;
258 [label="gini = 0.0\nsamples = 2\nvalue = [2, 0]\nclass = No", fillcolor="#e58139"] ;
256 -> 258 ;
259 [label="gini = 0.0\nsamples = 7\nvalue = [11, 0]\nclass = No", fillcolor="#e58139"] ;
255 -> 259 ;
260 [label="day <= 0.483\ngini = 0.016\nsamples = 3348\nvalue = [5212, 43]\nclass = No", fillcolor="#e5823b"] ;
2 -> 260 ;
261 [label="call_type <= 0.75\ngini = 0.031\nsamples = 1456\nvalue = [2236, 36]\nclass = No", fillcolor="#e5833c"] ;
260 -> 261 ;
262 [label="age <= 0.221\ngini = 0.039\nsamples = 1079\nvalue = [1637, 33]\nclass = No", fillcolor="#e6843d"] ;
261 -> 262 ;
263 [label="job <= 0.045\ngini = 0.129\nsamples = 116\nvalue = [161.0, 12.0]\nclass = No", fillcolor="#e78a48"] ;
262 -> 263 ;
264 [label="dur <= 0.16\ngini = 0.36\nsamples = 12\nvalue = [13, 4]\nclass = No", fillcolor="#eda876"] ;
263 -> 264 ;
265 [label="gini = 0.0\nsamples = 9\nvalue = [12, 0]\nclass = No", fillcolor="#e58139"] ;
264 -> 265 ;
266 [label="dur <= 0.164\ngini = 0.32\nsamples = 3\nvalue = [1, 4]\nclass = Yes", fillcolor="#6ab6ec"] ;
264 -> 266 ;
267 [label="gini = 0.0\nsamples = 1\nvalue = [0, 1]\nclass = Yes", fillcolor="#399de5"] ;
266 -> 267 ;
268 [label="day <= 0.317\ngini = 0.375\nsamples = 2\nvalue = [1, 3]\nclass = Yes", fillcolor="#7bbeee"] ;
266 -> 268 ;
269 [label="gini = 0.0\nsamples = 1\nvalue = [1, 0]\nclass = No", fillcolor="#e58139"] ;
268 -> 269 ;
270 [label="gini = 0.0\nsamples = 1\nvalue = [0, 3]\nclass = Yes", fillcolor="#399de5"] ;
268 -> 270 ;
271 [label="dur <= 0.121\ngini = 0.097\nsamples = 104\nvalue = [148, 8]\nclass = No", fillcolor="#e68844"] ;
263 -> 271 ;
272 [label="mon <= 0.773\ngini = 0.022\nsamples = 54\nvalue = [88, 1]\nclass = No", fillcolor="#e5823b"] ;
271 -> 272 ;
273 [label="gini = 0.0\nsamples = 52\nvalue = [87, 0]\nclass = No", fillcolor="#e58139"] ;
272 -> 273 ;
274 [label="job <= 0.773\ngini = 0.5\nsamples = 2\nvalue = [1, 1]\nclass = No", fillcolor="#ffffff"] ;
272 -> 274 ;
275 [label="gini = 0.0\nsamples = 1\nvalue = [0, 1]\nclass = Yes", fillcolor="#399de5"] ;
274 -> 275 ;
276 [label="gini = 0.0\nsamples = 1\nvalue = [1, 0]\nclass = No", fillcolor="#e58139"] ;
274 -> 276 ;
277 [label="dur <= 0.129\ngini = 0.187\nsamples = 50\nvalue = [60, 7]\nclass = No", fillcolor="#e89050"] ;
271 -> 277 ;
278 [label="gini = 0.0\nsamples = 2\nvalue = [0, 3]\nclass = Yes", fillcolor="#399de5"] ;
277 -> 278 ;
279 [label="dur <= 0.138\ngini = 0.117\nsamples = 48\nvalue = [60, 4]\nclass = No", fillcolor="#e78946"] ;
277 -> 279 ;
280 [label="day <= 0.4\ngini = 0.278\nsamples = 5\nvalue = [5, 1]\nclass = No", fillcolor="#ea9a61"] ;
279 -> 280 ;
281 [label="gini = 0.0\nsamples = 3\nvalue = [4, 0]\nclass = No", fillcolor="#e58139"] ;
280 -> 281 ;
282 [label="job <= 0.409\ngini = 0.5\nsamples = 2\nvalue = [1, 1]\nclass = No", fillcolor="#ffffff"] ;
280 -> 282 ;
283 [label="gini = 0.0\nsamples = 1\nvalue = [1, 0]\nclass = No", fillcolor="#e58139"] ;
282 -> 283 ;
284 [label="gini = 0.0\nsamples = 1\nvalue = [0, 1]\nclass = Yes", fillcolor="#399de5"] ;
282 -> 284 ;
285 [label="num_calls <= 0.7\ngini = 0.098\nsamples = 43\nvalue = [55, 3]\nclass = No", fillcolor="#e68844"] ;
279 -> 285 ;
286 [label="prev_outcome <= 0.167\ngini = 0.069\nsamples = 41\nvalue = [54, 2]\nclass = No", fillcolor="#e68640"] ;
285 -> 286 ;
287 [label="job <= 0.5\ngini = 0.32\nsamples = 5\nvalue = [4, 1]\nclass = No", fillcolor="#eca06a"] ;
286 -> 287 ;
288 [label="marital <= 0.75\ngini = 0.444\nsamples = 3\nvalue = [2, 1]\nclass = No", fillcolor="#f2c09c"] ;
287 -> 288 ;
289 [label="gini = 0.0\nsamples = 1\nvalue = [1, 0]\nclass = No", fillcolor="#e58139"] ;
288 -> 289 ;
290 [label="mon <= 0.455\ngini = 0.5\nsamples = 2\nvalue = [1, 1]\nclass = No", fillcolor="#ffffff"] ;
288 -> 290 ;
291 [label="gini = 0.0\nsamples = 1\nvalue = [0, 1]\nclass = Yes", fillcolor="#399de5"] ;
290 -> 291 ;
292 [label="gini = 0.0\nsamples = 1\nvalue = [1, 0]\nclass = No", fillcolor="#e58139"] ;
290 -> 292 ;
293 [label="gini = 0.0\nsamples = 2\nvalue = [2, 0]\nclass = No", fillcolor="#e58139"] ;
287 -> 293 ;
294 [label="marital <= 0.75\ngini = 0.038\nsamples = 36\nvalue = [50, 1]\nclass = No", fillcolor="#e6843d"] ;
286 -> 294 ;
295 [label="age <= 0.135\ngini = 0.133\nsamples = 10\nvalue = [13, 1]\nclass = No", fillcolor="#e78b48"] ;
294 -> 295 ;
296 [label="gini = 0.0\nsamples = 1\nvalue = [0, 1]\nclass = Yes", fillcolor="#399de5"] ;
295 -> 296 ;
297 [label="gini = 0.0\nsamples = 9\nvalue = [13, 0]\nclass = No", fillcolor="#e58139"] ;
295 -> 297 ;
298 [label="gini = 0.0\nsamples = 26\nvalue = [37, 0]\nclass = No", fillcolor="#e58139"] ;
294 -> 298 ;
299 [label="day <= 0.283\ngini = 0.5\nsamples = 2\nvalue = [1, 1]\nclass = No", fillcolor="#ffffff"] ;
285 -> 299 ;
300 [label="gini = 0.0\nsamples = 1\nvalue = [0, 1]\nclass = Yes", fillcolor="#399de5"] ;
299 -> 300 ;
301 [label="gini = 0.0\nsamples = 1\nvalue = [1, 0]\nclass = No", fillcolor="#e58139"] ;
299 -> 301 ;
302 [label="day <= 0.15\ngini = 0.028\nsamples = 963\nvalue = [1476, 21]\nclass = No", fillcolor="#e5833c"] ;
262 -> 302 ;
303 [label="age <= 0.702\ngini = 0.059\nsamples = 180\nvalue = [285, 9]\nclass = No", fillcolor="#e6853f"] ;
302 -> 303 ;
304 [label="job <= 0.773\ngini = 0.024\nsamples = 151\nvalue = [243, 3]\nclass = No", fillcolor="#e5833b"] ;
303 -> 304 ;
305 [label="gini = 0.0\nsamples = 115\nvalue = [186, 0]\nclass = No", fillcolor="#e58139"] ;
304 -> 305 ;
306 [label="marital <= 0.75\ngini = 0.095\nsamples = 36\nvalue = [57, 3]\nclass = No", fillcolor="#e68843"] ;
304 -> 306 ;
307 [label="gini = 0.0\nsamples = 26\nvalue = [44, 0]\nclass = No", fillcolor="#e58139"] ;
306 -> 307 ;
308 [label="education_qual <= 0.167\ngini = 0.305\nsamples = 10\nvalue = [13, 3]\nclass = No", fillcolor="#eb9e67"] ;
306 -> 308 ;
309 [label="gini = 0.0\nsamples = 1\nvalue = [2, 0]\nclass = No", fillcolor="#e58139"] ;
308 -> 309 ;
310 [label="num_calls <= 0.3\ngini = 0.337\nsamples = 9\nvalue = [11, 3]\nclass = No", fillcolor="#eca36f"] ;
308 -> 310 ;
311 [label="call_type <= 0.25\ngini = 0.5\nsamples = 4\nvalue = [3, 3]\nclass = No", fillcolor="#ffffff"] ;
310 -> 311 ;
312 [label="age <= 0.365\ngini = 0.48\nsamples = 3\nvalue = [2, 3]\nclass = Yes", fillcolor="#bddef6"] ;
311 -> 312 ;
313 [label="dur <= 0.15\ngini = 0.444\nsamples = 2\nvalue = [2, 1]\nclass = No", fillcolor="#f2c09c"] ;
312 -> 313 ;
314 [label="gini = 0.0\nsamples = 1\nvalue = [0, 1]\nclass = Yes", fillcolor="#399de5"] ;
313 -> 314 ;
315 [label="gini = 0.0\nsamples = 1\nvalue = [2, 0]\nclass = No", fillcolor="#e58139"] ;
313 -> 315 ;
316 [label="gini = 0.0\nsamples = 1\nvalue = [0, 2]\nclass = Yes", fillcolor="#399de5"] ;
312 -> 316 ;
317 [label="gini = 0.0\nsamples = 1\nvalue = [1, 0]\nclass = No", fillcolor="#e58139"] ;
311 -> 317 ;
318 [label="gini = 0.0\nsamples = 5\nvalue = [8, 0]\nclass = No", fillcolor="#e58139"] ;
310 -> 318 ;
319 [label="marital <= 0.25\ngini = 0.219\nsamples = 29\nvalue = [42, 6]\nclass = No", fillcolor="#e99355"] ;
303 -> 319 ;
320 [label="age <= 0.721\ngini = 0.469\nsamples = 4\nvalue = [5, 3]\nclass = No", fillcolor="#f5cdb0"] ;
319 -> 320 ;
321 [label="gini = 0.0\nsamples = 1\nvalue = [0, 3]\nclass = Yes", fillcolor="#399de5"] ;
320 -> 321 ;
322 [label="gini = 0.0\nsamples = 3\nvalue = [5, 0]\nclass = No", fillcolor="#e58139"] ;
320 -> 322 ;
323 [label="dur <= 0.145\ngini = 0.139\nsamples = 25\nvalue = [37, 3]\nclass = No", fillcolor="#e78b49"] ;
319 -> 323 ;
324 [label="gini = 0.0\nsamples = 15\nvalue = [26, 0]\nclass = No", fillcolor="#e58139"] ;
323 -> 324 ;
325 [label="num_calls <= 0.3\ngini = 0.337\nsamples = 10\nvalue = [11, 3]\nclass = No", fillcolor="#eca36f"] ;
323 -> 325 ;
326 [label="gini = 0.0\nsamples = 6\nvalue = [9, 0]\nclass = No", fillcolor="#e58139"] ;
325 -> 326 ;
327 [label="education_qual <= 0.167\ngini = 0.48\nsamples = 4\nvalue = [2, 3]\nclass = Yes", fillcolor="#bddef6"] ;
325 -> 327 ;
328 [label="gini = 0.0\nsamples = 2\nvalue = [2, 0]\nclass = No", fillcolor="#e58139"] ;
327 -> 328 ;
329 [label="gini = 0.0\nsamples = 2\nvalue = [0, 3]\nclass = Yes", fillcolor="#399de5"] ;
327 -> 329 ;
330 [label="prev_outcome <= 0.833\ngini = 0.02\nsamples = 783\nvalue = [1191, 12]\nclass = No", fillcolor="#e5823b"] ;
302 -> 330 ;
331 [label="job <= 0.045\ngini = 0.044\nsamples = 166\nvalue = [262, 6]\nclass = No", fillcolor="#e6843e"] ;
330 -> 331 ;
332 [label="mon <= 0.5\ngini = 0.184\nsamples = 24\nvalue = [35, 4]\nclass = No", fillcolor="#e88f50"] ;
331 -> 332 ;
333 [label="dur <= 0.068\ngini = 0.49\nsamples = 4\nvalue = [3, 4]\nclass = Yes", fillcolor="#cee6f8"] ;
332 -> 333 ;
334 [label="gini = 0.0\nsamples = 1\nvalue = [2, 0]\nclass = No", fillcolor="#e58139"] ;
333 -> 334 ;
335 [label="num_calls <= 0.8\ngini = 0.32\nsamples = 3\nvalue = [1, 4]\nclass = Yes", fillcolor="#6ab6ec"] ;
333 -> 335 ;
336 [label="gini = 0.0\nsamples = 2\nvalue = [0, 4]\nclass = Yes", fillcolor="#399de5"] ;
335 -> 336 ;
337 [label="gini = 0.0\nsamples = 1\nvalue = [1, 0]\nclass = No", fillcolor="#e58139"] ;
335 -> 337 ;
338 [label="gini = 0.0\nsamples = 20\nvalue = [32, 0]\nclass = No", fillcolor="#e58139"] ;
332 -> 338 ;
339 [label="num_calls <= 0.9\ngini = 0.017\nsamples = 142\nvalue = [227, 2]\nclass = No", fillcolor="#e5823b"] ;
331 -> 339 ;
340 [label="num_calls <= 0.5\ngini = 0.009\nsamples = 134\nvalue = [216, 1]\nclass = No", fillcolor="#e5823a"] ;
339 -> 340 ;
341 [label="gini = 0.0\nsamples = 95\nvalue = [156, 0]\nclass = No", fillcolor="#e58139"] ;
340 -> 341 ;
342 [label="day <= 0.45\ngini = 0.032\nsamples = 39\nvalue = [60, 1]\nclass = No", fillcolor="#e5833c"] ;
340 -> 342 ;
343 [label="gini = 0.0\nsamples = 29\nvalue = [43, 0]\nclass = No", fillcolor="#e58139"] ;
342 -> 343 ;
344 [label="mon <= 0.5\ngini = 0.105\nsamples = 10\nvalue = [17, 1]\nclass = No", fillcolor="#e78845"] ;
342 -> 344 ;
345 [label="job <= 0.409\ngini = 0.32\nsamples = 3\nvalue = [4, 1]\nclass = No", fillcolor="#eca06a"] ;
344 -> 345 ;
346 [label="gini = 0.0\nsamples = 1\nvalue = [0, 1]\nclass = Yes", fillcolor="#399de5"] ;
345 -> 346 ;
347 [label="gini = 0.0\nsamples = 2\nvalue = [4, 0]\nclass = No", fillcolor="#e58139"] ;
345 -> 347 ;
348 [label="gini = 0.0\nsamples = 7\nvalue = [13, 0]\nclass = No", fillcolor="#e58139"] ;
344 -> 348 ;
349 [label="job <= 0.727\ngini = 0.153\nsamples = 8\nvalue = [11, 1]\nclass = No", fillcolor="#e78c4b"] ;
339 -> 349 ;
350 [label="gini = 0.0\nsamples = 6\nvalue = [9, 0]\nclass = No", fillcolor="#e58139"] ;
349 -> 350 ;
351 [label="day <= 0.317\ngini = 0.444\nsamples = 2\nvalue = [2, 1]\nclass = No", fillcolor="#f2c09c"] ;
349 -> 351 ;
352 [label="gini = 0.0\nsamples = 1\nvalue = [2, 0]\nclass = No", fillcolor="#e58139"] ;
351 -> 352 ;
353 [label="gini = 0.0\nsamples = 1\nvalue = [0, 1]\nclass = Yes", fillcolor="#399de5"] ;
351 -> 353 ;
354 [label="mon <= 0.773\ngini = 0.013\nsamples = 617\nvalue = [929, 6]\nclass = No", fillcolor="#e5823a"] ;
330 -> 354 ;
355 [label="education_qual <= 0.5\ngini = 0.011\nsamples = 612\nvalue = [919, 5]\nclass = No", fillcolor="#e5823a"] ;
354 -> 355 ;
356 [label="num_calls <= 0.3\ngini = 0.003\nsamples = 399\nvalue = [580, 1]\nclass = No", fillcolor="#e58139"] ;
355 -> 356 ;
357 [label="gini = 0.0\nsamples = 204\nvalue = [297, 0]\nclass = No", fillcolor="#e58139"] ;
356 -> 357 ;
358 [label="job <= 0.727\ngini = 0.007\nsamples = 195\nvalue = [283, 1]\nclass = No", fillcolor="#e5813a"] ;
356 -> 358 ;
359 [label="gini = 0.0\nsamples = 144\nvalue = [208, 0]\nclass = No", fillcolor="#e58139"] ;
358 -> 359 ;
360 [label="day <= 0.3\ngini = 0.026\nsamples = 51\nvalue = [75, 1]\nclass = No", fillcolor="#e5833c"] ;
358 -> 360 ;
361 [label="gini = 0.0\nsamples = 24\nvalue = [36, 0]\nclass = No", fillcolor="#e58139"] ;
360 -> 361 ;
362 [label="num_calls <= 0.5\ngini = 0.049\nsamples = 27\nvalue = [39, 1]\nclass = No", fillcolor="#e6843e"] ;
360 -> 362 ;
363 [label="marital <= 0.25\ngini = 0.105\nsamples = 11\nvalue = [17, 1]\nclass = No", fillcolor="#e78845"] ;
362 -> 363 ;
364 [label="gini = 0.0\nsamples = 1\nvalue = [3, 0]\nclass = No", fillcolor="#e58139"] ;
363 -> 364 ;
365 [label="dur <= 0.167\ngini = 0.124\nsamples = 10\nvalue = [14, 1]\nclass = No", fillcolor="#e78a47"] ;
363 -> 365 ;
366 [label="gini = 0.0\nsamples = 8\nvalue = [11, 0]\nclass = No", fillcolor="#e58139"] ;
365 -> 366 ;
367 [label="day <= 0.35\ngini = 0.375\nsamples = 2\nvalue = [3, 1]\nclass = No", fillcolor="#eeab7b"] ;
365 -> 367 ;
368 [label="gini = 0.0\nsamples = 1\nvalue = [0, 1]\nclass = Yes", fillcolor="#399de5"] ;
367 -> 368 ;
369 [label="gini = 0.0\nsamples = 1\nvalue = [3, 0]\nclass = No", fillcolor="#e58139"] ;
367 -> 369 ;
370 [label="gini = 0.0\nsamples = 16\nvalue = [22, 0]\nclass = No", fillcolor="#e58139"] ;
362 -> 370 ;
371 [label="call_type <= 0.25\ngini = 0.023\nsamples = 213\nvalue = [339, 4]\nclass = No", fillcolor="#e5823b"] ;
355 -> 371 ;
372 [label="dur <= 0.166\ngini = 0.006\nsamples = 201\nvalue = [319, 1]\nclass = No", fillcolor="#e5813a"] ;
371 -> 372 ;
373 [label="gini = 0.0\nsamples = 151\nvalue = [242, 0]\nclass = No", fillcolor="#e58139"] ;
372 -> 373 ;
374 [label="mon <= 0.5\ngini = 0.025\nsamples = 50\nvalue = [77, 1]\nclass = No", fillcolor="#e5833c"] ;
372 -> 374 ;
375 [label="gini = 0.0\nsamples = 45\nvalue = [72, 0]\nclass = No", fillcolor="#e58139"] ;
374 -> 375 ;
376 [label="dur <= 0.169\ngini = 0.278\nsamples = 5\nvalue = [5, 1]\nclass = No", fillcolor="#ea9a61"] ;
374 -> 376 ;
377 [label="gini = 0.0\nsamples = 1\nvalue = [0, 1]\nclass = Yes", fillcolor="#399de5"] ;
376 -> 377 ;
378 [label="gini = 0.0\nsamples = 4\nvalue = [5, 0]\nclass = No", fillcolor="#e58139"] ;
376 -> 378 ;
379 [label="job <= 0.455\ngini = 0.227\nsamples = 12\nvalue = [20, 3]\nclass = No", fillcolor="#e99457"] ;
371 -> 379 ;
380 [label="age <= 0.481\ngini = 0.305\nsamples = 9\nvalue = [13, 3]\nclass = No", fillcolor="#eb9e67"] ;
379 -> 380 ;
381 [label="age <= 0.337\ngini = 0.375\nsamples = 2\nvalue = [1, 3]\nclass = Yes", fillcolor="#7bbeee"] ;
380 -> 381 ;
382 [label="gini = 0.0\nsamples = 1\nvalue = [1, 0]\nclass = No", fillcolor="#e58139"] ;
381 -> 382 ;
383 [label="gini = 0.0\nsamples = 1\nvalue = [0, 3]\nclass = Yes", fillcolor="#399de5"] ;
381 -> 383 ;
384 [label="gini = 0.0\nsamples = 7\nvalue = [12, 0]\nclass = No", fillcolor="#e58139"] ;
380 -> 384 ;
385 [label="gini = 0.0\nsamples = 3\nvalue = [7, 0]\nclass = No", fillcolor="#e58139"] ;
379 -> 385 ;
386 [label="dur <= 0.126\ngini = 0.165\nsamples = 5\nvalue = [10, 1]\nclass = No", fillcolor="#e88e4d"] ;
354 -> 386 ;
387 [label="gini = 0.0\nsamples = 1\nvalue = [0, 1]\nclass = Yes", fillcolor="#399de5"] ;
386 -> 387 ;
388 [label="gini = 0.0\nsamples = 4\nvalue = [10, 0]\nclass = No", fillcolor="#e58139"] ;
386 -> 388 ;
389 [label="job <= 0.045\ngini = 0.01\nsamples = 377\nvalue = [599, 3]\nclass = No", fillcolor="#e5823a"] ;
261 -> 389 ;
390 [label="age <= 0.548\ngini = 0.079\nsamples = 43\nvalue = [70, 3]\nclass = No", fillcolor="#e68641"] ;
389 -> 390 ;
391 [label="gini = 0.0\nsamples = 32\nvalue = [54, 0]\nclass = No", fillcolor="#e58139"] ;
390 -> 391 ;
392 [label="num_calls <= 0.3\ngini = 0.266\nsamples = 11\nvalue = [16, 3]\nclass = No", fillcolor="#ea995e"] ;
390 -> 392 ;
393 [label="day <= 0.183\ngini = 0.469\nsamples = 5\nvalue = [5, 3]\nclass = No", fillcolor="#f5cdb0"] ;
392 -> 393 ;
394 [label="marital <= 0.25\ngini = 0.48\nsamples = 3\nvalue = [2, 3]\nclass = Yes", fillcolor="#bddef6"] ;
393 -> 394 ;
395 [label="gini = 0.0\nsamples = 1\nvalue = [0, 3]\nclass = Yes", fillcolor="#399de5"] ;
394 -> 395 ;
396 [label="gini = 0.0\nsamples = 2\nvalue = [2, 0]\nclass = No", fillcolor="#e58139"] ;
394 -> 396 ;
397 [label="gini = 0.0\nsamples = 2\nvalue = [3, 0]\nclass = No", fillcolor="#e58139"] ;
393 -> 397 ;
398 [label="gini = 0.0\nsamples = 6\nvalue = [11, 0]\nclass = No", fillcolor="#e58139"] ;
392 -> 398 ;
399 [label="gini = 0.0\nsamples = 334\nvalue = [529, 0]\nclass = No", fillcolor="#e58139"] ;
389 -> 399 ;
400 [label="dur <= 0.135\ngini = 0.005\nsamples = 1892\nvalue = [2976, 7]\nclass = No", fillcolor="#e58139"] ;
260 -> 400 ;
401 [label="gini = 0.0\nsamples = 1104\nvalue = [1761, 0]\nclass = No", fillcolor="#e58139"] ;
400 -> 401 ;
402 [label="dur <= 0.136\ngini = 0.011\nsamples = 788\nvalue = [1215, 7]\nclass = No", fillcolor="#e5823a"] ;
400 -> 402 ;
403 [label="num_calls <= 0.3\ngini = 0.105\nsamples = 22\nvalue = [34, 2]\nclass = No", fillcolor="#e78845"] ;
402 -> 403 ;
404 [label="prev_outcome <= 0.667\ngini = 0.198\nsamples = 11\nvalue = [16, 2]\nclass = No", fillcolor="#e89152"] ;
403 -> 404 ;
405 [label="gini = 0.0\nsamples = 3\nvalue = [6, 0]\nclass = No", fillcolor="#e58139"] ;
404 -> 405 ;
406 [label="day <= 0.85\ngini = 0.278\nsamples = 8\nvalue = [10, 2]\nclass = No", fillcolor="#ea9a61"] ;
404 -> 406 ;
407 [label="gini = 0.0\nsamples = 7\nvalue = [10, 0]\nclass = No", fillcolor="#e58139"] ;
406 -> 407 ;
408 [label="gini = 0.0\nsamples = 1\nvalue = [0, 2]\nclass = Yes", fillcolor="#399de5"] ;
406 -> 408 ;
409 [label="gini = 0.0\nsamples = 11\nvalue = [18, 0]\nclass = No", fillcolor="#e58139"] ;
403 -> 409 ;
410 [label="age <= 0.163\ngini = 0.008\nsamples = 766\nvalue = [1181, 5]\nclass = No", fillcolor="#e5823a"] ;
402 -> 410 ;
411 [label="job <= 0.045\ngini = 0.083\nsamples = 38\nvalue = [66, 3]\nclass = No", fillcolor="#e68742"] ;
410 -> 411 ;
412 [label="dur <= 0.177\ngini = 0.375\nsamples = 2\nvalue = [3, 1]\nclass = No", fillcolor="#eeab7b"] ;
411 -> 412 ;
413 [label="gini = 0.0\nsamples = 1\nvalue = [3, 0]\nclass = No", fillcolor="#e58139"] ;
412 -> 413 ;
414 [label="gini = 0.0\nsamples = 1\nvalue = [0, 1]\nclass = Yes", fillcolor="#399de5"] ;
412 -> 414 ;
415 [label="education_qual <= 0.5\ngini = 0.06\nsamples = 36\nvalue = [63, 2]\nclass = No", fillcolor="#e6853f"] ;
411 -> 415 ;
416 [label="gini = 0.0\nsamples = 23\nvalue = [44, 0]\nclass = No", fillcolor="#e58139"] ;
415 -> 416 ;
417 [label="dur <= 0.17\ngini = 0.172\nsamples = 13\nvalue = [19, 2]\nclass = No", fillcolor="#e88e4e"] ;
415 -> 417 ;
418 [label="gini = 0.0\nsamples = 8\nvalue = [14, 0]\nclass = No", fillcolor="#e58139"] ;
417 -> 418 ;
419 [label="day <= 0.717\ngini = 0.408\nsamples = 5\nvalue = [5, 2]\nclass = No", fillcolor="#efb388"] ;
417 -> 419 ;
420 [label="gini = 0.0\nsamples = 1\nvalue = [0, 2]\nclass = Yes", fillcolor="#399de5"] ;
419 -> 420 ;
421 [label="gini = 0.0\nsamples = 4\nvalue = [5, 0]\nclass = No", fillcolor="#e58139"] ;
419 -> 421 ;
422 [label="prev_outcome <= 0.167\ngini = 0.004\nsamples = 728\nvalue = [1115, 2]\nclass = No", fillcolor="#e58139"] ;
410 -> 422 ;
423 [label="day <= 0.85\ngini = 0.045\nsamples = 57\nvalue = [85, 2]\nclass = No", fillcolor="#e6843e"] ;
422 -> 423 ;
424 [label="gini = 0.0\nsamples = 46\nvalue = [72, 0]\nclass = No", fillcolor="#e58139"] ;
423 -> 424 ;
425 [label="mon <= 0.5\ngini = 0.231\nsamples = 11\nvalue = [13, 2]\nclass = No", fillcolor="#e99457"] ;
423 -> 425 ;
426 [label="gini = 0.0\nsamples = 7\nvalue = [10, 0]\nclass = No", fillcolor="#e58139"] ;
425 -> 426 ;
427 [label="day <= 0.883\ngini = 0.48\nsamples = 4\nvalue = [3, 2]\nclass = No", fillcolor="#f6d5bd"] ;
425 -> 427 ;
428 [label="num_calls <= 0.4\ngini = 0.444\nsamples = 2\nvalue = [1, 2]\nclass = Yes", fillcolor="#9ccef2"] ;
427 -> 428 ;
429 [label="gini = 0.0\nsamples = 1\nvalue = [0, 2]\nclass = Yes", fillcolor="#399de5"] ;
428 -> 429 ;
430 [label="gini = 0.0\nsamples = 1\nvalue = [1, 0]\nclass = No", fillcolor="#e58139"] ;
428 -> 430 ;
431 [label="gini = 0.0\nsamples = 2\nvalue = [2, 0]\nclass = No", fillcolor="#e58139"] ;
427 -> 431 ;
432 [label="gini = 0.0\nsamples = 671\nvalue = [1030, 0]\nclass = No", fillcolor="#e58139"] ;
422 -> 432 ;
433 [label="call_type <= 0.75\ngini = 0.263\nsamples = 13109\nvalue = [17613, 3255]\nclass = No", fillcolor="#ea985e"] ;
1 -> 433 ;
434 [label="dur <= 0.194\ngini = 0.32\nsamples = 9223\nvalue = [11691, 2930]\nclass = No", fillcolor="#eca16b"] ;
433 -> 434 ;
435 [label="education_qual <= 0.833\ngini = 0.497\nsamples = 1057\nvalue = [769, 899]\nclass = Yes", fillcolor="#e2f1fb"] ;
434 -> 435 ;
436 [label="mon <= 0.773\ngini = 0.496\nsamples = 1015\nvalue = [732, 872]\nclass = Yes", fillcolor="#dfeffb"] ;
435 -> 436 ;
437 [label="mon <= 0.5\ngini = 0.494\nsamples = 894\nvalue = [630.0, 784.0]\nclass = Yes", fillcolor="#d8ecfa"] ;
436 -> 437 ;
438 [label="job <= 0.045\ngini = 0.499\nsamples = 681\nvalue = [509, 563]\nclass = Yes", fillcolor="#ecf6fd"] ;
437 -> 438 ;
439 [label="day <= 0.65\ngini = 0.464\nsamples = 58\nvalue = [37, 64]\nclass = Yes", fillcolor="#abd6f4"] ;
438 -> 439 ;
440 [label="call_type <= 0.25\ngini = 0.496\nsamples = 36\nvalue = [29, 35]\nclass = Yes", fillcolor="#ddeefb"] ;
439 -> 440 ;
441 [label="mon <= 0.045\ngini = 0.486\nsamples = 33\nvalue = [25, 35]\nclass = Yes", fillcolor="#c6e3f8"] ;
440 -> 441 ;
442 [label="num_calls <= 0.4\ngini = 0.463\nsamples = 6\nvalue = [7, 4]\nclass = No", fillcolor="#f4c9aa"] ;
441 -> 442 ;
443 [label="day <= 0.5\ngini = 0.48\nsamples = 5\nvalue = [6, 4]\nclass = No", fillcolor="#f6d5bd"] ;
442 -> 443 ;
444 [label="num_calls <= 0.1\ngini = 0.444\nsamples = 3\nvalue = [2, 4]\nclass = Yes", fillcolor="#9ccef2"] ;
443 -> 444 ;
445 [label="day <= 0.317\ngini = 0.5\nsamples = 2\nvalue = [2, 2]\nclass = No", fillcolor="#ffffff"] ;
444 -> 445 ;
446 [label="gini = 0.0\nsamples = 1\nvalue = [2, 0]\nclass = No", fillcolor="#e58139"] ;
445 -> 446 ;
447 [label="gini = 0.0\nsamples = 1\nvalue = [0, 2]\nclass = Yes", fillcolor="#399de5"] ;
445 -> 447 ;
448 [label="gini = 0.0\nsamples = 1\nvalue = [0, 2]\nclass = Yes", fillcolor="#399de5"] ;
444 -> 448 ;
449 [label="gini = 0.0\nsamples = 2\nvalue = [4, 0]\nclass = No", fillcolor="#e58139"] ;
443 -> 449 ;
450 [label="gini = 0.0\nsamples = 1\nvalue = [1, 0]\nclass = No", fillcolor="#e58139"] ;
442 -> 450 ;
451 [label="prev_outcome <= 0.833\ngini = 0.465\nsamples = 27\nvalue = [18, 31]\nclass = Yes", fillcolor="#acd6f4"] ;
441 -> 451 ;
452 [label="marital <= 0.25\ngini = 0.397\nsamples = 6\nvalue = [3, 8]\nclass = Yes", fillcolor="#83c2ef"] ;
451 -> 452 ;
453 [label="gini = 0.0\nsamples = 2\nvalue = [0, 2]\nclass = Yes", fillcolor="#399de5"] ;
452 -> 453 ;
454 [label="age <= 0.538\ngini = 0.444\nsamples = 4\nvalue = [3, 6]\nclass = Yes", fillcolor="#9ccef2"] ;
452 -> 454 ;
455 [label="gini = 0.0\nsamples = 2\nvalue = [0, 6]\nclass = Yes", fillcolor="#399de5"] ;
454 -> 455 ;
456 [label="gini = 0.0\nsamples = 2\nvalue = [3, 0]\nclass = No", fillcolor="#e58139"] ;
454 -> 456 ;
457 [label="age <= 0.471\ngini = 0.478\nsamples = 21\nvalue = [15, 23]\nclass = Yes", fillcolor="#baddf6"] ;
451 -> 457 ;
458 [label="day <= 0.583\ngini = 0.455\nsamples = 11\nvalue = [13, 7]\nclass = No", fillcolor="#f3c5a4"] ;
457 -> 458 ;
459 [label="age <= 0.173\ngini = 0.432\nsamples = 10\nvalue = [13, 6]\nclass = No", fillcolor="#f1bb94"] ;
458 -> 459 ;
460 [label="gini = 0.0\nsamples = 1\nvalue = [0, 4]\nclass = Yes", fillcolor="#399de5"] ;
459 -> 460 ;
461 [label="num_calls <= 0.1\ngini = 0.231\nsamples = 9\nvalue = [13, 2]\nclass = No", fillcolor="#e99457"] ;
459 -> 461 ;
462 [label="gini = 0.0\nsamples = 4\nvalue = [8, 0]\nclass = No", fillcolor="#e58139"] ;
461 -> 462 ;
463 [label="day <= 0.317\ngini = 0.408\nsamples = 5\nvalue = [5, 2]\nclass = No", fillcolor="#efb388"] ;
461 -> 463 ;
464 [label="gini = 0.0\nsamples = 1\nvalue = [0, 1]\nclass = Yes", fillcolor="#399de5"] ;
463 -> 464 ;
465 [label="marital <= 0.25\ngini = 0.278\nsamples = 4\nvalue = [5, 1]\nclass = No", fillcolor="#ea9a61"] ;
463 -> 465 ;
466 [label="gini = 0.0\nsamples = 1\nvalue = [3, 0]\nclass = No", fillcolor="#e58139"] ;
465 -> 466 ;
467 [label="age <= 0.317\ngini = 0.444\nsamples = 3\nvalue = [2, 1]\nclass = No", fillcolor="#f2c09c"] ;
465 -> 467 ;
468 [label="gini = 0.0\nsamples = 2\nvalue = [2, 0]\nclass = No", fillcolor="#e58139"] ;
467 -> 468 ;
469 [label="gini = 0.0\nsamples = 1\nvalue = [0, 1]\nclass = Yes", fillcolor="#399de5"] ;
467 -> 469 ;
470 [label="gini = 0.0\nsamples = 1\nvalue = [0, 1]\nclass = Yes", fillcolor="#399de5"] ;
458 -> 470 ;
471 [label="day <= 0.333\ngini = 0.198\nsamples = 10\nvalue = [2, 16]\nclass = Yes", fillcolor="#52a9e8"] ;
457 -> 471 ;
472 [label="gini = 0.0\nsamples = 4\nvalue = [0, 9]\nclass = Yes", fillcolor="#399de5"] ;
471 -> 472 ;
473 [label="mon <= 0.227\ngini = 0.346\nsamples = 6\nvalue = [2, 7]\nclass = Yes", fillcolor="#72b9ec"] ;
471 -> 473 ;
474 [label="day <= 0.483\ngini = 0.5\nsamples = 3\nvalue = [2, 2]\nclass = No", fillcolor="#ffffff"] ;
473 -> 474 ;
475 [label="gini = 0.0\nsamples = 1\nvalue = [1, 0]\nclass = No", fillcolor="#e58139"] ;
474 -> 475 ;
476 [label="num_calls <= 0.4\ngini = 0.444\nsamples = 2\nvalue = [1, 2]\nclass = Yes", fillcolor="#9ccef2"] ;
474 -> 476 ;
477 [label="gini = 0.0\nsamples = 1\nvalue = [1, 0]\nclass = No", fillcolor="#e58139"] ;
476 -> 477 ;
478 [label="gini = 0.0\nsamples = 1\nvalue = [0, 2]\nclass = Yes", fillcolor="#399de5"] ;
476 -> 478 ;
479 [label="gini = 0.0\nsamples = 3\nvalue = [0, 5]\nclass = Yes", fillcolor="#399de5"] ;
473 -> 479 ;
480 [label="gini = 0.0\nsamples = 3\nvalue = [4, 0]\nclass = No", fillcolor="#e58139"] ;
440 -> 480 ;
481 [label="age <= 0.625\ngini = 0.339\nsamples = 22\nvalue = [8, 29]\nclass = Yes", fillcolor="#70b8ec"] ;
439 -> 481 ;
482 [label="age <= 0.337\ngini = 0.219\nsamples = 18\nvalue = [4, 28]\nclass = Yes", fillcolor="#55abe9"] ;
481 -> 482 ;
483 [label="gini = 0.0\nsamples = 5\nvalue = [0, 12]\nclass = Yes", fillcolor="#399de5"] ;
482 -> 483 ;
484 [label="education_qual <= 0.5\ngini = 0.32\nsamples = 13\nvalue = [4, 16]\nclass = Yes", fillcolor="#6ab6ec"] ;
482 -> 484 ;
485 [label="day <= 0.917\ngini = 0.266\nsamples = 12\nvalue = [3, 16]\nclass = Yes", fillcolor="#5eafea"] ;
484 -> 485 ;
486 [label="gini = 0.0\nsamples = 7\nvalue = [0, 13]\nclass = Yes", fillcolor="#399de5"] ;
485 -> 486 ;
487 [label="mon <= 0.182\ngini = 0.5\nsamples = 5\nvalue = [3, 3]\nclass = No", fillcolor="#ffffff"] ;
485 -> 487 ;
488 [label="gini = 0.0\nsamples = 1\nvalue = [0, 1]\nclass = Yes", fillcolor="#399de5"] ;
487 -> 488 ;
489 [label="day <= 0.983\ngini = 0.48\nsamples = 4\nvalue = [3, 2]\nclass = No", fillcolor="#f6d5bd"] ;
487 -> 489 ;
490 [label="gini = 0.0\nsamples = 3\nvalue = [3, 0]\nclass = No", fillcolor="#e58139"] ;
489 -> 490 ;
491 [label="gini = 0.0\nsamples = 1\nvalue = [0, 2]\nclass = Yes", fillcolor="#399de5"] ;
489 -> 491 ;
492 [label="gini = 0.0\nsamples = 1\nvalue = [1, 0]\nclass = No", fillcolor="#e58139"] ;
484 -> 492 ;
493 [label="call_type <= 0.25\ngini = 0.32\nsamples = 4\nvalue = [4, 1]\nclass = No", fillcolor="#eca06a"] ;
481 -> 493 ;
494 [label="prev_outcome <= 0.667\ngini = 0.5\nsamples = 2\nvalue = [1, 1]\nclass = No", fillcolor="#ffffff"] ;
493 -> 494 ;
495 [label="gini = 0.0\nsamples = 1\nvalue = [1, 0]\nclass = No", fillcolor="#e58139"] ;
494 -> 495 ;
496 [label="gini = 0.0\nsamples = 1\nvalue = [0, 1]\nclass = Yes", fillcolor="#399de5"] ;
494 -> 496 ;
497 [label="gini = 0.0\nsamples = 2\nvalue = [3, 0]\nclass = No", fillcolor="#e58139"] ;
493 -> 497 ;
498 [label="num_calls <= 0.7\ngini = 0.5\nsamples = 623\nvalue = [472, 499]\nclass = Yes", fillcolor="#f4fafe"] ;
438 -> 498 ;
499 [label="prev_outcome <= 0.5\ngini = 0.499\nsamples = 582\nvalue = [434, 471]\nclass = Yes", fillcolor="#eff7fd"] ;
498 -> 499 ;
500 [label="day <= 0.2\ngini = 0.494\nsamples = 68\nvalue = [59, 47]\nclass = No", fillcolor="#fae5d7"] ;
499 -> 500 ;
501 [label="num_calls <= 0.1\ngini = 0.326\nsamples = 24\nvalue = [31.0, 8.0]\nclass = No", fillcolor="#eca26c"] ;
500 -> 501 ;
502 [label="day <= 0.017\ngini = 0.475\nsamples = 10\nvalue = [11, 7]\nclass = No", fillcolor="#f6d1b7"] ;
501 -> 502 ;
503 [label="gini = 0.0\nsamples = 2\nvalue = [7, 0]\nclass = No", fillcolor="#e58139"] ;
502 -> 503 ;
504 [label="day <= 0.05\ngini = 0.463\nsamples = 8\nvalue = [4, 7]\nclass = Yes", fillcolor="#aad5f4"] ;
502 -> 504 ;
505 [label="gini = 0.0\nsamples = 2\nvalue = [0, 3]\nclass = Yes", fillcolor="#399de5"] ;
504 -> 505 ;
506 [label="prev_outcome <= 0.167\ngini = 0.5\nsamples = 6\nvalue = [4, 4]\nclass = No", fillcolor="#ffffff"] ;
504 -> 506 ;
507 [label="age <= 0.471\ngini = 0.49\nsamples = 5\nvalue = [3, 4]\nclass = Yes", fillcolor="#cee6f8"] ;
506 -> 507 ;
508 [label="gini = 0.0\nsamples = 3\nvalue = [0, 4]\nclass = Yes", fillcolor="#399de5"] ;
507 -> 508 ;
509 [label="gini = 0.0\nsamples = 2\nvalue = [3, 0]\nclass = No", fillcolor="#e58139"] ;
507 -> 509 ;
510 [label="gini = 0.0\nsamples = 1\nvalue = [1, 0]\nclass = No", fillcolor="#e58139"] ;
506 -> 510 ;
511 [label="age <= 0.135\ngini = 0.091\nsamples = 14\nvalue = [20, 1]\nclass = No", fillcolor="#e68743"] ;
501 -> 511 ;
512 [label="gini = 0.0\nsamples = 1\nvalue = [0, 1]\nclass = Yes", fillcolor="#399de5"] ;
511 -> 512 ;
513 [label="gini = 0.0\nsamples = 13\nvalue = [20, 0]\nclass = No", fillcolor="#e58139"] ;
511 -> 513 ;
514 [label="day <= 0.317\ngini = 0.487\nsamples = 44\nvalue = [28, 39]\nclass = Yes", fillcolor="#c7e3f8"] ;
500 -> 514 ;
515 [label="mon <= 0.364\ngini = 0.18\nsamples = 10\nvalue = [2, 18]\nclass = Yes", fillcolor="#4fa8e8"] ;
514 -> 515 ;
516 [label="num_calls <= 0.1\ngini = 0.1\nsamples = 9\nvalue = [1, 18]\nclass = Yes", fillcolor="#44a2e6"] ;
515 -> 516 ;
517 [label="day <= 0.283\ngini = 0.245\nsamples = 4\nvalue = [1, 6]\nclass = Yes", fillcolor="#5aade9"] ;
516 -> 517 ;
518 [label="day <= 0.25\ngini = 0.444\nsamples = 2\nvalue = [1, 2]\nclass = Yes", fillcolor="#9ccef2"] ;
517 -> 518 ;
519 [label="gini = 0.0\nsamples = 1\nvalue = [0, 2]\nclass = Yes", fillcolor="#399de5"] ;
518 -> 519 ;
520 [label="gini = 0.0\nsamples = 1\nvalue = [1, 0]\nclass = No", fillcolor="#e58139"] ;
518 -> 520 ;
521 [label="gini = 0.0\nsamples = 2\nvalue = [0, 4]\nclass = Yes", fillcolor="#399de5"] ;
517 -> 521 ;
522 [label="gini = 0.0\nsamples = 5\nvalue = [0, 12]\nclass = Yes", fillcolor="#399de5"] ;
516 -> 522 ;
523 [label="gini = 0.0\nsamples = 1\nvalue = [1, 0]\nclass = No", fillcolor="#e58139"] ;
515 -> 523 ;
524 [label="mon <= 0.409\ngini = 0.494\nsamples = 34\nvalue = [26, 21]\nclass = No", fillcolor="#fae7d9"] ;
514 -> 524 ;
525 [label="day <= 0.7\ngini = 0.478\nsamples = 31\nvalue = [26, 17]\nclass = No", fillcolor="#f6d3ba"] ;
524 -> 525 ;
526 [label="education_qual <= 0.167\ngini = 0.422\nsamples = 23\nvalue = [23, 10]\nclass = No", fillcolor="#f0b88f"] ;
525 -> 526 ;
527 [label="gini = 0.0\nsamples = 3\nvalue = [5, 0]\nclass = No", fillcolor="#e58139"] ;
526 -> 527 ;
528 [label="job <= 0.273\ngini = 0.459\nsamples = 20\nvalue = [18, 10]\nclass = No", fillcolor="#f3c7a7"] ;
526 -> 528 ;
529 [label="age <= 0.298\ngini = 0.444\nsamples = 5\nvalue = [3, 6]\nclass = Yes", fillcolor="#9ccef2"] ;
528 -> 529 ;
530 [label="gini = 0.0\nsamples = 2\nvalue = [3, 0]\nclass = No", fillcolor="#e58139"] ;
529 -> 530 ;
531 [label="gini = 0.0\nsamples = 3\nvalue = [0, 6]\nclass = Yes", fillcolor="#399de5"] ;
529 -> 531 ;
532 [label="mon <= 0.318\ngini = 0.332\nsamples = 15\nvalue = [15, 4]\nclass = No", fillcolor="#eca36e"] ;
528 -> 532 ;
533 [label="age <= 0.702\ngini = 0.278\nsamples = 14\nvalue = [15, 3]\nclass = No", fillcolor="#ea9a61"] ;
532 -> 533 ;
534 [label="num_calls <= 0.1\ngini = 0.208\nsamples = 13\nvalue = [15, 2]\nclass = No", fillcolor="#e89253"] ;
533 -> 534 ;
535 [label="gini = 0.0\nsamples = 4\nvalue = [6, 0]\nclass = No", fillcolor="#e58139"] ;
534 -> 535 ;
536 [label="education_qual <= 0.5\ngini = 0.298\nsamples = 9\nvalue = [9, 2]\nclass = No", fillcolor="#eb9d65"] ;
534 -> 536 ;
537 [label="num_calls <= 0.3\ngini = 0.346\nsamples = 8\nvalue = [7, 2]\nclass = No", fillcolor="#eca572"] ;
536 -> 537 ;
538 [label="job <= 0.591\ngini = 0.5\nsamples = 4\nvalue = [2, 2]\nclass = No", fillcolor="#ffffff"] ;
537 -> 538 ;
539 [label="gini = 0.0\nsamples = 1\nvalue = [0, 1]\nclass = Yes", fillcolor="#399de5"] ;
538 -> 539 ;
540 [label="age <= 0.288\ngini = 0.444\nsamples = 3\nvalue = [2, 1]\nclass = No", fillcolor="#f2c09c"] ;
538 -> 540 ;
541 [label="gini = 0.0\nsamples = 1\nvalue = [0, 1]\nclass = Yes", fillcolor="#399de5"] ;
540 -> 541 ;
542 [label="gini = 0.0\nsamples = 2\nvalue = [2, 0]\nclass = No", fillcolor="#e58139"] ;
540 -> 542 ;
543 [label="gini = 0.0\nsamples = 4\nvalue = [5, 0]\nclass = No", fillcolor="#e58139"] ;
537 -> 543 ;
544 [label="gini = 0.0\nsamples = 1\nvalue = [2, 0]\nclass = No", fillcolor="#e58139"] ;
536 -> 544 ;
545 [label="gini = 0.0\nsamples = 1\nvalue = [0, 1]\nclass = Yes", fillcolor="#399de5"] ;
533 -> 545 ;
546 [label="gini = 0.0\nsamples = 1\nvalue = [0, 1]\nclass = Yes", fillcolor="#399de5"] ;
532 -> 546 ;
547 [label="mon <= 0.318\ngini = 0.42\nsamples = 8\nvalue = [3, 7]\nclass = Yes", fillcolor="#8ec7f0"] ;
525 -> 547 ;
548 [label="gini = 0.0\nsamples = 6\nvalue = [0, 7]\nclass = Yes", fillcolor="#399de5"] ;
547 -> 548 ;
549 [label="gini = 0.0\nsamples = 2\nvalue = [3, 0]\nclass = No", fillcolor="#e58139"] ;
547 -> 549 ;
550 [label="gini = 0.0\nsamples = 3\nvalue = [0, 4]\nclass = Yes", fillcolor="#399de5"] ;
524 -> 550 ;
551 [label="age <= 0.183\ngini = 0.498\nsamples = 514\nvalue = [375.0, 424.0]\nclass = Yes", fillcolor="#e8f4fc"] ;
499 -> 551 ;
552 [label="age <= 0.144\ngini = 0.369\nsamples = 28\nvalue = [10, 31]\nclass = Yes", fillcolor="#79bded"] ;
551 -> 552 ;
553 [label="day <= 0.167\ngini = 0.219\nsamples = 11\nvalue = [2, 14]\nclass = Yes", fillcolor="#55abe9"] ;
552 -> 553 ;
554 [label="gini = 0.0\nsamples = 1\nvalue = [1, 0]\nclass = No", fillcolor="#e58139"] ;
553 -> 554 ;
555 [label="num_calls <= 0.1\ngini = 0.124\nsamples = 10\nvalue = [1, 14]\nclass = Yes", fillcolor="#47a4e7"] ;
553 -> 555 ;
556 [label="gini = 0.0\nsamples = 5\nvalue = [0, 7]\nclass = Yes", fillcolor="#399de5"] ;
555 -> 556 ;
557 [label="job <= 0.364\ngini = 0.219\nsamples = 5\nvalue = [1, 7]\nclass = Yes", fillcolor="#55abe9"] ;
555 -> 557 ;
558 [label="marital <= 0.75\ngini = 0.32\nsamples = 2\nvalue = [1, 4]\nclass = Yes", fillcolor="#6ab6ec"] ;
557 -> 558 ;
559 [label="gini = 0.0\nsamples = 1\nvalue = [0, 4]\nclass = Yes", fillcolor="#399de5"] ;
558 -> 559 ;
560 [label="gini = 0.0\nsamples = 1\nvalue = [1, 0]\nclass = No", fillcolor="#e58139"] ;
558 -> 560 ;
561 [label="gini = 0.0\nsamples = 3\nvalue = [0, 3]\nclass = Yes", fillcolor="#399de5"] ;
557 -> 561 ;
562 [label="education_qual <= 0.5\ngini = 0.435\nsamples = 17\nvalue = [8, 17]\nclass = Yes", fillcolor="#96cbf1"] ;
552 -> 562 ;
563 [label="day <= 0.917\ngini = 0.231\nsamples = 10\nvalue = [2, 13]\nclass = Yes", fillcolor="#57ace9"] ;
562 -> 563 ;
564 [label="num_calls <= 0.1\ngini = 0.142\nsamples = 8\nvalue = [1, 12]\nclass = Yes", fillcolor="#49a5e7"] ;
563 -> 564 ;
565 [label="job <= 0.727\ngini = 0.32\nsamples = 4\nvalue = [1, 4]\nclass = Yes", fillcolor="#6ab6ec"] ;
564 -> 565 ;
566 [label="gini = 0.0\nsamples = 2\nvalue = [0, 3]\nclass = Yes", fillcolor="#399de5"] ;
565 -> 566 ;
567 [label="age <= 0.163\ngini = 0.5\nsamples = 2\nvalue = [1, 1]\nclass = No", fillcolor="#ffffff"] ;
565 -> 567 ;
568 [label="gini = 0.0\nsamples = 1\nvalue = [0, 1]\nclass = Yes", fillcolor="#399de5"] ;
567 -> 568 ;
569 [label="gini = 0.0\nsamples = 1\nvalue = [1, 0]\nclass = No", fillcolor="#e58139"] ;
567 -> 569 ;
570 [label="gini = 0.0\nsamples = 4\nvalue = [0, 8]\nclass = Yes", fillcolor="#399de5"] ;
564 -> 570 ;
571 [label="job <= 0.5\ngini = 0.5\nsamples = 2\nvalue = [1, 1]\nclass = No", fillcolor="#ffffff"] ;
563 -> 571 ;
572 [label="gini = 0.0\nsamples = 1\nvalue = [0, 1]\nclass = Yes", fillcolor="#399de5"] ;
571 -> 572 ;
573 [label="gini = 0.0\nsamples = 1\nvalue = [1, 0]\nclass = No", fillcolor="#e58139"] ;
571 -> 573 ;
574 [label="job <= 0.591\ngini = 0.48\nsamples = 7\nvalue = [6, 4]\nclass = No", fillcolor="#f6d5bd"] ;
562 -> 574 ;
575 [label="marital <= 0.75\ngini = 0.245\nsamples = 5\nvalue = [6, 1]\nclass = No", fillcolor="#e9965a"] ;
574 -> 575 ;
576 [label="gini = 0.0\nsamples = 2\nvalue = [2, 0]\nclass = No", fillcolor="#e58139"] ;
575 -> 576 ;
577 [label="age <= 0.163\ngini = 0.32\nsamples = 3\nvalue = [4, 1]\nclass = No", fillcolor="#eca06a"] ;
575 -> 577 ;
578 [label="day <= 0.233\ngini = 0.444\nsamples = 2\nvalue = [2, 1]\nclass = No", fillcolor="#f2c09c"] ;
577 -> 578 ;
579 [label="gini = 0.0\nsamples = 1\nvalue = [2, 0]\nclass = No", fillcolor="#e58139"] ;
578 -> 579 ;
580 [label="gini = 0.0\nsamples = 1\nvalue = [0, 1]\nclass = Yes", fillcolor="#399de5"] ;
578 -> 580 ;
581 [label="gini = 0.0\nsamples = 1\nvalue = [2, 0]\nclass = No", fillcolor="#e58139"] ;
577 -> 581 ;
582 [label="gini = 0.0\nsamples = 2\nvalue = [0, 3]\nclass = Yes", fillcolor="#399de5"] ;
574 -> 582 ;
583 [label="mon <= 0.136\ngini = 0.499\nsamples = 486\nvalue = [365.0, 393.0]\nclass = Yes", fillcolor="#f1f8fd"] ;
551 -> 583 ;
584 [label="age <= 0.356\ngini = 0.494\nsamples = 219\nvalue = [154.0, 191.0]\nclass = Yes", fillcolor="#d9ecfa"] ;
583 -> 584 ;
585 [label="day <= 0.067\ngini = 0.451\nsamples = 84\nvalue = [43, 82]\nclass = Yes", fillcolor="#a1d0f3"] ;
584 -> 585 ;
586 [label="gini = 0.0\nsamples = 2\nvalue = [4, 0]\nclass = No", fillcolor="#e58139"] ;
585 -> 586 ;
587 [label="day <= 0.817\ngini = 0.437\nsamples = 82\nvalue = [39, 82]\nclass = Yes", fillcolor="#97ccf1"] ;
585 -> 587 ;
588 [label="call_type <= 0.25\ngini = 0.464\nsamples = 73\nvalue = [38, 66]\nclass = Yes", fillcolor="#abd5f4"] ;
587 -> 588 ;
589 [label="age <= 0.221\ngini = 0.457\nsamples = 72\nvalue = [36, 66]\nclass = Yes", fillcolor="#a5d2f3"] ;
588 -> 589 ;
590 [label="gini = 0.0\nsamples = 2\nvalue = [0, 4]\nclass = Yes", fillcolor="#399de5"] ;
589 -> 590 ;
591 [label="age <= 0.279\ngini = 0.465\nsamples = 70\nvalue = [36, 62]\nclass = Yes", fillcolor="#acd6f4"] ;
589 -> 591 ;
592 [label="job <= 0.136\ngini = 0.498\nsamples = 34\nvalue = [20.0, 23.0]\nclass = Yes", fillcolor="#e5f2fc"] ;
591 -> 592 ;
593 [label="num_calls <= 0.1\ngini = 0.408\nsamples = 5\nvalue = [5, 2]\nclass = No", fillcolor="#efb388"] ;
592 -> 593 ;
594 [label="gini = 0.0\nsamples = 3\nvalue = [4, 0]\nclass = No", fillcolor="#e58139"] ;
593 -> 594 ;
595 [label="age <= 0.24\ngini = 0.444\nsamples = 2\nvalue = [1, 2]\nclass = Yes", fillcolor="#9ccef2"] ;
593 -> 595 ;
596 [label="gini = 0.0\nsamples = 1\nvalue = [1, 0]\nclass = No", fillcolor="#e58139"] ;
595 -> 596 ;
597 [label="gini = 0.0\nsamples = 1\nvalue = [0, 2]\nclass = Yes", fillcolor="#399de5"] ;
595 -> 597 ;
598 [label="marital <= 0.75\ngini = 0.486\nsamples = 29\nvalue = [15, 21]\nclass = Yes", fillcolor="#c6e3f8"] ;
592 -> 598 ;
599 [label="age <= 0.26\ngini = 0.486\nsamples = 9\nvalue = [5, 7]\nclass = Yes", fillcolor="#c6e3f8"] ;
598 -> 599 ;
600 [label="education_qual <= 0.5\ngini = 0.375\nsamples = 6\nvalue = [2, 6]\nclass = Yes", fillcolor="#7bbeee"] ;
599 -> 600 ;
601 [label="gini = 0.0\nsamples = 2\nvalue = [2, 0]\nclass = No", fillcolor="#e58139"] ;
600 -> 601 ;
602 [label="gini = 0.0\nsamples = 4\nvalue = [0, 6]\nclass = Yes", fillcolor="#399de5"] ;
600 -> 602 ;
603 [label="mon <= 0.045\ngini = 0.375\nsamples = 3\nvalue = [3, 1]\nclass = No", fillcolor="#eeab7b"] ;
599 -> 603 ;
604 [label="job <= 0.5\ngini = 0.5\nsamples = 2\nvalue = [1, 1]\nclass = No", fillcolor="#ffffff"] ;
603 -> 604 ;
605 [label="gini = 0.0\nsamples = 1\nvalue = [0, 1]\nclass = Yes", fillcolor="#399de5"] ;
604 -> 605 ;
606 [label="gini = 0.0\nsamples = 1\nvalue = [1, 0]\nclass = No", fillcolor="#e58139"] ;
604 -> 606 ;
607 [label="gini = 0.0\nsamples = 1\nvalue = [2, 0]\nclass = No", fillcolor="#e58139"] ;
603 -> 607 ;
608 [label="education_qual <= 0.5\ngini = 0.486\nsamples = 20\nvalue = [10, 14]\nclass = Yes", fillcolor="#c6e3f8"] ;
598 -> 608 ;
609 [label="mon <= 0.045\ngini = 0.32\nsamples = 4\nvalue = [1, 4]\nclass = Yes", fillcolor="#6ab6ec"] ;
608 -> 609 ;
610 [label="gini = 0.0\nsamples = 1\nvalue = [0, 1]\nclass = Yes", fillcolor="#399de5"] ;
609 -> 610 ;
611 [label="num_calls <= 0.2\ngini = 0.375\nsamples = 3\nvalue = [1, 3]\nclass = Yes", fillcolor="#7bbeee"] ;
609 -> 611 ;
612 [label="gini = 0.0\nsamples = 1\nvalue = [0, 1]\nclass = Yes", fillcolor="#399de5"] ;
611 -> 612 ;
613 [label="day <= 0.533\ngini = 0.444\nsamples = 2\nvalue = [1, 2]\nclass = Yes", fillcolor="#9ccef2"] ;
611 -> 613 ;
614 [label="gini = 0.0\nsamples = 1\nvalue = [0, 2]\nclass = Yes", fillcolor="#399de5"] ;
613 -> 614 ;
615 [label="gini = 0.0\nsamples = 1\nvalue = [1, 0]\nclass = No", fillcolor="#e58139"] ;
613 -> 615 ;
616 [label="num_calls <= 0.1\ngini = 0.499\nsamples = 16\nvalue = [9, 10]\nclass = Yes", fillcolor="#ebf5fc"] ;
608 -> 616 ;
617 [label="day <= 0.533\ngini = 0.444\nsamples = 7\nvalue = [3, 6]\nclass = Yes", fillcolor="#9ccef2"] ;
616 -> 617 ;
618 [label="gini = 0.0\nsamples = 5\nvalue = [0, 6]\nclass = Yes", fillcolor="#399de5"] ;
617 -> 618 ;
619 [label="gini = 0.0\nsamples = 2\nvalue = [3, 0]\nclass = No", fillcolor="#e58139"] ;
617 -> 619 ;
620 [label="num_calls <= 0.5\ngini = 0.48\nsamples = 9\nvalue = [6, 4]\nclass = No", fillcolor="#f6d5bd"] ;
616 -> 620 ;
621 [label="day <= 0.2\ngini = 0.444\nsamples = 8\nvalue = [6, 3]\nclass = No", fillcolor="#f2c09c"] ;
620 -> 621 ;
622 [label="gini = 0.0\nsamples = 3\nvalue = [3, 0]\nclass = No", fillcolor="#e58139"] ;
621 -> 622 ;
623 [label="age <= 0.26\ngini = 0.5\nsamples = 5\nvalue = [3, 3]\nclass = No", fillcolor="#ffffff"] ;
621 -> 623 ;
624 [label="gini = 0.0\nsamples = 2\nvalue = [0, 2]\nclass = Yes", fillcolor="#399de5"] ;
623 -> 624 ;
625 [label="day <= 0.35\ngini = 0.375\nsamples = 3\nvalue = [3, 1]\nclass = No", fillcolor="#eeab7b"] ;
623 -> 625 ;
626 [label="gini = 0.0\nsamples = 1\nvalue = [2, 0]\nclass = No", fillcolor="#e58139"] ;
625 -> 626 ;
627 [label="job <= 0.591\ngini = 0.5\nsamples = 2\nvalue = [1, 1]\nclass = No", fillcolor="#ffffff"] ;
625 -> 627 ;
628 [label="gini = 0.0\nsamples = 1\nvalue = [0, 1]\nclass = Yes", fillcolor="#399de5"] ;
627 -> 628 ;
629 [label="gini = 0.0\nsamples = 1\nvalue = [1, 0]\nclass = No", fillcolor="#e58139"] ;
627 -> 629 ;
630 [label="gini = 0.0\nsamples = 1\nvalue = [0, 1]\nclass = Yes", fillcolor="#399de5"] ;
620 -> 630 ;
631 [label="day <= 0.35\ngini = 0.413\nsamples = 36\nvalue = [16, 39]\nclass = Yes", fillcolor="#8ac5f0"] ;
591 -> 631 ;
632 [label="prev_outcome <= 0.833\ngini = 0.208\nsamples = 9\nvalue = [2, 15]\nclass = Yes", fillcolor="#53aae8"] ;
631 -> 632 ;
633 [label="gini = 0.0\nsamples = 1\nvalue = [1, 0]\nclass = No", fillcolor="#e58139"] ;
632 -> 633 ;
634 [label="mon <= 0.045\ngini = 0.117\nsamples = 8\nvalue = [1, 15]\nclass = Yes", fillcolor="#46a4e7"] ;
632 -> 634 ;
635 [label="gini = 0.0\nsamples = 1\nvalue = [1, 0]\nclass = No", fillcolor="#e58139"] ;
634 -> 635 ;
636 [label="gini = 0.0\nsamples = 7\nvalue = [0, 15]\nclass = Yes", fillcolor="#399de5"] ;
634 -> 636 ;
637 [label="mon <= 0.045\ngini = 0.465\nsamples = 27\nvalue = [14, 24]\nclass = Yes", fillcolor="#acd6f4"] ;
631 -> 637 ;
638 [label="marital <= 0.75\ngini = 0.36\nsamples = 10\nvalue = [4, 13]\nclass = Yes", fillcolor="#76bbed"] ;
637 -> 638 ;
639 [label="num_calls <= 0.1\ngini = 0.408\nsamples = 8\nvalue = [4, 10]\nclass = Yes", fillcolor="#88c4ef"] ;
638 -> 639 ;
640 [label="age <= 0.308\ngini = 0.444\nsamples = 3\nvalue = [2, 1]\nclass = No", fillcolor="#f2c09c"] ;
639 -> 640 ;
641 [label="gini = 0.0\nsamples = 2\nvalue = [2, 0]\nclass = No", fillcolor="#e58139"] ;
640 -> 641 ;
642 [label="gini = 0.0\nsamples = 1\nvalue = [0, 1]\nclass = Yes", fillcolor="#399de5"] ;
640 -> 642 ;
643 [label="age <= 0.317\ngini = 0.298\nsamples = 5\nvalue = [2, 9]\nclass = Yes", fillcolor="#65b3eb"] ;
639 -> 643 ;
644 [label="num_calls <= 0.3\ngini = 0.375\nsamples = 4\nvalue = [2, 6]\nclass = Yes", fillcolor="#7bbeee"] ;
643 -> 644 ;
645 [label="gini = 0.0\nsamples = 1\nvalue = [0, 2]\nclass = Yes", fillcolor="#399de5"] ;
644 -> 645 ;
646 [label="job <= 0.591\ngini = 0.444\nsamples = 3\nvalue = [2, 4]\nclass = Yes", fillcolor="#9ccef2"] ;
644 -> 646 ;
647 [label="job <= 0.227\ngini = 0.444\nsamples = 2\nvalue = [2, 1]\nclass = No", fillcolor="#f2c09c"] ;
646 -> 647 ;
648 [label="gini = 0.0\nsamples = 1\nvalue = [0, 1]\nclass = Yes", fillcolor="#399de5"] ;
647 -> 648 ;
649 [label="gini = 0.0\nsamples = 1\nvalue = [2, 0]\nclass = No", fillcolor="#e58139"] ;
647 -> 649 ;
650 [label="gini = 0.0\nsamples = 1\nvalue = [0, 3]\nclass = Yes", fillcolor="#399de5"] ;
646 -> 650 ;
651 [label="gini = 0.0\nsamples = 1\nvalue = [0, 3]\nclass = Yes", fillcolor="#399de5"] ;
643 -> 651 ;
652 [label="gini = 0.0\nsamples = 2\nvalue = [0, 3]\nclass = Yes", fillcolor="#399de5"] ;
638 -> 652 ;
653 [label="day <= 0.383\ngini = 0.499\nsamples = 17\nvalue = [10, 11]\nclass = Yes", fillcolor="#edf6fd"] ;
637 -> 653 ;
654 [label="gini = 0.0\nsamples = 1\nvalue = [2, 0]\nclass = No", fillcolor="#e58139"] ;
653 -> 654 ;
655 [label="day <= 0.75\ngini = 0.488\nsamples = 16\nvalue = [8, 11]\nclass = Yes", fillcolor="#c9e4f8"] ;
653 -> 655 ;
656 [label="num_calls <= 0.5\ngini = 0.475\nsamples = 15\nvalue = [7, 11]\nclass = Yes", fillcolor="#b7dbf6"] ;
655 -> 656 ;
657 [label="job <= 0.682\ngini = 0.43\nsamples = 13\nvalue = [5, 11]\nclass = Yes", fillcolor="#93caf1"] ;
656 -> 657 ;
658 [label="age <= 0.298\ngini = 0.18\nsamples = 8\nvalue = [1, 9]\nclass = Yes", fillcolor="#4fa8e8"] ;
657 -> 658 ;
659 [label="gini = 0.0\nsamples = 4\nvalue = [0, 5]\nclass = Yes", fillcolor="#399de5"] ;
658 -> 659 ;
660 [label="num_calls <= 0.1\ngini = 0.32\nsamples = 4\nvalue = [1, 4]\nclass = Yes", fillcolor="#6ab6ec"] ;
658 -> 660 ;
661 [label="gini = 0.0\nsamples = 1\nvalue = [0, 1]\nclass = Yes", fillcolor="#399de5"] ;
660 -> 661 ;
662 [label="day <= 0.533\ngini = 0.375\nsamples = 3\nvalue = [1, 3]\nclass = Yes", fillcolor="#7bbeee"] ;
660 -> 662 ;
663 [label="gini = 0.0\nsamples = 1\nvalue = [0, 2]\nclass = Yes", fillcolor="#399de5"] ;
662 -> 663 ;
664 [label="marital <= 0.75\ngini = 0.5\nsamples = 2\nvalue = [1, 1]\nclass = No", fillcolor="#ffffff"] ;
662 -> 664 ;
665 [label="gini = 0.0\nsamples = 1\nvalue = [1, 0]\nclass = No", fillcolor="#e58139"] ;
664 -> 665 ;
666 [label="gini = 0.0\nsamples = 1\nvalue = [0, 1]\nclass = Yes", fillcolor="#399de5"] ;
664 -> 666 ;
667 [label="education_qual <= 0.5\ngini = 0.444\nsamples = 5\nvalue = [4, 2]\nclass = No", fillcolor="#f2c09c"] ;
657 -> 667 ;
668 [label="num_calls <= 0.1\ngini = 0.5\nsamples = 4\nvalue = [2, 2]\nclass = No", fillcolor="#ffffff"] ;
667 -> 668 ;
669 [label="gini = 0.0\nsamples = 1\nvalue = [0, 1]\nclass = Yes", fillcolor="#399de5"] ;
668 -> 669 ;
670 [label="day <= 0.5\ngini = 0.444\nsamples = 3\nvalue = [2, 1]\nclass = No", fillcolor="#f2c09c"] ;
668 -> 670 ;
671 [label="gini = 0.0\nsamples = 1\nvalue = [0, 1]\nclass = Yes", fillcolor="#399de5"] ;
670 -> 671 ;
672 [label="gini = 0.0\nsamples = 2\nvalue = [2, 0]\nclass = No", fillcolor="#e58139"] ;
670 -> 672 ;
673 [label="gini = 0.0\nsamples = 1\nvalue = [2, 0]\nclass = No", fillcolor="#e58139"] ;
667 -> 673 ;
674 [label="gini = 0.0\nsamples = 2\nvalue = [2, 0]\nclass = No", fillcolor="#e58139"] ;
656 -> 674 ;
675 [label="gini = 0.0\nsamples = 1\nvalue = [1, 0]\nclass = No", fillcolor="#e58139"] ;
655 -> 675 ;
676 [label="gini = 0.0\nsamples = 1\nvalue = [2, 0]\nclass = No", fillcolor="#e58139"] ;
588 -> 676 ;
677 [label="num_calls <= 0.1\ngini = 0.111\nsamples = 9\nvalue = [1, 16]\nclass = Yes", fillcolor="#45a3e7"] ;
587 -> 677 ;
678 [label="mon <= 0.045\ngini = 0.32\nsamples = 4\nvalue = [1, 4]\nclass = Yes", fillcolor="#6ab6ec"] ;
677 -> 678 ;
679 [label="gini = 0.0\nsamples = 1\nvalue = [0, 1]\nclass = Yes", fillcolor="#399de5"] ;
678 -> 679 ;
680 [label="age <= 0.288\ngini = 0.375\nsamples = 3\nvalue = [1, 3]\nclass = Yes", fillcolor="#7bbeee"] ;
678 -> 680 ;
681 [label="gini = 0.0\nsamples = 1\nvalue = [0, 2]\nclass = Yes", fillcolor="#399de5"] ;
680 -> 681 ;
682 [label="job <= 0.591\ngini = 0.5\nsamples = 2\nvalue = [1, 1]\nclass = No", fillcolor="#ffffff"] ;
680 -> 682 ;
683 [label="gini = 0.0\nsamples = 1\nvalue = [0, 1]\nclass = Yes", fillcolor="#399de5"] ;
682 -> 683 ;
684 [label="gini = 0.0\nsamples = 1\nvalue = [1, 0]\nclass = No", fillcolor="#e58139"] ;
682 -> 684 ;
685 [label="gini = 0.0\nsamples = 5\nvalue = [0, 12]\nclass = Yes", fillcolor="#399de5"] ;
677 -> 685 ;
686 [label="job <= 0.409\ngini = 0.5\nsamples = 135\nvalue = [111, 109]\nclass = No", fillcolor="#fffdfb"] ;
584 -> 686 ;
687 [label="day <= 0.483\ngini = 0.49\nsamples = 71\nvalue = [64, 48]\nclass = No", fillcolor="#f8e0ce"] ;
686 -> 687 ;
688 [label="age <= 0.375\ngini = 0.494\nsamples = 47\nvalue = [33, 41]\nclass = Yes", fillcolor="#d8ecfa"] ;
687 -> 688 ;
689 [label="gini = 0.0\nsamples = 2\nvalue = [3, 0]\nclass = No", fillcolor="#e58139"] ;
688 -> 689 ;
690 [label="age <= 0.433\ngini = 0.488\nsamples = 45\nvalue = [30, 41]\nclass = Yes", fillcolor="#cae5f8"] ;
688 -> 690 ;
691 [label="marital <= 0.25\ngini = 0.332\nsamples = 11\nvalue = [4, 15]\nclass = Yes", fillcolor="#6eb7ec"] ;
690 -> 691 ;
692 [label="gini = 0.0\nsamples = 1\nvalue = [3, 0]\nclass = No", fillcolor="#e58139"] ;
691 -> 692 ;
693 [label="age <= 0.413\ngini = 0.117\nsamples = 10\nvalue = [1, 15]\nclass = Yes", fillcolor="#46a4e7"] ;
691 -> 693 ;
694 [label="gini = 0.0\nsamples = 8\nvalue = [0, 12]\nclass = Yes", fillcolor="#399de5"] ;
693 -> 694 ;
695 [label="day <= 0.367\ngini = 0.375\nsamples = 2\nvalue = [1, 3]\nclass = Yes", fillcolor="#7bbeee"] ;
693 -> 695 ;
696 [label="gini = 0.0\nsamples = 1\nvalue = [1, 0]\nclass = No", fillcolor="#e58139"] ;
695 -> 696 ;
697 [label="gini = 0.0\nsamples = 1\nvalue = [0, 3]\nclass = Yes", fillcolor="#399de5"] ;
695 -> 697 ;
698 [label="education_qual <= 0.5\ngini = 0.5\nsamples = 34\nvalue = [26, 26]\nclass = No", fillcolor="#ffffff"] ;
690 -> 698 ;
699 [label="age <= 0.49\ngini = 0.496\nsamples = 21\nvalue = [16, 19]\nclass = Yes", fillcolor="#e0f0fb"] ;
698 -> 699 ;
700 [label="marital <= 0.75\ngini = 0.245\nsamples = 5\nvalue = [6, 1]\nclass = No", fillcolor="#e9965a"] ;
699 -> 700 ;
701 [label="num_calls <= 0.4\ngini = 0.278\nsamples = 4\nvalue = [5, 1]\nclass = No", fillcolor="#ea9a61"] ;
700 -> 701 ;
702 [label="gini = 0.0\nsamples = 3\nvalue = [5, 0]\nclass = No", fillcolor="#e58139"] ;
701 -> 702 ;
703 [label="gini = 0.0\nsamples = 1\nvalue = [0, 1]\nclass = Yes", fillcolor="#399de5"] ;
701 -> 703 ;
704 [label="gini = 0.0\nsamples = 1\nvalue = [1, 0]\nclass = No", fillcolor="#e58139"] ;
700 -> 704 ;
705 [label="mon <= 0.045\ngini = 0.459\nsamples = 16\nvalue = [10, 18]\nclass = Yes", fillcolor="#a7d3f3"] ;
699 -> 705 ;
706 [label="num_calls <= 0.3\ngini = 0.5\nsamples = 3\nvalue = [2, 2]\nclass = No", fillcolor="#ffffff"] ;
705 -> 706 ;
707 [label="gini = 0.0\nsamples = 2\nvalue = [2, 0]\nclass = No", fillcolor="#e58139"] ;
706 -> 707 ;
708 [label="gini = 0.0\nsamples = 1\nvalue = [0, 2]\nclass = Yes", fillcolor="#399de5"] ;
706 -> 708 ;
709 [label="marital <= 0.25\ngini = 0.444\nsamples = 13\nvalue = [8, 16]\nclass = Yes", fillcolor="#9ccef2"] ;
705 -> 709 ;
710 [label="gini = 0.0\nsamples = 1\nvalue = [0, 3]\nclass = Yes", fillcolor="#399de5"] ;
709 -> 710 ;
711 [label="num_calls <= 0.1\ngini = 0.472\nsamples = 12\nvalue = [8, 13]\nclass = Yes", fillcolor="#b3d9f5"] ;
709 -> 711 ;
712 [label="gini = 0.0\nsamples = 3\nvalue = [0, 8]\nclass = Yes", fillcolor="#399de5"] ;
711 -> 712 ;
713 [label="num_calls <= 0.3\ngini = 0.473\nsamples = 9\nvalue = [8, 5]\nclass = No", fillcolor="#f5d0b5"] ;
711 -> 713 ;
714 [label="age <= 0.577\ngini = 0.5\nsamples = 6\nvalue = [4, 4]\nclass = No", fillcolor="#ffffff"] ;
713 -> 714 ;
715 [label="gini = 0.0\nsamples = 1\nvalue = [2, 0]\nclass = No", fillcolor="#e58139"] ;
714 -> 715 ;
716 [label="education_qual <= 0.167\ngini = 0.444\nsamples = 5\nvalue = [2, 4]\nclass = Yes", fillcolor="#9ccef2"] ;
714 -> 716 ;
717 [label="age <= 0.779\ngini = 0.32\nsamples = 4\nvalue = [1, 4]\nclass = Yes", fillcolor="#6ab6ec"] ;
716 -> 717 ;
718 [label="gini = 0.0\nsamples = 3\nvalue = [0, 4]\nclass = Yes", fillcolor="#399de5"] ;
717 -> 718 ;
719 [label="gini = 0.0\nsamples = 1\nvalue = [1, 0]\nclass = No", fillcolor="#e58139"] ;
717 -> 719 ;
720 [label="gini = 0.0\nsamples = 1\nvalue = [1, 0]\nclass = No", fillcolor="#e58139"] ;
716 -> 720 ;
721 [label="age <= 0.606\ngini = 0.32\nsamples = 3\nvalue = [4, 1]\nclass = No", fillcolor="#eca06a"] ;
713 -> 721 ;
722 [label="gini = 0.0\nsamples = 2\nvalue = [4, 0]\nclass = No", fillcolor="#e58139"] ;
721 -> 722 ;
723 [label="gini = 0.0\nsamples = 1\nvalue = [0, 1]\nclass = Yes", fillcolor="#399de5"] ;
721 -> 723 ;
724 [label="age <= 0.721\ngini = 0.484\nsamples = 13\nvalue = [10, 7]\nclass = No", fillcolor="#f7d9c4"] ;
698 -> 724 ;
725 [label="age <= 0.625\ngini = 0.497\nsamples = 12\nvalue = [6, 7]\nclass = Yes", fillcolor="#e3f1fb"] ;
724 -> 725 ;
726 [label="age <= 0.471\ngini = 0.469\nsamples = 8\nvalue = [5, 3]\nclass = No", fillcolor="#f5cdb0"] ;
725 -> 726 ;
727 [label="gini = 0.0\nsamples = 1\nvalue = [0, 1]\nclass = Yes", fillcolor="#399de5"] ;
726 -> 727 ;
728 [label="day <= 0.017\ngini = 0.408\nsamples = 7\nvalue = [5, 2]\nclass = No", fillcolor="#efb388"] ;
726 -> 728 ;
729 [label="gini = 0.0\nsamples = 1\nvalue = [0, 1]\nclass = Yes", fillcolor="#399de5"] ;
728 -> 729 ;
730 [label="num_calls <= 0.4\ngini = 0.278\nsamples = 6\nvalue = [5, 1]\nclass = No", fillcolor="#ea9a61"] ;
728 -> 730 ;
731 [label="gini = 0.0\nsamples = 4\nvalue = [4, 0]\nclass = No", fillcolor="#e58139"] ;
730 -> 731 ;
732 [label="day <= 0.183\ngini = 0.5\nsamples = 2\nvalue = [1, 1]\nclass = No", fillcolor="#ffffff"] ;
730 -> 732 ;
733 [label="gini = 0.0\nsamples = 1\nvalue = [1, 0]\nclass = No", fillcolor="#e58139"] ;
732 -> 733 ;
734 [label="gini = 0.0\nsamples = 1\nvalue = [0, 1]\nclass = Yes", fillcolor="#399de5"] ;
732 -> 734 ;
735 [label="marital <= 0.25\ngini = 0.32\nsamples = 4\nvalue = [1, 4]\nclass = Yes", fillcolor="#6ab6ec"] ;
725 -> 735 ;
736 [label="gini = 0.0\nsamples = 2\nvalue = [0, 3]\nclass = Yes", fillcolor="#399de5"] ;
735 -> 736 ;
737 [label="gini = 0.5\nsamples = 2\nvalue = [1, 1]\nclass = No", fillcolor="#ffffff"] ;
735 -> 737 ;
738 [label="gini = 0.0\nsamples = 1\nvalue = [4, 0]\nclass = No", fillcolor="#e58139"] ;
724 -> 738 ;
739 [label="age <= 0.798\ngini = 0.301\nsamples = 24\nvalue = [31, 7]\nclass = No", fillcolor="#eb9d66"] ;
687 -> 739 ;
740 [label="job <= 0.318\ngini = 0.272\nsamples = 23\nvalue = [31, 6]\nclass = No", fillcolor="#ea995f"] ;
739 -> 740 ;
741 [label="day <= 0.617\ngini = 0.111\nsamples = 9\nvalue = [16, 1]\nclass = No", fillcolor="#e78945"] ;
740 -> 741 ;
742 [label="gini = 0.0\nsamples = 6\nvalue = [12, 0]\nclass = No", fillcolor="#e58139"] ;
741 -> 742 ;
743 [label="education_qual <= 0.167\ngini = 0.32\nsamples = 3\nvalue = [4, 1]\nclass = No", fillcolor="#eca06a"] ;
741 -> 743 ;
744 [label="gini = 0.0\nsamples = 1\nvalue = [2, 0]\nclass = No", fillcolor="#e58139"] ;
743 -> 744 ;
745 [label="age <= 0.529\ngini = 0.444\nsamples = 2\nvalue = [2, 1]\nclass = No", fillcolor="#f2c09c"] ;
743 -> 745 ;
746 [label="gini = 0.0\nsamples = 1\nvalue = [2, 0]\nclass = No", fillcolor="#e58139"] ;
745 -> 746 ;
747 [label="gini = 0.0\nsamples = 1\nvalue = [0, 1]\nclass = Yes", fillcolor="#399de5"] ;
745 -> 747 ;
748 [label="num_calls <= 0.1\ngini = 0.375\nsamples = 14\nvalue = [15, 5]\nclass = No", fillcolor="#eeab7b"] ;
740 -> 748 ;
749 [label="gini = 0.0\nsamples = 6\nvalue = [10, 0]\nclass = No", fillcolor="#e58139"] ;
748 -> 749 ;
750 [label="num_calls <= 0.3\ngini = 0.5\nsamples = 8\nvalue = [5, 5]\nclass = No", fillcolor="#ffffff"] ;
748 -> 750 ;
751 [label="gini = 0.0\nsamples = 2\nvalue = [0, 2]\nclass = Yes", fillcolor="#399de5"] ;
750 -> 751 ;
752 [label="age <= 0.606\ngini = 0.469\nsamples = 6\nvalue = [5, 3]\nclass = No", fillcolor="#f5cdb0"] ;
750 -> 752 ;
753 [label="day <= 0.817\ngini = 0.278\nsamples = 4\nvalue = [5, 1]\nclass = No", fillcolor="#ea9a61"] ;
752 -> 753 ;
754 [label="gini = 0.0\nsamples = 3\nvalue = [5, 0]\nclass = No", fillcolor="#e58139"] ;
753 -> 754 ;
755 [label="gini = 0.0\nsamples = 1\nvalue = [0, 1]\nclass = Yes", fillcolor="#399de5"] ;
753 -> 755 ;
756 [label="gini = 0.0\nsamples = 2\nvalue = [0, 2]\nclass = Yes", fillcolor="#399de5"] ;
752 -> 756 ;
757 [label="gini = 0.0\nsamples = 1\nvalue = [0, 1]\nclass = Yes", fillcolor="#399de5"] ;
739 -> 757 ;
758 [label="day <= 0.95\ngini = 0.492\nsamples = 64\nvalue = [47.0, 61.0]\nclass = Yes", fillcolor="#d2e9f9"] ;
686 -> 758 ;
759 [label="num_calls <= 0.5\ngini = 0.5\nsamples = 57\nvalue = [47, 47]\nclass = No", fillcolor="#ffffff"] ;
758 -> 759 ;
760 [label="age <= 0.394\ngini = 0.485\nsamples = 40\nvalue = [34, 24]\nclass = No", fillcolor="#f7dac5"] ;
759 -> 760 ;
761 [label="gini = 0.0\nsamples = 5\nvalue = [10, 0]\nclass = No", fillcolor="#e58139"] ;
760 -> 761 ;
762 [label="age <= 0.51\ngini = 0.5\nsamples = 35\nvalue = [24, 24]\nclass = No", fillcolor="#ffffff"] ;
760 -> 762 ;
763 [label="job <= 0.727\ngini = 0.483\nsamples = 16\nvalue = [13, 9]\nclass = No", fillcolor="#f7d8c2"] ;
762 -> 763 ;
764 [label="age <= 0.442\ngini = 0.444\nsamples = 3\nvalue = [1, 2]\nclass = Yes", fillcolor="#9ccef2"] ;
763 -> 764 ;
765 [label="gini = 0.0\nsamples = 2\nvalue = [0, 2]\nclass = Yes", fillcolor="#399de5"] ;
764 -> 765 ;
766 [label="gini = 0.0\nsamples = 1\nvalue = [1, 0]\nclass = No", fillcolor="#e58139"] ;
764 -> 766 ;
767 [label="mon <= 0.045\ngini = 0.465\nsamples = 13\nvalue = [12, 7]\nclass = No", fillcolor="#f4caac"] ;
763 -> 767 ;
768 [label="gini = 0.0\nsamples = 3\nvalue = [3, 0]\nclass = No", fillcolor="#e58139"] ;
767 -> 768 ;
769 [label="num_calls <= 0.3\ngini = 0.492\nsamples = 10\nvalue = [9, 7]\nclass = No", fillcolor="#f9e3d3"] ;
767 -> 769 ;
770 [label="age <= 0.413\ngini = 0.497\nsamples = 9\nvalue = [6, 7]\nclass = Yes", fillcolor="#e3f1fb"] ;
769 -> 770 ;
771 [label="gini = 0.0\nsamples = 1\nvalue = [1, 0]\nclass = No", fillcolor="#e58139"] ;
770 -> 771 ;
772 [label="day <= 0.2\ngini = 0.486\nsamples = 8\nvalue = [5, 7]\nclass = Yes", fillcolor="#c6e3f8"] ;
770 -> 772 ;
773 [label="gini = 0.0\nsamples = 3\nvalue = [0, 6]\nclass = Yes", fillcolor="#399de5"] ;
772 -> 773 ;
774 [label="education_qual <= 0.5\ngini = 0.278\nsamples = 5\nvalue = [5, 1]\nclass = No", fillcolor="#ea9a61"] ;
772 -> 774 ;
775 [label="num_calls <= 0.1\ngini = 0.375\nsamples = 3\nvalue = [3, 1]\nclass = No", fillcolor="#eeab7b"] ;
774 -> 775 ;
776 [label="gini = 0.0\nsamples = 1\nvalue = [2, 0]\nclass = No", fillcolor="#e58139"] ;
775 -> 776 ;
777 [label="day <= 0.533\ngini = 0.5\nsamples = 2\nvalue = [1, 1]\nclass = No", fillcolor="#ffffff"] ;
775 -> 777 ;
778 [label="gini = 0.0\nsamples = 1\nvalue = [0, 1]\nclass = Yes", fillcolor="#399de5"] ;
777 -> 778 ;
779 [label="gini = 0.0\nsamples = 1\nvalue = [1, 0]\nclass = No", fillcolor="#e58139"] ;
777 -> 779 ;
780 [label="gini = 0.0\nsamples = 2\nvalue = [2, 0]\nclass = No", fillcolor="#e58139"] ;
774 -> 780 ;
781 [label="gini = 0.0\nsamples = 1\nvalue = [3, 0]\nclass = No", fillcolor="#e58139"] ;
769 -> 781 ;
782 [label="job <= 0.727\ngini = 0.488\nsamples = 19\nvalue = [11.0, 15.0]\nclass = Yes", fillcolor="#cae5f8"] ;
762 -> 782 ;
783 [label="num_calls <= 0.1\ngini = 0.498\nsamples = 12\nvalue = [9, 8]\nclass = No", fillcolor="#fcf1e9"] ;
782 -> 783 ;
784 [label="day <= 0.117\ngini = 0.375\nsamples = 6\nvalue = [6, 2]\nclass = No", fillcolor="#eeab7b"] ;
783 -> 784 ;
785 [label="gini = 0.0\nsamples = 2\nvalue = [4, 0]\nclass = No", fillcolor="#e58139"] ;
784 -> 785 ;
786 [label="education_qual <= 0.167\ngini = 0.5\nsamples = 4\nvalue = [2, 2]\nclass = No", fillcolor="#ffffff"] ;
784 -> 786 ;
787 [label="day <= 0.25\ngini = 0.444\nsamples = 3\nvalue = [2, 1]\nclass = No", fillcolor="#f2c09c"] ;
786 -> 787 ;
788 [label="gini = 0.0\nsamples = 1\nvalue = [0, 1]\nclass = Yes", fillcolor="#399de5"] ;
787 -> 788 ;
789 [label="gini = 0.0\nsamples = 2\nvalue = [2, 0]\nclass = No", fillcolor="#e58139"] ;
787 -> 789 ;
790 [label="gini = 0.0\nsamples = 1\nvalue = [0, 1]\nclass = Yes", fillcolor="#399de5"] ;
786 -> 790 ;
791 [label="day <= 0.3\ngini = 0.444\nsamples = 6\nvalue = [3, 6]\nclass = Yes", fillcolor="#9ccef2"] ;
783 -> 791 ;
792 [label="gini = 0.0\nsamples = 2\nvalue = [2, 0]\nclass = No", fillcolor="#e58139"] ;
791 -> 792 ;
793 [label="age <= 0.769\ngini = 0.245\nsamples = 4\nvalue = [1, 6]\nclass = Yes", fillcolor="#5aade9"] ;
791 -> 793 ;
794 [label="gini = 0.0\nsamples = 2\nvalue = [0, 5]\nclass = Yes", fillcolor="#399de5"] ;
793 -> 794 ;
795 [label="marital <= 0.75\ngini = 0.5\nsamples = 2\nvalue = [1, 1]\nclass = No", fillcolor="#ffffff"] ;
793 -> 795 ;
796 [label="gini = 0.0\nsamples = 1\nvalue = [1, 0]\nclass = No", fillcolor="#e58139"] ;
795 -> 796 ;
797 [label="gini = 0.0\nsamples = 1\nvalue = [0, 1]\nclass = Yes", fillcolor="#399de5"] ;
795 -> 797 ;
798 [label="age <= 0.577\ngini = 0.346\nsamples = 7\nvalue = [2, 7]\nclass = Yes", fillcolor="#72b9ec"] ;
782 -> 798 ;
799 [label="age <= 0.548\ngini = 0.5\nsamples = 2\nvalue = [1, 1]\nclass = No", fillcolor="#ffffff"] ;
798 -> 799 ;
800 [label="gini = 0.0\nsamples = 1\nvalue = [0, 1]\nclass = Yes", fillcolor="#399de5"] ;
799 -> 800 ;
801 [label="gini = 0.0\nsamples = 1\nvalue = [1, 0]\nclass = No", fillcolor="#e58139"] ;
799 -> 801 ;
802 [label="num_calls <= 0.1\ngini = 0.245\nsamples = 5\nvalue = [1, 6]\nclass = Yes", fillcolor="#5aade9"] ;
798 -> 802 ;
803 [label="gini = 0.0\nsamples = 3\nvalue = [0, 5]\nclass = Yes", fillcolor="#399de5"] ;
802 -> 803 ;
804 [label="age <= 0.702\ngini = 0.5\nsamples = 2\nvalue = [1, 1]\nclass = No", fillcolor="#ffffff"] ;
802 -> 804 ;
805 [label="gini = 0.0\nsamples = 1\nvalue = [1, 0]\nclass = No", fillcolor="#e58139"] ;
804 -> 805 ;
806 [label="gini = 0.0\nsamples = 1\nvalue = [0, 1]\nclass = Yes", fillcolor="#399de5"] ;
804 -> 806 ;
807 [label="marital <= 0.25\ngini = 0.461\nsamples = 17\nvalue = [13, 23]\nclass = Yes", fillcolor="#a9d4f4"] ;
759 -> 807 ;
808 [label="gini = 0.0\nsamples = 2\nvalue = [3, 0]\nclass = No", fillcolor="#e58139"] ;
807 -> 808 ;
809 [label="mon <= 0.045\ngini = 0.422\nsamples = 15\nvalue = [10, 23]\nclass = Yes", fillcolor="#8fc8f0"] ;
807 -> 809 ;
810 [label="gini = 0.0\nsamples = 2\nvalue = [0, 4]\nclass = Yes", fillcolor="#399de5"] ;
809 -> 810 ;
811 [label="education_qual <= 0.5\ngini = 0.452\nsamples = 13\nvalue = [10, 19]\nclass = Yes", fillcolor="#a1d1f3"] ;
809 -> 811 ;
812 [label="marital <= 0.75\ngini = 0.495\nsamples = 8\nvalue = [9, 11]\nclass = Yes", fillcolor="#dbedfa"] ;
811 -> 812 ;
813 [label="day <= 0.417\ngini = 0.494\nsamples = 6\nvalue = [8, 10]\nclass = Yes", fillcolor="#d7ebfa"] ;
812 -> 813 ;
814 [label="age <= 0.721\ngini = 0.355\nsamples = 4\nvalue = [3, 10]\nclass = Yes", fillcolor="#74baed"] ;
813 -> 814 ;
815 [label="gini = 0.0\nsamples = 3\nvalue = [0, 10]\nclass = Yes", fillcolor="#399de5"] ;
814 -> 815 ;
816 [label="gini = 0.0\nsamples = 1\nvalue = [3, 0]\nclass = No", fillcolor="#e58139"] ;
814 -> 816 ;
817 [label="gini = 0.0\nsamples = 2\nvalue = [5, 0]\nclass = No", fillcolor="#e58139"] ;
813 -> 817 ;
818 [label="age <= 0.442\ngini = 0.5\nsamples = 2\nvalue = [1, 1]\nclass = No", fillcolor="#ffffff"] ;
812 -> 818 ;
819 [label="gini = 0.0\nsamples = 1\nvalue = [1, 0]\nclass = No", fillcolor="#e58139"] ;
818 -> 819 ;
820 [label="gini = 0.0\nsamples = 1\nvalue = [0, 1]\nclass = Yes", fillcolor="#399de5"] ;
818 -> 820 ;
821 [label="job <= 0.636\ngini = 0.198\nsamples = 5\nvalue = [1, 8]\nclass = Yes", fillcolor="#52a9e8"] ;
811 -> 821 ;
822 [label="gini = 0.0\nsamples = 1\nvalue = [0, 2]\nclass = Yes", fillcolor="#399de5"] ;
821 -> 822 ;
823 [label="day <= 0.367\ngini = 0.245\nsamples = 4\nvalue = [1, 6]\nclass = Yes", fillcolor="#5aade9"] ;
821 -> 823 ;
824 [label="gini = 0.0\nsamples = 1\nvalue = [0, 4]\nclass = Yes", fillcolor="#399de5"] ;
823 -> 824 ;
825 [label="day <= 0.617\ngini = 0.444\nsamples = 3\nvalue = [1, 2]\nclass = Yes", fillcolor="#9ccef2"] ;
823 -> 825 ;
826 [label="marital <= 0.75\ngini = 0.5\nsamples = 2\nvalue = [1, 1]\nclass = No", fillcolor="#ffffff"] ;
825 -> 826 ;
827 [label="gini = 0.0\nsamples = 1\nvalue = [1, 0]\nclass = No", fillcolor="#e58139"] ;
826 -> 827 ;
828 [label="gini = 0.0\nsamples = 1\nvalue = [0, 1]\nclass = Yes", fillcolor="#399de5"] ;
826 -> 828 ;
829 [label="gini = 0.0\nsamples = 1\nvalue = [0, 1]\nclass = Yes", fillcolor="#399de5"] ;
825 -> 829 ;
830 [label="gini = 0.0\nsamples = 7\nvalue = [0, 14]\nclass = Yes", fillcolor="#399de5"] ;
758 -> 830 ;
831 [label="age <= 0.49\ngini = 0.5\nsamples = 267\nvalue = [211, 202]\nclass = No", fillcolor="#fefaf7"] ;
583 -> 831 ;
832 [label="day <= 0.083\ngini = 0.491\nsamples = 171\nvalue = [149, 114]\nclass = No", fillcolor="#f9e1d0"] ;
831 -> 832 ;
833 [label="education_qual <= 0.5\ngini = 0.337\nsamples = 12\nvalue = [11, 3]\nclass = No", fillcolor="#eca36f"] ;
832 -> 833 ;
834 [label="num_calls <= 0.4\ngini = 0.48\nsamples = 5\nvalue = [2, 3]\nclass = Yes", fillcolor="#bddef6"] ;
833 -> 834 ;
835 [label="job <= 0.773\ngini = 0.5\nsamples = 4\nvalue = [2, 2]\nclass = No", fillcolor="#ffffff"] ;
834 -> 835 ;
836 [label="gini = 0.0\nsamples = 1\nvalue = [0, 1]\nclass = Yes", fillcolor="#399de5"] ;
835 -> 836 ;
837 [label="num_calls <= 0.1\ngini = 0.444\nsamples = 3\nvalue = [2, 1]\nclass = No", fillcolor="#f2c09c"] ;
835 -> 837 ;
838 [label="age <= 0.356\ngini = 0.5\nsamples = 2\nvalue = [1, 1]\nclass = No", fillcolor="#ffffff"] ;
837 -> 838 ;
839 [label="gini = 0.0\nsamples = 1\nvalue = [0, 1]\nclass = Yes", fillcolor="#399de5"] ;
838 -> 839 ;
840 [label="gini = 0.0\nsamples = 1\nvalue = [1, 0]\nclass = No", fillcolor="#e58139"] ;
838 -> 840 ;
841 [label="gini = 0.0\nsamples = 1\nvalue = [1, 0]\nclass = No", fillcolor="#e58139"] ;
837 -> 841 ;
842 [label="gini = 0.0\nsamples = 1\nvalue = [0, 1]\nclass = Yes", fillcolor="#399de5"] ;
834 -> 842 ;
843 [label="gini = 0.0\nsamples = 7\nvalue = [9, 0]\nclass = No", fillcolor="#e58139"] ;
833 -> 843 ;
844 [label="job <= 0.864\ngini = 0.494\nsamples = 159\nvalue = [138, 111]\nclass = No", fillcolor="#fae6d8"] ;
832 -> 844 ;
845 [label="mon <= 0.227\ngini = 0.497\nsamples = 153\nvalue = [131, 111]\nclass = No", fillcolor="#fbece1"] ;
844 -> 845 ;
846 [label="gini = 0.0\nsamples = 2\nvalue = [5, 0]\nclass = No", fillcolor="#e58139"] ;
845 -> 846 ;
847 [label="age <= 0.413\ngini = 0.498\nsamples = 151\nvalue = [126.0, 111.0]\nclass = No", fillcolor="#fcf0e7"] ;
845 -> 847 ;
848 [label="job <= 0.409\ngini = 0.5\nsamples = 103\nvalue = [79, 84]\nclass = Yes", fillcolor="#f3f9fd"] ;
847 -> 848 ;
849 [label="marital <= 0.25\ngini = 0.493\nsamples = 63\nvalue = [55.0, 43.0]\nclass = No", fillcolor="#f9e4d4"] ;
848 -> 849 ;
850 [label="gini = 0.0\nsamples = 3\nvalue = [0, 6]\nclass = Yes", fillcolor="#399de5"] ;
849 -> 850 ;
851 [label="marital <= 0.75\ngini = 0.481\nsamples = 60\nvalue = [55, 37]\nclass = No", fillcolor="#f6d6be"] ;
849 -> 851 ;
852 [label="num_calls <= 0.5\ngini = 0.466\nsamples = 35\nvalue = [34, 20]\nclass = No", fillcolor="#f4cbad"] ;
851 -> 852 ;
853 [label="age <= 0.317\ngini = 0.44\nsamples = 31\nvalue = [33.0, 16.0]\nclass = No", fillcolor="#f2be99"] ;
852 -> 853 ;
854 [label="education_qual <= 0.5\ngini = 0.346\nsamples = 16\nvalue = [21, 6]\nclass = No", fillcolor="#eca572"] ;
853 -> 854 ;
855 [label="day <= 0.317\ngini = 0.496\nsamples = 8\nvalue = [6, 5]\nclass = No", fillcolor="#fbeade"] ;
854 -> 855 ;
856 [label="gini = 0.0\nsamples = 2\nvalue = [0, 2]\nclass = Yes", fillcolor="#399de5"] ;
855 -> 856 ;
857 [label="num_calls <= 0.3\ngini = 0.444\nsamples = 6\nvalue = [6, 3]\nclass = No", fillcolor="#f2c09c"] ;
855 -> 857 ;
858 [label="mon <= 0.409\ngini = 0.48\nsamples = 4\nvalue = [2, 3]\nclass = Yes", fillcolor="#bddef6"] ;
857 -> 858 ;
859 [label="gini = 0.0\nsamples = 1\nvalue = [0, 2]\nclass = Yes", fillcolor="#399de5"] ;
858 -> 859 ;
860 [label="day <= 0.417\ngini = 0.444\nsamples = 3\nvalue = [2, 1]\nclass = No", fillcolor="#f2c09c"] ;
858 -> 860 ;
861 [label="gini = 0.0\nsamples = 1\nvalue = [1, 0]\nclass = No", fillcolor="#e58139"] ;
860 -> 861 ;
862 [label="num_calls <= 0.1\ngini = 0.5\nsamples = 2\nvalue = [1, 1]\nclass = No", fillcolor="#ffffff"] ;
860 -> 862 ;
863 [label="gini = 0.0\nsamples = 1\nvalue = [1, 0]\nclass = No", fillcolor="#e58139"] ;
862 -> 863 ;
864 [label="gini = 0.0\nsamples = 1\nvalue = [0, 1]\nclass = Yes", fillcolor="#399de5"] ;
862 -> 864 ;
865 [label="gini = 0.0\nsamples = 2\nvalue = [4, 0]\nclass = No", fillcolor="#e58139"] ;
857 -> 865 ;
866 [label="age <= 0.279\ngini = 0.117\nsamples = 8\nvalue = [15, 1]\nclass = No", fillcolor="#e78946"] ;
854 -> 866 ;
867 [label="mon <= 0.364\ngini = 0.32\nsamples = 3\nvalue = [4, 1]\nclass = No", fillcolor="#eca06a"] ;
866 -> 867 ;
868 [label="gini = 0.0\nsamples = 1\nvalue = [2, 0]\nclass = No", fillcolor="#e58139"] ;
867 -> 868 ;
869 [label="age <= 0.25\ngini = 0.444\nsamples = 2\nvalue = [2, 1]\nclass = No", fillcolor="#f2c09c"] ;
867 -> 869 ;
870 [label="gini = 0.0\nsamples = 1\nvalue = [2, 0]\nclass = No", fillcolor="#e58139"] ;
869 -> 870 ;
871 [label="gini = 0.0\nsamples = 1\nvalue = [0, 1]\nclass = Yes", fillcolor="#399de5"] ;
869 -> 871 ;
872 [label="gini = 0.0\nsamples = 5\nvalue = [11, 0]\nclass = No", fillcolor="#e58139"] ;
866 -> 872 ;
873 [label="job <= 0.227\ngini = 0.496\nsamples = 15\nvalue = [12, 10]\nclass = No", fillcolor="#fbeade"] ;
853 -> 873 ;
874 [label="day <= 0.733\ngini = 0.473\nsamples = 9\nvalue = [8, 5]\nclass = No", fillcolor="#f5d0b5"] ;
873 -> 874 ;
875 [label="job <= 0.136\ngini = 0.397\nsamples = 8\nvalue = [8, 3]\nclass = No", fillcolor="#efb083"] ;
874 -> 875 ;
876 [label="num_calls <= 0.1\ngini = 0.469\nsamples = 6\nvalue = [5, 3]\nclass = No", fillcolor="#f5cdb0"] ;
875 -> 876 ;
877 [label="age <= 0.337\ngini = 0.49\nsamples = 5\nvalue = [4, 3]\nclass = No", fillcolor="#f8e0ce"] ;
876 -> 877 ;
878 [label="gini = 0.0\nsamples = 1\nvalue = [0, 1]\nclass = Yes", fillcolor="#399de5"] ;
877 -> 878 ;
879 [label="age <= 0.356\ngini = 0.444\nsamples = 4\nvalue = [4, 2]\nclass = No", fillcolor="#f2c09c"] ;
877 -> 879 ;
880 [label="day <= 0.517\ngini = 0.48\nsamples = 3\nvalue = [3, 2]\nclass = No", fillcolor="#f6d5bd"] ;
879 -> 880 ;
881 [label="day <= 0.483\ngini = 0.444\nsamples = 2\nvalue = [1, 2]\nclass = Yes", fillcolor="#9ccef2"] ;
880 -> 881 ;
882 [label="gini = 0.0\nsamples = 1\nvalue = [1, 0]\nclass = No", fillcolor="#e58139"] ;
881 -> 882 ;
883 [label="gini = 0.0\nsamples = 1\nvalue = [0, 2]\nclass = Yes", fillcolor="#399de5"] ;
881 -> 883 ;
884 [label="gini = 0.0\nsamples = 1\nvalue = [2, 0]\nclass = No", fillcolor="#e58139"] ;
880 -> 884 ;
885 [label="gini = 0.0\nsamples = 1\nvalue = [1, 0]\nclass = No", fillcolor="#e58139"] ;
879 -> 885 ;
886 [label="gini = 0.0\nsamples = 1\nvalue = [1, 0]\nclass = No", fillcolor="#e58139"] ;
876 -> 886 ;
887 [label="gini = 0.0\nsamples = 2\nvalue = [3, 0]\nclass = No", fillcolor="#e58139"] ;
875 -> 887 ;
888 [label="gini = 0.0\nsamples = 1\nvalue = [0, 2]\nclass = Yes", fillcolor="#399de5"] ;
874 -> 888 ;
889 [label="job <= 0.318\ngini = 0.494\nsamples = 6\nvalue = [4, 5]\nclass = Yes", fillcolor="#d7ebfa"] ;
873 -> 889 ;
890 [label="day <= 0.667\ngini = 0.5\nsamples = 2\nvalue = [1, 1]\nclass = No", fillcolor="#ffffff"] ;
889 -> 890 ;
891 [label="gini = 0.0\nsamples = 1\nvalue = [0, 1]\nclass = Yes", fillcolor="#399de5"] ;
890 -> 891 ;
